
\data\
ngram 1=3789
ngram 2=118797

\1-grams:
-1.411492	</s>
-1.696189	<NUM>	-0.922287
-2.258747	<UNK>35023
-3.761496	<URL>	-0.8851289
-4.318529	<USERNAME>	-0.8480875
-99	<s>	-0.517763
-4.245978	B	-0.853723
-4.558289	BMW	-0.2819187
-3.939416	BRG	-0.4360374
-4.514823	Blackhat	-1.333592
-4.164945	C	-0.5190299
-4.660952	Coinbase	-0.2762346
-4.268841	DDOS	-0.281197
-4.558289	Day	-1.292199
-4.374645	DefconDay	-1.46829
-4.514823	E	-0.991153
-4.292974	FBI	-0.3346407
-4.439103	FVdpmEhKJDVzeSXyTADE	-1.406142
-4.514823	GDPR	-0.3498882
-4.8828	Google
-4.439103	Hj	-1.406142
-4.292974	ICT	-0.6448686
-4.606594	IR	-0.3961267
-4.345681	Jcoin	-0.6359192
-4.660952	NIUTM	-0.3450724
-4.439103	NXZ	-1.406142
-4.066191	PSP	-0.5898698
-4.374645	SSL	-0.330544
-5.359921	TeleDR	-0.2805984
-4.081168	USSD	-0.3701089
-4.374645	VAS	-0.2940885
-4.112767	a	-1.316059
-4.558289	address
-4.374645	and	-0.6020392
-4.292974	anonymous	-1.55628
-4.374645	b	-0.9908865
-4.024129	c	-0.7998096
-4.292974	co	-1.363038
-3.251582	com	-1.250529
-4.292974	d	-1.547472
-4.024129	e	-1.810713
-4.224259	f	-1.570953
-4.292974	far	-1.539129
-4.558289	info	-0.9821839
-3.40088	ir	-1.604639
-4.558289	is	-0.6020265
-4.439103	k	-1.406142
-4.318529	net	-1.212796
-4.475315	of	-0.3010142
-4.405679	org	-0.9526124
-4.245978	people	-1.55628
-4.292974	poll	-1.539129
-4.374645	rdwave	-1.151939
-4.292974	so	-1.55628
-4.318529	telescam	-1.230264
-4.439103	the
-4.558289	us	-0.7955354
-4.292974	voted	-1.55628
-4.475315	x	-0.8137432
-4.245978	xbet	-0.3024356
-4.475315	xyz	-0.88538
-4.245978	ا	-0.4649757
-3.878001	اب	-0.4117145
-4.475315	اباد	-0.2913174
-3.939416	ابادی	-0.4534244
-4.164945	ابان	-0.5397342
-4.129473	ابتدا	-0.2794382
-4.558289	ابتدای	-0.521
-4.439103	ابتدایی	-0.6236512
-4.514823	ابراهیم	-0.6689151
-4.514823	ابراهیمی	-0.2611377
-4.514823	ابرو	-0.3268984
-4.292974	ابروی	-0.3576996
-4.268841	ابزار	-0.3185933
-4.558289	ابزاری	-0.4007583
-4.606594	ابلاغ	-0.4719355
-4.18383	ابوذر	-1.341427
-4.09668	ابی	-0.4076632
-4.024129	اتاق	-0.3940547
-3.961982	اتحادیه	-0.8043597
-3.985784	اتفاق	-0.4785332
-3.998194	اتفاقا	-0.3013931
-4.660952	اتفاقات	-0.2919346
-3.897523	اتفاقی	-0.402058
-3.939416	اتهام	-0.3881674
-4.374645	اتی	-0.3596122
-4.405679	اتیه	-0.8446034
-4.09668	اثبات	-0.3274857
-4.606594	اثری	-0.6426929
-3.719771	اجاره	-0.7418482
-3.609156	اجازه	-0.464132
-3.783964	اجباری	-0.3710533
-3.658066	اجتماعی	-0.3753577
-3.998194	اجرا	-0.4463168
-3.776345	اجرای	-0.5615792
-3.598997	اجرایی	-0.6248726
-3.859319	احترام	-0.5596849
-4.268841	احتشامی	-0.3027903
-4.129473	احتمال	-0.4320391
-3.663857	احتمالا	-0.3687539
-4.374645	احتمالی	-0.333887
-4.037702	احراز	-1.310733
-4.514823	احساس	-0.2996367
-4.439103	احسان	-0.4298099
-4.606594	احقاق	-0.844892
-3.747138	احمد	-0.9482033
-3.776345	احمدی	-0.6893919
-4.268841	احمق	-0.2894044
-4.066191	اخبار	-0.3819245
-4.051713	اختراع	-0.3485443
-4.606594	اختصاص	-0.473408
-4.203574	اختصاصی	-0.3067915
-4.268841	اختلال	-0.4393426
-3.569871	اختیار	-0.5257871
-4.268841	اخذ	-0.4699984
-3.928558	اخر	-0.3317818
-3.79172	اخرین	-0.4765134
-4.268841	اخطار	-0.4037175
-4.245978	اخلاق	-0.3619324
-4.224259	اخلاقی	-0.3163038
-4.318529	اخلال	-1.045029
-3.681707	اخه	-0.3874671
-4.660952	اخوند	-0.2995878
-3.907624	اخیر	-0.3822377
-4.991945	اخیرا	-0.2898267
-3.776345	اداره	-0.5045981
-4.475315	اداری	-0.3655204
-4.345681	ادام	-0.6121696
-3.24265	ادامه	-0.5687532
-4.439103	ادب	-0.3626549
-3.225319	ادرس	-0.6515954
-3.807659	ادعا	-0.4703473
-4.660952	ادعاهای	-0.2987684
-3.551485	ادعای	-0.398784
-4.292974	ادعایی	-0.4442562
-3.3556	ادم	-0.3527974
-4.268841	ادما	-0.3782712
-4.051713	ادمای	-0.3087848
-4.345681	ادمایی	-0.7925717
-4.129473	ادمین	-0.4411134
-3.985784	ادیب	-1.556228
-4.79565	اذر	-0.5819708
-3.58419	اذری	-2.250236
-4.318529	ار	-0.6396939
-4.660952	ارا	-0.2727558
-3.433922	ارائه	-0.4234211
-4.318529	اراجیف	-0.2527572
-4.558289	اراذل	-0.2890796
-3.574592	ارایه	-0.5294874
-3.551485	ارتباط	-0.4808754
-3.473431	ارتباطات	-0.5949143
-4.475315	ارتباطش	-0.8895913
-4.081168	ارتباطی	-0.6190625
-4.037702	ارتزاق	-0.7510094
-4.374645	ارتش	-0.4700558
-4.164945	اردیبهشت	-0.6557279
-3.533847	ارز	-0.6335647
-2.633194	ارزش	-1.107543
-4.723099	ارزشش	-0.3499104
-4.345681	ارزشی	-0.386519
-4.475315	ارزهای	-1.040831
-4.475315	ارزی	-0.2808757
-3.078888	ارسال	-0.8056566
-4.345681	ارسالی	-0.316445
-4.439103	ارش	-0.5023301
-4.203574	ارشاد	-0.3774186
-4.292974	ارشد	-0.3427735
-3.939416	ارشیو	-0.4825232
-4.660952	ارقام	-0.4040692
-4.514823	ارمان	-0.6686419
-4.475315	ارمندهی	-0.3423697
-3.700322	ارمین	-1.067827
-4.660952	ارند	-0.4807954
-4.292974	اره	-0.4335043
-4.146847	ارون	-0.3323672
-3.961982	اروپا	-0.3554075
-3.624855	اریا	-0.6420067
-1.651812	از	-0.7398534
-3.641143	ازاد	-0.4838361
-4.439103	ازادی	-0.3765577
-4.606594	ازار	-0.3601605
-3.824205	ازاری	-0.446172
-4.514823	ازای	-0.4867383
-4.439103	ازاین	-0.3819756
-4.606594	ازت	-0.3580379
-4.514823	ازتون	-0.3791126
-3.533847	ازش	-0.4176449
-3.97372	ازشون	-0.416197
-4.268841	ازمایی	-0.4647384
-4.09668	ازمون	-0.498902
-3.687824	اس	-0.7321784
-3.196561	اساس	-0.4382334
-4.514823	اساسی	-0.2699684
-3.878001	اسامی	-0.4324731
-4.439103	اسان	-0.6137378
-2.139378	است	-0.726144
-3.687824	استاد	-0.4648196
-4.066191	استارتاپ	-0.3525557
-4.268841	استارتاپی	-0.4609489
-4.475315	استارس	-0.2414032
-3.86856	استان	-0.6404094
-4.18383	استانبول	-0.2970776
-4.024129	استخدام	-0.3728646
-4.051713	استخراج	-0.5639035
-4.224259	استراحت	-0.4499075
-4.268841	استرداد	-0.4290313
-4.224259	استریم	-0.4775499
-4.558289	استعداد	-0.341946
-4.318529	استعفا	-0.5249466
-3.950552	استعلام	-0.4179743
-2.847148	استفاده	-0.8606716
-4.558289	استناد	-0.360833
-4.723099	استور	-0.2674041
-4.224259	استوری	-0.3448679
-3.325159	استوی	-0.489587
-4.245978	اسرائیل	-0.3344519
-4.146847	اسفند	-0.6866905
-3.985784	اسلام	-0.429124
-3.304288	اسلامی	-0.4546231
-2.808065	اسم	-0.4863329
-4.439103	اسماعیل	-0.4481787
-4.439103	اسماعیلی	-0.2627506
-3.681707	اسمش	-0.3953649
-4.439103	اسمشو	-0.2882251
-4.405679	اسمشون	-0.3848334
-4.475315	اسمی	-0.5386066
-3.700322	اسناد	-0.4117378
-4.558289	اسنادی	-0.4440829
-3.97372	اسپانسر	-0.363576
-4.268841	اسپانیا	-0.3395158
-4.203574	اسکرین	-1.623222
-4.558289	اسکریپت	-0.2657983
-4.660952	اسکم	-0.3176041
-4.606594	اسیا	-0.2452535
-4.79565	اسیاتک	-0.2651852
-4.439103	اسیایی	-1.077573
-4.024129	اسیب	-0.8636918
-4.18383	اش	-0.3484329
-3.614326	اشاره	-1.021978
-3.658066	اشتباه	-0.3510066
-4.660952	اشتباهی	-0.3457578
-4.245978	اشتباهید	-0.3746802
-4.037702	اشتراک	-0.4290339
-4.405679	اشتهاردی	-0.3631096
-4.558289	اشخاص	-0.601204
-4.129473	اشغال	-0.3734877
-3.694028	اشنا	-0.691572
-4.475315	اشنایانتوت	-1.369811
-4.345681	اشنایی	-0.7133364
-4.146847	اشکار	-0.3251092
-4.439103	اشیانه	-0.3011015
-4.129473	اصفهان	-0.3114104
-3.815853	اصل	-0.4345375
-3.319847	اصلا	-0.3251104
-4.112767	اصلاح	-0.3552863
-3.388336	اصلی	-0.3646775
-4.606594	اصلیش	-0.254069
-3.719771	اضافه	-0.6823705
-3.103845	اطلاع	-0.9625962
-2.568699	اطلاعات	-0.6074842
-4.268841	اطلاعاتتون	-0.9512938
-4.475315	اطلاعاتش	-0.3135841
-4.405679	اطلاعاتشون	-0.4615497
-4.558289	اطلاعاته	-0.2993233
-3.619559	اطلاعاتی	-0.5388836
-4.203574	اطلاعی	-0.5931891
-3.897523	اطلاعیه	-0.4515169
-4.318529	اطمینان	-0.5179939
-4.345681	اظهار	-0.8032367
-3.58419	اعتبار	-0.4866664
-4.514823	اعتبارسنجی	-0.3392487
-4.112767	اعتباری	-0.460199
-4.203574	اعتراض	-0.4681678
-4.405679	اعتراف	-0.5286921
-3.560581	اعتماد	-0.5605199
-4.374645	اعدام	-0.3887171
-4.439103	اعضا	-0.3601062
-3.569871	اعضای	-0.5919513
-4.514823	اعطا	-0.4929115
-4.439103	اعطای	-0.5006678
-3.23607	اعلام	-0.677039
-4.514823	اعلان	-0.8235275
-4.660952	اعم	-1.194328
-4.224259	اعمال	-0.4168577
-3.79172	اغاز	-0.6898865
-4.405679	اغفال	-0.4554677
-4.037702	اف	-0.5528435
-4.129473	افتا	-0.3824609
-4.268841	افتاد	-0.3072243
-4.292974	افتادن	-0.3533432
-3.878001	افتاده	-0.4095192
-3.841408	افتخار	-0.3755018
-4.660952	افتخارات	-0.2750163
-4.475315	افتخاری	-0.4219287
-4.514823	افتضاح	-0.2581985
-3.218995	افراد	-0.3855197
-3.370175	افرادی	-0.9797442
-4.405679	افرین	-0.3403384
-3.652351	افزار	-0.3981143
-4.439103	افزاری	-0.2478309
-3.754257	افزایش	-0.4740045
-4.558289	افزود	-0.3248719
-2.707031	افزوده	-0.4655849
-4.558289	افسر	-0.409578
-4.09668	افشا	-0.6811836
-4.475315	افشانی	-0.3529944
-4.606594	افشاگری	-0.2926935
-4.066191	افشای	-0.7084597
-4.318529	افغانستان	-0.3166778
-4.558289	افکار	-0.9994713
-3.560581	اقا	-0.3560353
-4.514823	اقازاده	-0.3321815
-4.514823	اقامت	-0.4948576
-3.939416	اقامیری	-0.2943724
-2.661821	اقای	-0.9961613
-3.525289	اقایان	-0.3436673
-4.09668	اقایون	-0.3230908
-4.024129	اقتصاد	-0.5386735
-3.700322	اقتصادی	-0.4202412
-3.347084	اقدام	-0.8050103
-4.318529	اقدامات	-0.4314497
-4.374645	اقدامی	-0.3920045
-4.439103	اقدمی	-0.3129014
-4.558289	ال	-0.2886565
-4.660952	الاسلام	-0.3976846
-3.121875	الان	-0.3784658
-2.905077	البته	-0.3379414
-4.405679	البرز	-0.3438727
-4.439103	التحصیل	-0.6382983
-4.318529	الدین	-0.8125719
-3.747138	الله	-0.4775003
-3.859319	المال	-0.465566
-3.832721	المان	-0.3277839
-4.318529	الملل	-0.4051433
-4.09668	المللی	-0.3436639
-4.374645	الناس	-0.3210518
-4.439103	اله	-0.4926386
-3.477207	الوده	-0.7138681
-4.660952	الودگی	-0.2663758
-3.706709	الکترونیک	-0.6655771
-3.985784	الکترونیکی	-0.4067473
-4.475315	الگوی	-0.4250804
-3.504604	ام	-0.4585802
-3.433922	اما	-0.401503
-4.18383	اماده	-0.3258934
-4.405679	امادگی	-0.3164126
-4.129473	امار	-0.337997
-3.807659	امام	-0.4136786
-4.345681	امامی	-0.3397623
-3.97372	امثال	-0.3661178
-4.606594	امد	-0.3093629
-4.18383	امده	-0.4981279
-2.811327	امروز	-0.3520532
-3.100646	امریکا	-0.3535257
-4.374645	امریکاست	-0.3421715
-3.897523	امریکایی	-0.3826799
-4.439103	امسال	-0.2676028
-3.3556	امشب	-0.7089766
-4.146847	امضا	-0.4316103
-4.558289	امضای	-0.29887
-4.405679	املاک	-0.6034071
-3.841408	امن	-0.3861464
-3.171462	امنیت	-0.562803
-3.444346	امنیتی	-0.376829
-3.887653	امور	-0.7904007
-2.748907	اموز	-0.5252684
-3.569871	اموزش	-0.3452407
-3.897523	اموزشی	-0.3957979
-4.514823	اموزه	-0.2880661
-3.807659	امکان	-0.4310148
-4.112767	امکانات	-0.3065815
-4.245978	امیتیس	-0.3574994
-3.58419	امید	-0.4894538
-4.558289	امیدوار	-0.5986711
-3.841408	امیدوارم	-0.3680005
-3.985784	امیدواریم	-0.4500342
-4.203574	امیدی	-0.6131569
-3.394563	امیر	-0.9018697
-4.439103	امیرحسین	-0.437661
-3.928558	امیرشقاقی	-0.4099519
-4.558289	امیری	-0.3362378
-3.417087	امین	-1.30757
-2.943281	ان	-0.4365177
-4.558289	انالیز	-0.5094758
-3.768857	انتخاب	-0.3613422
-4.164945	انتخابات	-0.3750004
-3.309413	انتشار	-0.5049508
-4.318529	انتظار	-0.3720862
-4.146847	انتظامی	-0.3806699
-4.374645	انتقاد	-0.520645
-4.164945	انتقال	-0.3663248
-3.897523	انتها	-0.3865419
-4.514823	انتهای	-0.3131408
-4.037702	انتی	-1.447026
-4.439103	انجا	-0.4370135
-3.347084	انجام	-0.6392775
-3.733239	انجمن	-0.5055725
-4.514823	انجیدنی	-0.326277
-4.203574	انحصار	-0.4523232
-4.164945	انحصاری	-0.4103891
-3.440843	اند	-0.4546207
-4.558289	انداخت	-0.2784546
-4.010968	انداختن	-0.3838417
-4.164945	انداخته	-0.4083518
-4.129473	اندازه	-0.5471842
-3.488738	اندازی	-0.5755649
-4.374645	اندروید	-0.3528518
-4.010968	انرژی	-0.3427628
-3.985784	انزلی	-0.3719105
-4.224259	انسان	-0.5071474
-3.427109	انشالله	-0.4412832
-4.514823	انصاف	-0.2980136
-4.374645	انصافا	-0.3702752
-3.86856	انقلاب	-0.5759357
-3.985784	انقلابی	-0.3903735
-3.492651	انلاین	-0.3174745
-3.385256	انها	-0.4725781
-4.514823	انواع	-0.2993456
-4.164945	انچه	-0.6451354
-3.998194	انکار	-0.4589307
-4.146847	انگار	-0.3588836
-4.606594	انگشت	-0.3167795
-4.024129	انگل	-0.6099161
-4.514823	انگلستان	-0.31137
-3.776345	انگلیس	-0.3968706
-3.985784	انگلیسی	-0.3760011
-4.475315	انگیز	-0.2756318
-4.558289	اه	-0.4467834
-4.112767	اهداف	-0.3156548
-4.345681	اهمیت	-0.3661439
-4.439103	اهمیتی	-0.6235157
-3.451437	او	-0.4166237
-4.660952	اوائی	-0.3484537
-4.268841	اوج	-0.314003
-4.268841	اور	-0.6363329
-4.245978	اورد	-0.3561286
-4.224259	اوردن	-0.3075882
-4.051713	اورده	-0.435543
-4.558289	اوردی	-0.3151062
-3.928558	اوری	-0.4719193
-2.986397	اول	-0.3618281
-3.404073	اولین	-0.5996613
-4.318529	اولیه	-0.3121947
-4.051713	اومد	-0.3109406
-4.203574	اومدن	-0.2993058
-3.887653	اومده	-0.4151947
-4.606594	اومدی	-0.4760243
-4.660952	اومدید	-0.3867473
-2.78358	اون	-0.418768
-3.939416	اونا	-0.9679499
-4.405679	اونام	-0.3717737
-4.066191	اونایی	-1.162039
-3.79172	اونجا	-0.3113308
-4.606594	اونجاست	-0.9262448
-3.907624	اونقدر	-0.3215011
-3.635646	اونم	-0.4492918
-3.783964	اونها	-0.3672512
-4.318529	اونو	-0.326269
-4.224259	اونور	-0.3209029
-4.439103	اونی	-0.926327
-4.606594	اویژه	-0.2765745
-3.003896	اپ	-0.5573384
-4.558289	اپا	-0.3715958
-3.807659	اپارات	-0.4416075
-4.558289	اپدیت	-0.2994444
-3.477207	اپراتور	-0.5705963
-3.928558	اپراتورها	-0.4052999
-4.345681	اپراتورهای	-0.5007133
-4.723099	اپل	-0.2662361
-3.761496	اپلیکیشن	-0.4709143
-4.345681	اپهای	-0.4542542
-4.514823	اپی	-0.5099306
-4.558289	اکادمی	-0.276906
-4.660952	اکاذیب	-0.3777311
-3.897523	اکانت	-0.4693643
-3.747138	اکبر	-0.7347859
-4.268841	اکثر	-0.5627116
-3.713191	اکسچنج	-0.4450334
-4.439103	اکنون	-0.3052807
-4.475315	اکوسیستم	-0.734119
-4.081168	اگاه	-0.2996217
-4.024129	اگاهی	-0.4759819
-2.525501	اگر	-0.5214174
-4.203574	اگریگیتور	-0.3811279
-4.606594	اگریگیتوری	-0.3822462
-4.051713	اگه	-0.381775
-4.037702	اگهی	-0.4738674
-2.570576	ای	-0.549226
-3.210702	ایا	-0.3958744
-4.439103	ایت	-1.079088
-4.374645	ایتا	-0.2347075
-3.641143	ایجاد	-0.4619894
-4.037702	اید	-0.3594602
-4.129473	ایده	-0.5552756
-4.405679	ایدی	-0.5251443
-3.998194	ایراد	-0.3987245
-4.558289	ایرادی	-0.4533156
-2.485053	ایران	-0.4699946
-3.500583	ایرانسل	-0.4445584
-3.939416	ایرانه	-0.4415107
-3.111948	ایرانی	-0.4183676
-4.224259	ایرانیان	-0.4830531
-4.514823	ایرنیک	-0.2785824
-4.606594	ایستاده	-0.4296367
-4.010968	ایشان	-0.4048991
-2.935584	ایشون	-0.4125476
-4.374645	ایشونه	-0.3725652
-4.224259	ایم	-0.4323099
-4.164945	ایمان	-0.4095359
-3.462294	ایمیل	-0.4481388
-1.698267	این	-0.7679825
-3.000086	اینا	-0.3369063
-3.733239	اینارو	-0.295047
-4.405679	اینام	-0.2763424
-3.917965	اینبار	-0.5238723
-3.132035	اینترنت	-0.5000982
-3.832721	اینترنتی	-0.3359118
-2.71614	اینجا	-0.5396853
-3.86856	اینجاست	-0.8129342
-4.606594	اینجاییم	-0.4306072
-3.556009	اینجوری	-0.287678
-4.514823	اینحد	-0.2878989
-3.556009	اینده	-0.313823
-4.558289	اینروزا	-0.2788526
-4.558289	اینستا	-0.3602199
-3.140686	اینستاگرام	-0.4065399
-4.514823	اینستاگرامش	-0.5767806
-4.514823	اینستاگرامی	-0.3469086
-3.311998	اینقدر	-0.3847876
-3.40729	اینم	-0.4614518
-3.394563	اینماد	-0.3726839
-3.000086	اینه	-0.9842031
-3.598997	اینها	-0.3688479
-3.841408	اینهمه	-0.4638449
-3.404073	اینو	-0.3832637
-4.081168	اینور	-0.5414797
-3.998194	اینکارو	-0.6654568
-2.804827	اینکه	-0.4760529
-4.318529	اینگونه	-0.3636918
-4.558289	ایه	-0.3555219
-3.961982	ایوب	-0.9239128
-1.814656	با	-0.7441282
-3.733239	بابا	-0.3260051
-4.475315	باباش	-0.2550545
-4.081168	بابایی	-0.4105376
-3.496598	بابت	-0.420478
-3.961982	بابک	-0.6503205
-3.504604	بات	-0.6707729
-3.458645	باج	-0.7649234
-3.841408	باخته	-0.5691279
-4.558289	باختگان	-0.3245482
-4.345681	باد	-0.4129664
-3.776345	بادران	-0.4428822
-4.374645	بادرود	-0.2355417
-3.319847	بار	-0.3212683
-4.558289	باربد	-0.2911161
-4.606594	بارز	-0.3481741
-3.658066	بارها	-0.6254318
-3.108689	باز	-0.644942
-3.322495	بازار	-0.3269134
-4.129473	بازاریابی	-0.6394593
-4.514823	بازخواست	-0.3335408
-3.229588	بازداشت	-0.6053632
-3.700322	بازدید	-0.3931715
-4.439103	بازرسی	-0.3954364
-4.18383	بازرگانی	-0.4481551
-3.950552	بازم	-0.3846299
-3.850271	بازنشر	-0.5901654
-4.292974	بازه	-0.5470704
-4.405679	بازوی	-0.4434894
-3.985784	بازپرس	-0.610418
-4.606594	بازگرداندن	-0.3489751
-4.112767	بازگشت	-0.3975272
-3.179031	بازی	-0.4192201
-3.985784	باش	-0.3718991
-3.488738	باشد	-0.4194157
-4.112767	باشم	-0.3927419
-3.556009	باشن	-0.4364564
-4.164945	باشند	-0.4633037
-2.895035	باشه	-0.5081766
-4.066191	باشگاه	-0.6455598
-3.928558	باشی	-0.3644431
-3.137205	باشید	-0.630937
-3.939416	باشیم	-0.4568924
-4.606594	باطل	-0.3284244
-3.887653	باعث	-0.4313901
-3.998194	باغبانیان	-0.4386122
-4.405679	باقر	-0.2917726
-4.660952	باقی	-0.3785363
-4.475315	بال	-0.670546
-3.108689	بالا	-0.3968402
-4.318529	بالاتر	-0.3234017
-4.374645	بالاست	-0.2622526
-4.318529	بالای	-0.4643372
-4.514823	بالایی	-0.4199822
-4.558289	بامزه	-0.4214009
-4.245978	باند	-0.3304536
-2.858862	بانک	-0.8982524
-2.829722	بانکی	-0.5255936
-3.706709	باهاش	-0.4547228
-4.268841	باهاشون	-0.6230723
-3.444346	باور	-0.9432148
-4.660952	باورتون	-0.5036222
-4.558289	باورش	-0.6937075
-3.807659	باگ	-0.4356495
-2.61615	باید	-0.5067033
-4.345681	ببخشید	-0.356605
-4.405679	ببره	-0.3767814
-4.268841	ببرید	-0.5222523
-3.055287	ببنید	-0.6011464
-4.224259	ببنیم	-0.3498523
-3.574592	ببین	-0.4134979
-3.998194	ببینم	-0.4691635
-4.318529	ببینن	-0.326493
-4.024129	ببینه	-0.2967083
-3.279536	ببینید	-0.6001279
-3.624855	ببینیم	-0.3504111
-3.887653	بت	-0.3714853
-4.129473	بتونه	-0.2806111
-3.97372	بحث	-0.2779842
-4.292974	بحران	-0.5575879
-4.606594	بخاطر	-0.291719
-4.129473	بخت	-0.7880468
-4.514823	بختیاری	-0.3014207
-4.514823	بخرید	-0.4815145
-3.089631	بخش	-0.4748275
-4.164945	بخشنامه	-0.6174434
-3.265334	بخشی	-1.482223
-4.374645	بخصوص	-0.3061349
-4.606594	بخواد	-0.3361515
-4.374645	بخوانید	-0.5427927
-4.514823	بخوره	-0.2602673
-4.514823	بخون	-0.4617508
-4.606594	بخونه	-0.3787943
-3.216907	بخونید	-0.845521
-4.558289	بخیر	-0.3052433
-3.614326	بد	-0.5702041
-3.319847	بدافزار	-0.4466869
-4.475315	بدافزارها	-0.3030656
-4.224259	بدافزارهای	-0.5278552
-3.815853	بدبخت	-0.386325
-3.97372	بدبختی	-0.440826
-4.514823	بدتر	-0.3508508
-4.439103	بدترین	-0.4062223
-4.606594	بدرد	-0.2991868
-4.081168	بدست	-0.6329198
-3.719771	بدم	-0.3178562
-3.609156	بدن	-0.4132034
-4.245978	بدنه	-0.4821121
-3.116884	بده	-0.4390562
-4.268841	بدهی	-0.4510187
-4.514823	بدهید	-0.6140336
-4.475315	بدو	-0.4070074
-3.105454	بدون	-0.6605572
-4.037702	بدونن	-0.3719807
-4.318529	بدونه	-0.245813
-3.427109	بدونید	-0.4308447
-4.292974	بدونیم	-0.2916212
-3.768857	بدی	-0.272479
-3.231738	بدید	-0.4763781
-4.09668	بدیم	-0.2548772
-4.439103	بدین	-0.3337892
-4.405679	بدیهی	-1.110591
-4.405679	بذار	-0.4010322
-4.723099	بذارن	-0.270459
-4.405679	بذاره	-0.2884357
-3.950552	بذارید	-0.3981092
-3.706709	بذرپاش	-0.419299
-2.722765	بر	-0.9239723
-4.037702	برا	-0.4773832
-3.420402	برابر	-0.4810505
-4.051713	برات	-0.2933775
-3.713191	براتون	-0.3821534
-3.635646	برادر	-0.6315435
-4.558289	برادران	-0.4105733
-4.129473	براساس	-0.3708249
-3.630217	براش	-0.3539853
-3.776345	براشون	-0.3800525
-4.024129	برام	-0.3741801
-4.037702	برامون	-0.2929957
-4.345681	براورد	-0.390022
-2.166704	برای	-0.6465882
-4.203574	برتر	-0.3510822
-4.439103	برخلاف	-0.6016401
-3.02213	برخورد	-0.8229142
-4.514823	برخوردی	-0.6917879
-3.296713	برخی	-0.7872985
-4.146847	برد	-0.4268087
-4.514823	بردار	-0.3040745
-4.405679	برداری	-0.329689
-3.998194	برداشت	-0.4458347
-4.374645	برداشته	-0.3271319
-4.051713	بردن	-0.3744545
-4.292974	برده	-0.3081223
-2.644197	بررسی	-0.6547904
-3.815853	برسه	-0.3427408
-4.405679	برسونید	-0.3431835
-4.037702	برطرف	-0.7389542
-4.558289	برعلیه	-0.3880589
-4.010968	برق	-0.400323
-4.268841	برم	-0.3723607
-4.514823	برمیگرده	-0.669991
-4.129473	برن	-0.2646945
-3.125236	برنامه	-0.5224335
-4.010968	برنده	-0.4275897
-3.652351	بره	-0.3557553
-4.514823	برهان	-0.7367246
-3.86856	برو	-0.3273199
-3.841408	بروز	-0.7911115
-4.224259	بروزرسانی	-0.3676186
-4.439103	برگ	-0.5330733
-4.606594	برگرده	-0.3002132
-4.345681	برگردیم	-1.436276
-4.514823	برگرفته	-1.332631
-4.081168	برگزار	-0.6425589
-4.164945	برگزاری	-0.5681922
-4.318529	برگشت	-0.5499654
-4.203574	بری	-0.2703035
-3.619559	برید	-0.4348714
-4.164945	بریدن	-0.5699503
-4.606594	بریده	-0.275386
-3.761496	بریم	-0.5460795
-4.245978	بزارید	-0.2757244
-3.504604	بزرگ	-0.3270753
-3.726453	بزرگترین	-0.4797648
-4.010968	بزرگی	-0.49288
-4.292974	بزن	-0.3698877
-4.374645	بزنم	-0.3434389
-4.224259	بزنن	-0.331967
-3.733239	بزنه	-0.3437328
-4.245978	بزنی	-0.2896717
-3.589069	بزنید	-0.4539973
-4.203574	بزنیم	-0.3429838
-4.514823	بس	-0.8103031
-4.164945	بساط	-0.3993149
-4.439103	بست	-0.4303246
-3.547008	بستر	-0.4500769
-4.606594	بستری	-0.3937529
-4.081168	بستن	-0.333546
-3.675675	بسته	-0.4290177
-3.719771	بسیار	-0.3856405
-3.824205	بسیاری	-1.077076
-4.245978	بسیج	-0.444793
-3.850271	بشن	-0.3625916
-4.146847	بشنوید	-0.5241641
-3.08193	بشه	-0.4460488
-4.245978	بشی	-0.4242681
-3.733239	بشید	-0.448298
-4.558289	بشیم	-0.3520633
-4.405679	بصورت	-0.3785306
-3.031542	بعد	-0.569196
-3.887653	بعدا	-0.3540989
-4.558289	بعدش	-0.4458958
-3.86856	بعدی	-0.2650609
-4.606594	بعضا	-0.3440315
-4.374645	بعضی	-0.6167243
-4.224259	بعلاوه	-0.2451659
-4.558289	بغل	-0.3868658
-4.558289	بفرست	-0.8098633
-3.97372	بفرستید	-0.421174
-4.374645	بفرمایید	-0.508857
-4.558289	بقیش	-0.3071615
-3.270016	بقیه	-0.3934809
-3.706709	بلاخره	-0.3141034
-4.203574	بلافاصله	-0.4100132
-4.18383	بلاک	-0.5603642
-3.985784	بلاکچین	-0.4663579
-4.439103	بلد	-0.4738477
-4.606594	بلده	-0.330153
-3.641143	بله	-0.275147
-3.40088	بلکه	-0.3335838
-4.345681	بلیط	-0.6763241
-4.79565	بمونه	-0.2623493
-4.439103	بمی	-0.2392875
-4.439103	بنا	-0.697096
-4.066191	بنابراین	-0.3387005
-4.558289	بنام	-0.3002715
-4.345681	بند	-0.3612287
-4.606594	بندازن	-0.2805744
-4.514823	بندازه	-0.2659608
-3.740133	بنده	-0.4523947
-3.011616	بندی	-0.4463401
-4.660952	بندیه	-0.2780723
-4.79565	بنر	-0.2789457
-4.558289	بنویس	-0.4171385
-4.514823	بنویسم	-0.3111505
-4.405679	بنویسید	-0.4614288
-4.439103	بنگاه	-0.5601977
-3.747138	بنیاد	-0.8222049
-4.024129	بنیان	-0.4705717
-1.606517	به	-0.8078685
-3.985784	بهانه	-0.3734021
-4.010968	بهت	-0.30573
-3.619559	بهتر	-0.502283
-4.024129	بهتره	-0.339796
-4.475315	بهتری	-0.3349884
-3.897523	بهترین	-0.4882112
-3.86856	بهتون	-0.3489677
-4.164945	بهداشت	-0.3452022
-4.345681	بهرام	-0.9901398
-4.203574	بهره	-0.5163651
-4.024129	بهروز	-1.193615
-3.277136	بهش	-0.4019392
-4.558289	بهشت	-0.338058
-3.950552	بهشتی	-0.4563205
-3.694028	بهشون	-0.2864614
-3.97372	بهم	-0.4101554
-4.318529	بهمن	-0.6504437
-4.606594	بهینه	-0.6413804
-2.640314	بود	-0.5539017
-4.475315	بودجه	-0.3271323
-3.754257	بودم	-0.4937669
-3.194578	بودن	-0.4212994
-4.09668	بودند	-0.314437
-4.606594	بودنش	-0.319797
-2.835742	بوده	-0.6249824
-4.224259	بودی	-0.286267
-4.09668	بودید	-0.304471
-3.675675	بودیم	-0.5035851
-3.950552	بورس	-0.5189617
-4.606594	بومرنگ	-0.2729365
-3.897523	بومی	-0.2320186
-4.475315	بوک	-0.349431
-4.475315	بوی	-0.3472683
-4.345681	بپرس	-0.3674137
-4.606594	بپرسه	-0.4238271
-4.066191	بپرسید	-0.4562205
-3.260701	بچه	-0.7886498
-4.405679	بکار	-0.5425828
-4.606594	بکش	-0.6439474
-4.606594	بکشن	-0.3209883
-4.439103	بکشه	-0.4122008
-4.318529	بکشید	-0.2933227
-4.345681	بکن	-0.309014
-4.514823	بکنن	-0.4200589
-3.97372	بکنه	-0.38372
-4.037702	بکنید	-0.5236006
-3.726453	بگم	-0.3948617
-4.203574	بگن	-0.3034604
-3.619559	بگه	-0.3601613
-3.86856	بگو	-0.3173539
-3.961982	بگی	-0.27154
-3.624855	بگید	-0.3564004
-3.939416	بگیر	-0.3968329
-4.475315	بگیرد	-0.4389805
-4.475315	بگیرم	-0.3719722
-3.907624	بگیرن	-0.4370273
-3.579364	بگیره	-0.4229454
-4.146847	بگیری	-0.4241749
-3.669725	بگیرید	-0.5137978
-4.203574	بگیریم	-0.2811805
-4.164945	بگیم	-0.3399232
-2.975508	بی	-0.8046451
-4.066191	بیا	-0.2912608
-3.768857	بیاد	-0.3410897
-4.514823	بیارن	-0.3391041
-4.374645	بیاره	-0.3406121
-4.374645	بیارید	-0.2764901
-3.928558	بیان	-0.3876989
-3.897523	بیانیه	-0.4430857
-3.619559	بیاید	-0.4933095
-3.598997	بیت	-1.385501
-3.525289	بیتکوین	-0.3894117
-4.660952	بیداد	-0.3459443
-3.850271	بیدار	-0.5323424
-3.850271	بیرون	-0.3899627
-4.112767	بیزنس	-0.4913984
-4.475315	بیستون	-0.2810743
-4.318529	بیسواد	-0.3155742
-4.606594	بیسوادی	-0.4560585
-3.003896	بیش	-2.210143
-3.233898	بیشتر	-0.4373675
-3.776345	بیشتری	-0.5115862
-3.783964	بیشترین	-0.4709287
-4.245978	بیفته	-0.3797674
-4.374645	بیلیون	-0.9971153
-4.224259	بیمسئولیت	-0.4394773
-4.203574	بیمسئولیتی	-0.4854568
-3.719771	بیمه	-0.5203052
-3.306843	بین	-0.5580087
-4.112767	بینی	-0.4602507
-4.09668	بیچاره	-0.2957699
-4.374645	بیکار	-0.2793033
-2.481208	تا	-0.4383503
-4.660952	تاثیر	-0.2950324
-4.660952	تاخیر	-0.2905428
-3.358476	تاریخ	-0.5032051
-4.558289	تاریخی	-0.2296916
-3.747138	تازه	-0.4428103
-3.768857	تاسف	-1.083729
-4.010968	تاسیس	-0.4365737
-4.475315	تاشکایا	-0.3240396
-3.675675	تامین	-0.730583
-4.374645	تان	-0.4894099
-4.268841	تاکنون	-0.3088377
-3.799616	تاکید	-0.6946783
-3.216907	تایید	-0.592896
-4.405679	تبادل	-0.8053674
-3.635646	تبدیل	-0.7034496
-3.850271	تبریک	-0.8540969
-2.873727	تبلیغ	-0.5159195
-3.08808	تبلیغات	-0.4523711
-3.53819	تبلیغاتی	-0.3981317
-4.318529	تتر	-0.3878441
-4.606594	تتلو	-0.2959164
-3.694028	تجارت	-0.6611128
-4.112767	تجاری	-0.3009454
-3.939416	تجربه	-0.2972871
-3.669725	تحت	-0.9060476
-3.928558	تحریم	-0.5971919
-4.374645	تحریک	-0.3116375
-4.09668	تحصیل	-0.7516981
-4.164945	تحصیلی	-0.3320163
-4.112767	تحقیق	-0.3504861
-4.164945	تحقیقات	-0.4587665
-4.037702	تحلیل	-0.3637682
-4.268841	تحمل	-0.3683205
-4.146847	تحویل	-0.3537624
-4.09668	تخریب	-0.3615777
-4.224259	تخصص	-0.297279
-4.146847	تخصصی	-0.3294456
-4.292974	تخفیف	-0.3647042
-3.776345	تخلف	-0.3423665
-3.950552	تخلفات	-0.3148906
-4.660952	تدبیر	-0.3479412
-4.439103	تذکر	-0.6003044
-3.358476	تر	-0.5779685
-4.345681	ترابیان	-0.2868082
-4.18383	ترافیک	-0.3493566
-4.439103	ترامپ	-0.3434485
-3.733239	تراکنش	-0.5524379
-4.514823	تربیت	-0.375869
-4.374645	ترجمه	-0.3510462
-4.374645	ترجیح	-0.4448933
-3.985784	ترفند	-0.4291449
-4.374645	تره	-0.2343731
-4.292974	ترو	-1.230258
-4.558289	تروخدا	-0.287483
-4.606594	ترور	-0.4580364
-4.606594	ترویج	-0.3915761
-4.558289	ترکی	-0.418047
-4.475315	ترکیب	-0.2902435
-3.123552	ترکیه	-0.3966838
-4.292974	تری	-0.4261996
-4.051713	تریبون	-0.2685976
-4.439103	ترید	-0.3935676
-3.361372	ترین	-0.4696206
-3.807659	تست	-0.5224606
-4.405679	تسنیم	-0.3532643
-4.558289	تسویه	-0.4497389
-3.887653	تشخیص	-0.5877385
-3.961982	تشریف	-0.7110499
-3.630217	تشویق	-0.6850412
-3.263011	تشکر	-0.8545008
-3.917965	تشکیل	-0.4322799
-3.859319	تصاویر	-0.3597674
-3.694028	تصمیم	-0.566878
-4.660952	تصمیمات	-0.296811
-3.961982	تصور	-0.7470763
-4.164945	تصویب	-0.2890392
-3.447877	تصویر	-0.2750732
-4.203574	تصویری	-0.6651618
-4.439103	تضمین	-0.3518291
-4.345681	تضمینی	-0.2998753
-4.081168	تعاون	-0.9431755
-4.066191	تعجب	-0.3740224
-3.719771	تعداد	-0.3797683
-4.203574	تعرفه	-0.6710215
-3.985784	تعریف	-0.4794876
-4.345681	تعطیل	-0.4170088
-4.606594	تعطیلی	-0.4467577
-4.09668	تعقیب	-0.5745589
-4.405679	تعلیق	-0.4871967
-4.224259	تعیین	-0.64195
-3.458645	تغییر	-0.56138
-4.405679	تغییرات	-0.3563952
-4.558289	تغییری	-0.5027107
-4.558289	تفکیک	-0.4410658
-4.660952	تقاضای	-0.2909964
-4.558289	تقدسی	-0.2666379
-4.245978	تقدیر	-0.4348945
-4.245978	تقدیم	-0.5877318
-3.594005	تقریبا	-0.6461236
-4.514823	تقسیم	-0.3807287
-4.268841	تقلب	-0.5082038
-4.660952	تقلبی	-0.2697612
-3.508663	تلاش	-0.6014525
-4.292974	تلخ	-0.2880954
-3.950552	تلسکم	-0.3820108
-3.97372	تلفن	-0.4177349
-4.245978	تلفنی	-0.3599328
-4.318529	تلفیق	-1.157985
-4.268841	تله	-1.073665
-4.051713	تلویزیون	-0.3029884
-4.345681	تلویزیونی	-0.2810013
-3.042555	تلگرام	-0.4906123
-3.897523	تلگرامی	-0.3616731
-3.289268	تماس	-0.6738166
-3.289268	تمام	-0.4275355
-3.706709	تمامی	-0.4828429
-4.245978	تموم	-0.5937738
-4.292974	تن	-0.5446751
-4.09668	تنظیم	-0.6794477
-3.138942	تنها	-0.4400122
-4.475315	تنهایی	-0.2867175
-4.268841	ته	-0.2981313
-3.681707	تهدید	-0.477917
-3.3556	تهران	-0.353124
-3.761496	تهش	-0.3508005
-4.024129	تهمت	-0.4409498
-3.733239	تهیه	-0.6825331
-2.975508	تو	-0.3800333
-4.066191	توان	-0.3342246
-4.18383	تواند	-0.3536459
-4.405679	توانید	-0.2935329
-3.103845	توجه	-0.9232115
-4.203574	توجهی	-0.396089
-4.051713	توجیه	-0.3771833
-4.374645	توحید	-1.146078
-2.829722	توسط	-0.577596
-3.542577	توسعه	-0.6742666
-3.97372	توسکا	-0.4115572
-4.024129	توش	-0.2719949
-4.146847	توصیه	-0.4899527
-3.041163	توضیح	-0.6786945
-3.652351	توضیحات	-0.3563356
-4.374645	توضیحاتی	-0.619272
-4.374645	توضیحی	-0.3354127
-4.146847	توقع	-0.5184793
-4.037702	توقف	-0.5052431
-4.292974	توقیف	-0.3805463
-4.292974	تولد	-0.2847172
-3.481017	تولید	-0.5843347
-4.558289	تولیدی	-0.5446554
-2.99381	تومان	-0.5400069
-3.961982	تومانی	-0.2761418
-3.675675	تومن	-0.4295574
-4.606594	تومنی	-0.3873267
-4.558289	تونسته	-0.287286
-3.815853	توهین	-0.664511
-3.473431	توکن	-0.4958328
-4.112767	توی	-0.2995251
-4.558289	تویتر	-0.3388733
-3.253844	توییت	-0.4880931
-3.196561	توییتر	-0.4424321
-4.18383	توییتری	-0.2746161
-4.660952	توییتی	-0.3344772
-3.950552	تک	-0.4239899
-4.081168	تکذیب	-0.5053812
-4.439103	تکرار	-0.405814
-4.514823	تکراری	-0.2867389
-4.037702	تکلیف	-0.3322431
-4.129473	تکمیل	-0.4386114
-3.998194	تکمیلی	-0.3499239
-4.146847	تکنولوژی	-0.3168598
-4.268841	تگ	-0.453844
-3.928558	تی	-0.5326905
-4.224259	تیر	-0.564151
-3.950552	تیز	-0.3742264
-3.815853	تیغ	-1.174877
-3.319847	تیم	-0.4107705
-4.345681	تیمش	-0.2430106
-4.051713	تیموری	-0.3255181
-4.606594	تیمی	-0.2811856
-4.203574	تیک	-1.141222
-4.606594	تیکه	-0.2898195
-3.740133	ثابت	-0.3463939
-4.374645	ثامن	-0.3221484
-4.405679	ثانیه	-0.2919542
-2.938866	ثبت	-0.9038819
-4.439103	ثروت	-0.3212546
-4.606594	ثنا	-0.3881976
-4.558289	ج	-0.8230984
-3.669725	جا	-0.3524051
-4.245978	جاسمی	-1.60203
-4.475315	جاسوس	-0.272805
-4.18383	جاسوسی	-0.30152
-4.606594	جاش	-0.4733737
-3.641143	جالب	-0.6740466
-3.768857	جالبه	-0.7865281
-4.318529	جالبی	-0.4564057
-4.146847	جام	-0.9359984
-3.589069	جامعه	-0.3676165
-3.694028	جان	-0.336919
-3.850271	جاویدنیا	-0.4800151
-3.296713	جای	-0.5746939
-3.726453	جایزه	-0.4443341
-4.268841	جایگاه	-0.2781323
-4.606594	جایگزین	-0.2936454
-3.713191	جایی	-0.5295626
-4.292974	جبران	-0.3928259
-4.405679	جبهه	-0.3912819
-3.824205	جدا	-0.3667497
-4.374645	جداگانه	-0.282522
-4.374645	جدول	-0.4395162
-3.430502	جدی	-0.3778065
-3.225319	جدید	-0.3766536
-4.066191	جدیدی	-0.5248655
-4.606594	جذاب	-0.318064
-3.423743	جذب	-0.664598
-4.245978	جرائم	-0.6969543
-4.164945	جرات	-0.3785905
-3.341498	جرایم	-0.7572187
-4.660952	جرایمی	-0.5785382
-3.227448	جرجندی	-0.501704
-3.430502	جرم	-0.3666697
-4.439103	جرمه	-0.34806
-4.606594	جرمی	-0.3489114
-4.129473	جریان	-0.3585463
-3.998194	جریمه	-0.2752582
-3.477207	جز	-0.3298812
-4.514823	جزئیات	-0.3682378
-4.405679	جزایری	-0.3266777
-4.245978	جزو	-0.3543379
-4.318529	جزیات	-0.3957055
-3.783964	جستجو	-0.7896746
-4.203574	جستجوی	-0.5426871
-4.374645	جشن	-0.3365033
-4.010968	جشنواره	-0.5080264
-4.129473	جعبه	-1.217204
-4.066191	جعفر	-0.7733223
-4.318529	جعفری	-0.2559984
-4.051713	جعل	-0.5747719
-2.937769	جعلی	-0.4733905
-4.723099	جعلیه	-0.6326379
-4.345681	جلالی	-0.3437566
-4.318529	جلب	-0.4857689
-3.706709	جلسه	-0.4224714
-4.146847	جلو	-0.320636
-4.318529	جلوشو	-0.6985527
-4.345681	جلوه	-0.5581836
-4.245978	جلوگیری	-0.6747498
-3.433922	جلوی	-0.478567
-4.475315	جم	-0.5982294
-4.606594	جماعت	-0.3387848
-3.277136	جمع	-0.7858627
-4.606594	جمعا	-0.6437393
-4.224259	جمعه	-0.3868998
-4.439103	جمعی	-1.332631
-4.037702	جمله	-0.2698696
-4.09668	جمهور	-0.3559962
-3.51276	جمهوری	-1.026475
-3.444346	جناب	-0.9569553
-4.723099	جنجالی	-0.3750185
-4.374645	جنس	-0.3186245
-4.405679	جنسی	-0.3729574
-4.558289	جنوبی	-0.2787788
-4.146847	جنگ	-0.4418141
-3.939416	جهان	-0.5750695
-4.405679	جهانبخش	-0.3369972
-3.917965	جهانی	-0.2303673
-3.410532	جهت	-0.4892442
-3.37315	جهرمی	-0.3704348
-4.268841	جو	-0.3242414
-3.51276	جواب	-0.4570298
-4.224259	جوابش	-0.4643592
-4.660952	جوابی	-0.2798093
-4.558289	جوابیه	-0.4667894
-3.516896	جواد	-1.070187
-3.726453	جوان	-0.3158593
-4.245978	جوانان	-0.507875
-4.723099	جوانی	-0.3344261
-4.318529	جوایز	-0.4507062
-4.439103	جور	-0.3333657
-4.439103	جوری	-0.5432156
-4.066191	جون	-0.5217713
-3.824205	جوون	-0.4596255
-3.768857	جی	-0.8007165
-3.229588	جیب	-0.8067917
-4.514823	جیبش	-0.2751902
-3.897523	حاتمی	-0.4213701
-4.475315	حاج	-0.534632
-4.439103	حاجی	-0.5445256
-4.268841	حادثه	-0.3279983
-3.97372	حاشیه	-0.518019
-4.037702	حاصل	-0.4845968
-4.037702	حاضر	-0.3477662
-3.985784	حافظی	-1.136846
-3.045352	حال	-0.4398728
-2.897025	حالا	-0.5653487
-3.928558	حالت	-0.3171033
-3.675675	حالی	-0.8447402
-4.245978	حامد	-0.760536
-4.024129	حامی	-0.4329281
-4.318529	حامیان	-0.3478144
-4.164945	حاوی	-0.354841
-4.245978	حاکمیت	-0.2945019
-4.514823	حاکمیتی	-0.5153829
-4.18383	حبس	-0.5540448
-3.162182	حتما	-0.4222561
-2.810509	حتی	-0.5178344
-4.606594	حجاب	-0.3766879
-4.051713	حجت	-0.7584878
-3.569871	حجم	-0.5408781
-3.824205	حد	-0.5538504
-3.379161	حداقل	-0.422958
-4.268841	حداکثر	-0.5066715
-4.146847	حدس	-0.9027396
-4.245978	حدود	-0.9190859
-4.475315	حدی	-0.7252015
-3.116884	حذف	-0.7499194
-4.475315	حذفیات	-0.8846275
-4.514823	حراست	-0.3995048
-4.129473	حرام	-0.4736399
-3.423743	حرف	-0.6739113
-4.558289	حرفاش	-0.2848341
-4.318529	حرفای	-0.386985
-4.010968	حرفه	-1.529873
-4.475315	حرفی	-0.418644
-4.514823	حروم	-0.300593
-4.09668	حرکت	-0.3224798
-4.146847	حریم	-1.060398
-4.318529	حس	-0.394916
-3.053854	حساب	-0.6378418
-4.606594	حسابتون	-0.7512678
-4.224259	حسابی	-0.3408855
-4.475315	حساس	-0.3342126
-4.024129	حسام	-0.878682
-3.747138	حسن	-0.4831553
-4.405679	حسنعلی	-1.447114
-4.18383	حسنی	-0.3528459
-3.609156	حسین	-0.36446
-4.024129	حسینی	-0.5561993
-4.18383	حصین	-0.4214892
-4.345681	حضرت	-0.4667998
-3.614326	حضور	-0.5190728
-4.439103	حضوری	-0.2602305
-4.081168	حفاظت	-0.72909
-4.224259	حفظ	-0.5518454
-3.598997	حق	-0.556204
-3.652351	حقوق	-0.510982
-4.112767	حقوقی	-0.3644469
-4.514823	حقیقت	-0.3088791
-4.558289	حقیقی	-0.4226542
-3.878001	حل	-0.5076936
-4.203574	حلال	-0.3877707
-4.723099	حلاله	-0.3169383
-4.558289	حلقه	-0.3649922
-4.405679	حلقوم	-0.5298026
-3.198554	حمایت	-0.69125
-3.832721	حملات	-0.4707669
-3.574592	حمله	-0.4963672
-3.917965	حمید	-0.6067817
-4.405679	حمیدرضا	-0.3010003
-4.558289	حمیده	-1.301008
-4.405679	حوادث	-0.5363613
-4.660952	حواشی	-0.2636648
-3.630217	حوزه	-0.4703635
-4.660952	حوصله	-0.4243692
-4.010968	حکم	-0.3188574
-4.558289	حکومت	-0.2639244
-4.318529	حکومتی	-0.2396182
-4.475315	حیثیت	-0.3673581
-4.164945	حیف	-0.7096787
-3.17523	خارج	-0.9514264
-4.292974	خارجه	-0.2509544
-3.706709	خارجی	-0.3816539
-3.961982	خاص	-0.3084947
-4.224259	خاصی	-0.3450894
-4.318529	خاطر	-0.3620062
-4.475315	خاطره	-0.3142658
-4.514823	خالص	-0.4192441
-3.841408	خالی	-0.5350012
-4.345681	خام	-0.2995737
-4.558289	خاموش	-0.4656579
-3.53819	خانم	-0.3962103
-4.081168	خانه	-0.4447398
-3.740133	خانواده	-0.3186167
-4.318529	خانوادگی	-0.2856873
-4.558289	خاورمیانه	-0.3086885
-4.268841	خاک	-0.632536
-4.405679	خاکستری	-0.2947322
-3.249332	خب	-0.3711258
-2.956801	خبر	-0.5541805
-4.514823	خبرفوری	-0.2794401
-3.761496	خبرنگار	-0.3786736
-4.129473	خبرنگاران	-0.7309766
-4.318529	خبرنگاری	-0.4886677
-4.558289	خبرها	-0.3605788
-4.051713	خبرهای	-0.369175
-3.417087	خبرگزاری	-0.7632048
-3.565201	خبری	-0.3628783
-4.475315	خجالت	-0.2994629
-3.394563	خدا	-0.3309638
-3.663857	خداروشکر	-0.4219903
-4.345681	خدایی	-0.9995124
-3.225319	خدمات	-0.5944811
-4.439103	خدماتی	-0.3277238
-3.799616	خدمت	-0.4513768
-4.558289	خدمتتون	-0.367926
-4.374645	خراب	-0.3728595
-3.928558	خرج	-0.3480716
-4.374645	خرداد	-0.5928648
-4.112767	خرم	-1.254982
-3.850271	خروج	-0.6543683
-3.887653	خروجی	-0.3659403
-4.405679	خروجیش	-0.4120578
-3.306843	خرید	-0.53767
-4.245978	خریدار	-0.3225451
-4.037702	خریداری	-0.8447354
-4.606594	خریدن	-0.3076828
-4.051713	خریده	-0.4363994
-4.245978	خزایی	-0.4670755
-4.112767	خسارت	-0.3449315
-3.907624	خسته	-0.616511
-4.318529	خشونت	-0.4624085
-3.783964	خصوص	-0.3134873
-3.663857	خصوصی	-0.3050564
-3.897523	خط	-0.3953924
-3.783964	خطر	-0.5220022
-4.374645	خطره	-0.950872
-4.660952	خطری	-0.2848177
-4.439103	خلا	-0.7109283
-3.887653	خلاصه	-0.342076
-3.950552	خلاف	-0.5384913
-4.439103	خم	-0.4716489
-4.723099	خمینی	-0.275565
-4.268841	خنده	-0.7207217
-3.939416	خواب	-0.6949891
-3.681707	خواجه	-1.659644
-4.374645	خوار	-0.3834641
-4.439103	خواست	-0.5262727
-4.164945	خواستم	-0.5780596
-4.439103	خواسته	-0.496675
-4.405679	خوان	-0.3906803
-4.405679	خواهان	-0.3107106
-3.227448	خواهد	-1.419422
-4.475315	خواهر	-0.4761391
-4.224259	خواهش	-0.7154517
-4.224259	خواهم	-0.6546034
-3.815853	خواهند	-0.8976591
-3.850271	خواهی	-0.4320053
-4.345681	خواهید	-0.6565892
-3.832721	خواهیم	-0.9359057
-3.367221	خوب	-0.4376646
-3.719771	خوبه	-0.4100733
-3.504604	خوبی	-0.5592298
-2.822942	خود	-0.5014327
-4.024129	خودت	-0.35219
-4.660952	خودتو	-0.2829821
-3.565201	خودتون	-0.3483361
-4.514823	خودجوش	-0.2386845
-4.224259	خودداری	-0.7657985
-3.939416	خودرو	-0.355459
-3.130325	خودش	-0.4121247
-3.928558	خودشو	-0.40908
-3.652351	خودشون	-0.3905743
-3.768857	خودم	-0.3111977
-3.985784	خودمون	-0.3484103
-4.439103	خودکار	-0.4344313
-4.439103	خودکشی	-0.3241277
-4.203574	خور	-0.2856486
-3.768857	خورد	-0.5884034
-4.224259	خوردبین	-0.4772986
-4.129473	خوردن	-0.4021429
-4.024129	خورده	-0.3041299
-4.606594	خورشید	-0.2905402
-4.405679	خوری	-0.2771077
-4.051713	خوش	-0.3977443
-4.514823	خوشبختانه	-0.329524
-4.245978	خوشحال	-0.3769083
-4.660952	خوشحالم	-0.5913305
-4.558289	خوشحالی	-0.5099306
-3.917965	خون	-0.5917413
-4.475315	خوندن	-0.5071418
-3.624855	خونه	-0.2865804
-3.681707	خوک	-0.8939127
-4.606594	خوکها	-0.3849969
-3.985784	خیانت	-0.3260486
-4.475315	خیانتی	-0.755067
-3.614326	خیر	-0.4013402
-2.913281	خیلی	-0.539273
-4.606594	دات	-0.9030716
-3.726453	داخل	-0.864592
-3.706709	داخلی	-0.345039
-3.091187	داد	-0.647483
-4.405679	داداش	-0.2777764
-3.447877	داداشی	-0.4552108
-3.551485	دادستان	-0.5183534
-3.404073	دادستانی	-0.5316646
-4.374645	دادسرا	-0.3255605
-3.917965	دادسرای	-0.8517776
-3.928558	دادم	-0.4409361
-3.204585	دادن	-0.475308
-4.606594	دادند	-0.3066466
-2.998823	داده	-0.5971564
-3.547008	دادگاه	-0.376059
-4.224259	دادگاهی	-0.512054
-4.010968	دادگستری	-0.4266413
-4.374645	دادی	-0.2702786
-4.318529	دادید	-0.262233
-3.630217	دادیم	-0.6066889
-3.887653	دار	-0.3501842
-4.345681	دارابی	-0.2899036
-4.024129	دارای	-0.6067852
-4.010968	دارایی	-0.5330837
-3.23607	دارد	-0.5430003
-3.447877	دارم	-0.4361501
-2.932327	دارن	-0.4478698
-3.907624	دارند	-0.394036
-4.439103	دارنده	-0.8128425
-2.51503	داره	-0.4925265
-4.245978	دارو	-0.5884417
-3.496598	داری	-0.323535
-3.253844	دارید	-0.5161161
-3.24265	داریم	-0.5242219
-4.514823	داس	-0.2936422
-3.832721	داستان	-0.2992317
-3.352743	داشت	-0.4967029
-4.037702	داشتم	-0.3461399
-3.516896	داشتن	-0.4223211
-4.374645	داشتند	-0.2612638
-3.058168	داشته	-0.7206295
-4.405679	داشتی	-0.2526003
-4.203574	داشتید	-0.3355842
-4.514823	داشتیم	-0.280868
-4.475315	داعش	-0.4942499
-4.224259	داغ	-0.4982346
-4.146847	دام	-0.3128987
-4.514823	دامن	-0.3870589
-3.294217	دامنه	-0.5864975
-4.112767	دامپ	-0.3629085
-4.374645	دان	-0.3772674
-3.700322	دانش	-0.6304068
-4.374645	دانشجو	-0.4294143
-4.558289	دانشجوی	-0.2994502
-4.245978	دانشجویان	-0.4097432
-4.558289	دانشجویی	-0.3877169
-4.475315	دانشمند	-0.4738782
-3.194578	دانشگاه	-0.575436
-4.112767	دانشگاهی	-0.3832181
-4.203574	دانلود	-0.402553
-4.558289	داود	-0.6987108
-4.405679	داوود	-0.7778098
-4.268841	دبی	-0.375273
-4.405679	دبیر	-0.4585512
-4.024129	دختر	-0.3811642
-4.606594	دختران	-0.4105361
-1.675944	در	-1.057913
-4.405679	دراختیار	-0.3391936
-3.289268	درامد	-0.4459322
-4.024129	درباره	-0.3314276
-4.439103	درج	-0.5427613
-4.374645	درجه	-0.3263747
-3.473431	درحال	-0.5526463
-3.961982	درحالی	-0.8947946
-3.560581	درخواست	-0.3612214
-3.652351	درد	-0.4473519
-4.514823	دردناک	-0.2908109
-4.514823	دردناکه	-0.311397
-4.606594	درده	-0.7085401
-4.475315	درز	-0.7745183
-4.164945	درس	-0.3189054
-3.404073	درست	-0.5587877
-4.558289	درستش	-0.345731
-4.051713	درسته	-0.3591866
-4.318529	درستی	-0.4066958
-3.569871	درصد	-0.490439
-4.558289	درصدی	-0.3969883
-4.514823	درصورت	-0.3458517
-4.318529	درصورتی	-1.521079
-4.439103	درضمن	-0.3254972
-4.224259	درمان	-0.3862655
-4.514823	درمورد	-0.3385279
-4.514823	درنمیاد	-0.7137931
-3.747138	دروغ	-0.3821185
-4.292974	درون	-0.4192131
-3.907624	درک	-0.4258466
-2.908135	درگاه	-0.8035011
-3.950552	درگیر	-0.3471479
-3.364286	دریافت	-0.56975
-4.203574	دریافتی	-0.4607646
-3.253844	دزد	-0.4439418
-3.40088	دزدان	-0.4436213
-4.723099	دزدش	-0.2802717
-4.224259	دزده	-0.3247633
-2.966054	دزدی	-0.5623455
-4.475315	دزدیدن	-0.4417073
-4.268841	دزدیده	-0.7866361
-4.439103	دزدیه	-0.3740427
-3.917965	دزفولی	-0.4654689
-2.833152	دست	-0.5557969
-4.318529	دستت	-0.29668
-4.475315	دستتون	-0.3365398
-3.462294	دسترس	-0.8428871
-4.345681	دسترسه	-0.3822944
-3.477207	دسترسی	-0.5365614
-3.917965	دستش	-0.3096821
-4.245978	دستشون	-0.3307935
-3.887653	دسته	-0.5014234
-3.663857	دستور	-0.6210073
-4.660952	دستوری	-0.4737705
-4.345681	دستکاری	-0.588363
-2.934496	دستگاه	-1.109738
-4.09668	دستگیر	-0.7059182
-4.18383	دستگیری	-0.4919373
-4.18383	دستی	-0.2970919
-4.660952	دعا	-0.39591
-4.224259	دعوا	-0.4211451
-4.475315	دعوای	-0.3857863
-3.619559	دعوت	-0.7650335
-4.374645	دغدغه	-0.3962726
-4.514823	دفاتر	-0.4982466
-3.961982	دفاع	-0.4623884
-3.619559	دفتر	-0.3391153
-4.405679	دفعه	-0.6422444
-4.203574	دقایقی	-0.7349108
-3.907624	دقت	-0.5687624
-3.807659	دقیق	-0.3442054
-3.604047	دقیقا	-0.4650021
-3.465975	دقیقه	-0.5266615
-4.010968	دل	-0.3568044
-3.225319	دلار	-0.4569887
-3.719771	دلاری	-0.3249396
-4.037702	دلایل	-0.3402941
-4.345681	دلایلی	-0.3419266
-4.374645	دلسوز	-0.4885829
-4.374645	دلقک	-0.6213812
-4.318529	دلم	-0.4006968
-3.074364	دلیل	-0.3874488
-3.824205	دلیلش	-0.5422023
-4.024129	دلیلی	-0.4427917
-3.859319	دم	-0.443895
-4.660952	دمت	-1.20406
-4.514823	دمتون	-1.023251
-3.031542	دنبال	-0.5849463
-3.277136	دنیا	-0.3422242
-4.439103	دنیاست	-0.3409871
-4.129473	دنیای	-0.3724077
-4.164945	ده	-0.4830319
-3.961982	دهد	-0.392162
-4.245978	دهند	-0.3731417
-3.754257	دهنده	-0.4178624
-4.514823	دهندگان	-0.3060908
-4.558289	دهه	-0.589244
-4.18383	دهی	-0.3981373
-4.292974	دهید	-0.4180837
-2.919537	دو	-0.5549764
-3.447877	دوباره	-0.3748111
-3.525289	دور	-0.6830748
-4.405679	دوربین	-0.3120332
-3.579364	دوره	-0.5766738
-4.723099	دورهم	-0.5419011
-4.164945	دورهمی	-0.3541175
-4.268841	دوری	-0.6696796
-4.558289	دوزار	-0.5443865
-4.224259	دوزاری	-0.3426378
-3.998194	دوس	-0.749608
-3.364286	دوست	-0.7022839
-3.061068	دوستان	-0.4487293
-4.606594	دوستانش	-0.2660443
-3.887653	دوستانی	-1.13098
-4.606594	دوستش	-0.2787707
-4.268841	دوستمون	-0.2799785
-3.824205	دوستی	-0.5054964
-4.606594	دوش	-0.2822666
-4.660952	دوشنبه	-0.2525713
-3.265334	دولت	-0.3608257
-3.706709	دولتی	-0.4327375
-3.492651	دوم	-0.3921413
-4.374645	دونه	-0.4647302
-4.660952	دونیت	-0.4084876
-4.405679	دچار	-0.4677282
-2.849823	دکتر	-0.5819374
-4.606594	دکترا	-0.2559809
-4.081168	دکترای	-0.3843603
-3.630217	دکتری	-0.4297907
-3.713191	دکون	-0.4574148
-4.558289	دکونی	-0.3069645
-4.268841	دکی	-0.4038053
-3.51276	دی	-0.602579
-4.081168	دیتا	-0.3956431
-3.878001	دیتابیس	-0.3355944
-4.224259	دیتاسنتر	-0.3989622
-4.558289	دیتای	-0.2996011
-4.292974	دیتایی	-0.6311925
-4.558289	دیجی	-0.6805992
-3.859319	دیجیتال	-0.340055
-3.733239	دید	-0.4724529
-4.09668	دیدم	-0.2788763
-3.79172	دیدن	-0.4516827
-3.451437	دیده	-0.5898426
-4.318529	دیدی	-0.2651081
-3.859319	دیدید	-0.3865741
-4.292974	دیدیم	-0.3394485
-4.345681	دیر	-0.3723235
-3.719771	دیروز	-0.3554451
-4.245978	دیشب	-0.4719908
-4.146847	دین	-0.4997472
-4.164945	دیوار	-0.3105923
-4.558289	دیوان	-0.7780722
-4.660952	دیواندری	-0.296332
-4.475315	دیوونه	-0.3797683
-3.184796	دیگر	-0.3658547
-4.268841	دیگران	-0.2744155
-3.547008	دیگری	-0.5959997
-2.820427	دیگه	-0.3478724
-3.961982	ذخیره	-0.4858492
-4.245978	ذره	-0.7899235
-4.514823	ذوق	-0.3429703
-4.010968	ذکر	-0.6206331
-4.318529	ذی	-1.041353
-4.514823	ر	-0.2760659
-3.352743	رئیس	-0.8635516
-4.081168	رئیسی	-0.3308999
-2.526774	را	-0.6432797
-2.78589	رابطه	-1.497599
-3.630217	راحت	-0.3520348
-4.514823	راحته	-0.315249
-3.410532	راحتی	-0.4117975
-3.824205	راد	-0.3831931
-4.146847	رادیو	-0.6419365
-4.374645	رادیویی	-0.3949611
-4.024129	راز	-0.5455666
-4.558289	راس	-0.6491345
-3.850271	راست	-0.4955277
-4.112767	راستای	-0.3272412
-4.066191	راستی	-0.3843402
-4.037702	راضی	-0.450306
-3.681707	رانت	-0.5676569
-4.164945	رانتی	-0.2986593
-2.897025	راه	-0.8032942
-4.268841	راهبردی	-0.6573428
-4.514823	راهنمایی	-0.398645
-4.164945	راهکار	-0.4305167
-4.224259	راهکارهای	-0.473436
-3.776345	راهی	-0.7304493
-4.051713	رای	-0.5178759
-4.081168	رایانه	-0.9464537
-4.475315	رایتل	-0.3671721
-3.473431	رایگان	-0.385297
-3.878001	ربات	-0.4700595
-4.558289	ربط	-0.4290619
-3.985784	ربطی	-1.242436
-3.939416	رتبه	-0.6904923
-4.439103	رحم	-0.4755624
-3.878001	رخ	-0.862851
-3.897523	رد	-0.5207719
-4.405679	رده	-0.560989
-4.024129	رزومه	-0.2915414
-3.669725	رسان	-0.6722265
-3.210702	رسانه	-0.7528958
-3.394563	رسانی	-0.5099422
-4.606594	رسم	-0.553732
-4.112767	رسما	-0.3203171
-3.294217	رسمی	-0.4433345
-4.245978	رسول	-0.5605411
-4.558289	رسولی	-0.6410723
-3.824205	رسید	-0.5584757
-4.051713	رسیدن	-0.6459915
-3.768857	رسیده	-0.5844635
-3.97372	رسیدگی	-0.4690246
-3.694028	رشته	-0.8214543
-3.824205	رشد	-0.3304236
-4.475315	رشوه	-0.3971529
-4.066191	رشیدپور	-0.3350153
-3.404073	رصد	-0.6360886
-3.39771	رضا	-0.8368896
-4.081168	رضایت	-0.2944662
-3.985784	رضایی	-0.3953136
-4.514823	رضوی	-0.4906335
-4.09668	رعایت	-0.3576551
-4.514823	رفاه	-0.5424424
-3.635646	رفت	-0.4026418
-4.081168	رفتار	-0.3200391
-4.514823	رفتم	-0.2949386
-3.726453	رفتن	-0.3724967
-3.437369	رفته	-0.3964975
-4.660952	رفتی	-0.2881098
-4.723099	رفتیم	-0.4026548
-4.245978	رفسنجان	-0.411219
-4.066191	رفع	-0.5120398
-4.292974	رفیق	-0.332094
-4.514823	رقابت	-0.4890094
-3.630217	رقم	-0.4368498
-3.40729	رمز	-0.9340034
-3.504604	رمزارز	-0.4028788
-4.268841	رمزارزها	-0.2855818
-4.164945	رمضانعلی	-1.078987
-4.18383	رنگ	-0.3711464
-4.112767	رها	-0.5160713
-4.146847	رهبری	-0.3141294
-4.051713	رهنما	-0.6686864
-1.853462	رو	-0.6588206
-4.164945	روابط	-0.8939629
-4.18383	روال	-0.2886205
-4.439103	روایت	-0.4453477
-3.961982	روبیکا	-0.4135666
-4.268841	روح	-0.8302944
-4.374645	روحانی	-0.2903839
-2.904062	روز	-0.5169123
-4.245978	روزا	-0.2818798
-3.878001	روزانه	-0.39024
-3.768857	روزنامه	-0.6588234
-4.09668	روزه	-0.3313325
-4.09668	روزها	-0.3381186
-3.961982	روزهای	-0.8299471
-3.330538	روزی	-0.6246964
-4.318529	روستایی	-0.3528285
-4.268841	روسی	-0.5560219
-4.146847	روسیه	-0.3011412
-3.291736	روش	-0.445938
-4.010968	روشن	-0.336419
-4.164945	روشی	-0.3699183
-3.897523	روند	-0.3403297
-4.79565	رونق	-0.2785665
-4.245978	رونمایی	-0.608043
-2.973125	روی	-0.5718399
-4.224259	رویکرد	-0.3235064
-4.606594	رپورتاژ	-0.6529039
-4.606594	رژیم	-0.2730356
-4.245978	رکورد	-0.4084517
-4.374645	رگ	-0.3936459
-3.832721	ریاست	-0.8511266
-4.268841	ریال	-0.332764
-4.318529	ریالی	-0.467005
-4.112767	ریتوییت	-0.5009598
-4.345681	ریخته	-0.4020002
-4.318529	ریز	-0.3491251
-4.292974	ریزی	-0.3290517
-3.887653	ریس	-0.599768
-4.318529	ریسک	-0.2656222
-4.514823	ریش	-0.6492379
-4.514823	ریشه	-0.3781545
-4.606594	رینگ	-0.2694677
-4.129473	ریپورت	-0.3320627
-3.79172	رییس	-0.7221774
-3.333252	زاده	-0.4137028
-4.318529	زار	-0.4524076
-4.318529	زارع	-0.7047149
-3.48486	زالو	-0.8680283
-4.051713	زالوهای	-1.299337
-4.475315	زایی	-0.2965636
-3.754257	زبان	-0.5309069
-4.439103	زحمات	-0.3328229
-4.318529	زحمت	-0.3196009
-3.832721	زد	-0.4799448
-4.345681	زدم	-0.263199
-3.447877	زدن	-0.4661022
-3.440843	زده	-0.3741657
-4.405679	زدی	-0.2991341
-4.164945	زدیم	-0.465423
-4.292974	زرابادی	-0.5198784
-4.374645	زرد	-0.3355705
-4.606594	زرنگ	-0.2893868
-4.164945	زرگانی	-0.320789
-4.345681	زرین	-0.601368
-4.245978	زشت	-0.5935548
-4.146847	زشته	-0.4553053
-4.723099	زم	-0.4441473
-3.270016	زمان	-0.3009358
-3.473431	زمانی	-0.7066571
-4.374645	زمین	-0.2656543
-4.112767	زمینه	-0.2756884
-4.037702	زن	-0.4261518
-3.726453	زندان	-0.4673161
-3.799616	زنده	-0.3949638
-3.413797	زندگی	-0.4506892
-4.475315	زندگیش	-0.3092445
-4.558289	زندگیشون	-0.4042135
-4.010968	زنگ	-0.5100545
-4.660952	زهی	-0.3654196
-4.606594	زود	-0.3566993
-4.606594	زودتر	-0.2926319
-3.309413	زودی	-0.4188945
-4.09668	زور	-0.3229855
-4.345681	زورش	-0.6876072
-3.624855	زیاد	-0.3219709
-4.475315	زیاده	-0.3008985
-3.598997	زیادی	-0.5160429
-4.606594	زیبا	-0.5474587
-3.08808	زیر	-0.6355135
-4.558289	زیرا	-0.3670515
-4.112767	زیرساخت	-0.4706205
-4.112767	زیرمجموعه	-0.5039979
-4.245978	زینب	-0.8625041
-3.542577	سابق	-0.4495268
-3.841408	سابقه	-0.2824647
-4.475315	ساترا	-0.3011543
-3.687824	ساخت	-0.4705834
-4.318529	ساختار	-0.3508125
-4.374645	ساختمان	-0.3770009
-4.475315	ساختمون	-0.3497512
-4.514823	ساختن	-0.2669627
-3.859319	ساخته	-0.4822468
-4.514823	ساختیم	-0.4091145
-3.304288	ساده	-0.5721965
-3.579364	ساز	-0.4349269
-3.188683	سازمان	-0.7476477
-4.112767	سازمانی	-0.3459865
-4.374645	سازنده	-0.3463019
-3.244866	سازی	-0.4148206
-4.475315	ساسپند	-0.6773578
-4.405679	ساشا	-0.8269092
-3.179031	ساعت	-0.8321563
-4.18383	ساعته	-0.5616173
-2.714172	سال	-0.7452039
-3.824205	سالم	-0.3109939
-4.723099	سالن	-0.3619545
-3.260701	ساله	-0.4490348
-3.86856	سالها	-0.255706
-3.86856	سالهاست	-0.5122352
-4.475315	سالهای	-0.385796
-4.405679	سالگی	-0.3332809
-4.292974	سالی	-0.5757343
-3.815853	سامان	-0.6017087
-4.292974	ساماندهی	-0.3928761
-3.349904	سامانه	-0.5075872
-3.950552	ساکن	-0.6647488
-4.558289	سایبر	-0.3390121
-3.16587	سایبری	-0.3983837
-2.286448	سایت	-0.732273
-3.86856	سایتش	-0.373535
-4.475315	سایتهای	-0.3771253
-4.037702	سایتی	-0.5610085
-4.475315	سایر	-0.296523
-3.97372	سایه	-0.4470165
-4.318529	سبحانی	-0.34045
-4.203574	سبز	-0.4266156
-4.514823	سبک	-0.3689268
-3.609156	ستاد	-0.9304544
-3.663857	ستاره	-0.9687641
-3.551485	سجاد	-1.506863
-4.723099	سحر	-0.6019323
-3.761496	سخت	-0.6093032
-3.985784	سخته	-0.4248547
-4.066191	سختی	-0.4666914
-4.439103	سخنان	-0.2824718
-4.606594	سخنرانی	-0.3402035
-4.558289	سخنگوی	-0.5464914
-3.156707	سر	-0.547255
-4.439103	سراب	-0.4575986
-4.723099	سراسر	-0.6662099
-4.606594	سراسری	-0.2716508
-4.129473	سراغ	-0.3905158
-4.318529	سران	-0.6742258
-4.606594	سرباز	-0.2790188
-4.558289	سربازان	-0.2853973
-4.066191	سرت	-0.489031
-4.558289	سرتون	-0.3422476
-3.740133	سردار	-0.591953
-4.292974	سرشاخه	-0.6081256
-4.606594	سرشماره	-0.3953461
-4.606594	سرشون	-0.288871
-3.998194	سرعت	-0.3123198
-4.010968	سرقت	-0.576084
-2.912247	سرمایه	-0.9314966
-4.514823	سرنوشت	-0.4204155
-3.97372	سرهنگ	-0.5113769
-3.477207	سرور	-0.4541742
-4.345681	سرورهای	-0.5491422
-4.723099	سروری	-0.3269892
-3.907624	سروش	-0.3478057
-2.827167	سرویس	-0.6578977
-3.961982	سرویسی	-0.3737387
-4.558289	سرپرست	-0.6014622
-3.887653	سرچ	-0.7974488
-4.374645	سرکار	-0.8446389
-4.606594	سرکردگی	-0.2815764
-3.39771	سری	-0.422732
-4.475315	سریال	-0.376216
-3.97372	سریع	-0.3261288
-4.318529	سریعتر	-0.3025406
-3.521072	سطح	-0.4974443
-4.475315	سعد	-0.9027682
-3.907624	سعی	-0.6168224
-3.768857	سعید	-0.7427796
-4.439103	سفارت	-0.451687
-4.374645	سفره	-0.4285384
-4.081168	سفید	-0.4342802
-4.660952	سفیر	-0.5122147
-4.318529	سقف	-0.4761547
-4.606594	سل	-0.3084147
-3.850271	سلام	-0.5459989
-4.292974	سلامت	-0.3147347
-4.268841	سلبریتی	-0.5854645
-4.405679	سلطان	-0.3765627
-4.558289	سلطانی	-0.3503272
-4.475315	سلیمانی	-0.3515213
-4.606594	سلیمه
-3.998194	سلیمی	-0.4912956
-4.245978	سم	-0.4446163
-3.604047	سمت	-0.3150021
-4.514823	سمنان	-0.2783907
-4.318529	سن	-0.4544952
-4.558289	سنت	-0.2561785
-4.066191	سنجی	-0.2937669
-3.338732	سند	-0.3876002
-4.224259	سندی	-0.4072202
-4.660952	سنگ	-0.2917693
-4.405679	سنگین	-0.3096835
-3.391438	سه	-0.6767453
-4.292974	سهام	-0.2926719
-4.374645	سهم	-0.3531244
-4.164945	سهیل	-0.9758359
-3.500583	سو	-1.716607
-4.318529	سوئد	-0.3637782
-4.318529	سوابق	-0.4332331
-3.928558	سواد	-0.4002875
-4.051713	سوار	-0.6160364
-4.268841	سواستفاده	-0.4648303
-3.167726	سوال	-0.5659786
-3.998194	سوالات	-0.5050527
-4.606594	سواله	-0.3799485
-4.146847	سوالی	-0.6443173
-4.439103	سوخت	-0.3844077
-3.069887	سود	-0.4936641
-4.268841	سودجو	-0.3175363
-4.374645	سودجویان	-0.3552947
-4.558289	سودجویی	-0.3250123
-4.345681	سودهای	-0.4532584
-4.245978	سودی	-0.4612122
-4.606594	سورس	-0.4671983
-3.850271	سوم	-0.4039043
-4.514823	سوهانیان	-0.4565016
-4.439103	سوژه	-0.3410434
-4.129473	سوی	-0.4023188
-3.706709	سپاه	-0.4088635
-4.374645	سپرده	-0.600089
-4.558289	سپری	-0.3216139
-4.18383	سپس	-0.4177196
-4.606594	سپهر	-0.9542198
-4.129473	سکه	-0.7967225
-3.719771	سکوت	-0.6174723
-3.897523	سی	-0.6178769
-4.129473	سیاست	-0.5996416
-3.658066	سیاسی	-0.3454327
-3.663857	سیاه	-0.4566801
-4.606594	سیب	-0.4363503
-3.394563	سید	-0.7972572
-4.405679	سیده	-0.9377617
-3.560581	سیستم	-0.4326042
-4.660952	سیسکو	-0.2559682
-4.439103	سیم	-0.8466594
-3.907624	سیما	-0.2876676
-3.263011	سینا	-1.476181
-4.606594	سینما	-0.4439124
-4.318529	سیگنال	-0.258318
-4.606594	ش	-0.2952637
-4.203574	شات	-0.345078
-4.514823	شاتل	-0.2864803
-4.660952	شاخ	-0.3496246
-4.558289	شاد	-0.3795295
-4.475315	شادن	-1.362132
-3.807659	شارژ	-0.436946
-3.928558	شامل	-0.4517474
-4.475315	شان	-0.3148649
-4.558289	شانس	-0.2978467
-3.897523	شاهد	-0.3409514
-4.292974	شاهین	-0.9028883
-3.265334	شاپرک	-0.3878391
-4.081168	شاکی	-0.448811
-4.514823	شایان	-1.342406
-3.341498	شاید	-0.4013767
-4.439103	شایعه	-0.3663049
-3.533847	شب	-0.4055863
-3.917965	شبانه	-1.10313
-4.18383	شبه	-0.3924159
-2.490494	شبکه	-0.799854
-4.18383	شبگرد	-0.5205896
-3.887653	شبیه	-0.9843286
-4.066191	شت	-1.763181
-4.164945	شتاب	-0.3832864
-3.97372	شخص	-0.3339228
-4.439103	شخصا	-0.3786972
-4.164945	شخصه	-0.3200352
-3.783964	شخصی	-0.4399648
-2.522965	شد	-0.5537854
-4.268841	شدت	-0.2995977
-3.86856	شدم	-0.3563408
-2.910186	شدن	-0.4504994
-3.859319	شدند	-0.3431073
-4.558289	شدنی	-0.6769429
-2.304926	شده	-0.6413996
-4.318529	شدی	-0.2809795
-3.859319	شدید	-0.2784813
-4.112767	شدیم	-0.3903322
-4.405679	شر	-0.2528836
-4.18383	شرافت	-0.3364706
-4.660952	شراکت	-0.3490763
-3.687824	شرایط	-0.4589686
-4.606594	شرایطی	-0.8864117
-4.558289	شرح	-0.3887434
-3.051002	شرط	-1.864371
-3.700322	شرطبندی	-0.4653637
-4.475315	شرعی	-0.3251988
-4.09668	شرم	-0.6957999
-3.347084	شروع	-0.6678478
-2.214932	شرکت	-0.6413645
-4.8828	شرکتش	-0.3709012
-4.514823	شرکته	-0.3064489
-4.475315	شرکتها	-0.2522454
-4.245978	شرکتهای	-0.3319641
-3.589069	شرکتی	-0.6725067
-3.832721	شریف	-0.3502204
-4.405679	شریک	-0.3537495
-4.405679	شش	-0.6003419
-3.824205	شطرنج	-0.4769478
-4.292974	شعار	-0.3217332
-4.037702	شعبه	-0.5809391
-3.985784	شعور	-0.3893776
-4.224259	شغل	-0.3387384
-4.558289	شغلی	-0.2679542
-3.733239	شفاف	-0.6664068
-4.146847	شفافیت	-0.3903526
-4.224259	شقاقی	-0.3324914
-4.405679	شلیله	-0.269693
-2.308512	شما	-0.4274015
-3.077375	شماره	-0.8362049
-4.245978	شمارو	-0.3562148
-3.598997	شماست	-0.4507048
-4.374645	شمایید	-0.5831792
-4.475315	شمخانی	-0.2923867
-4.318529	شن	-0.4197977
-4.514823	شناخت	-0.411103
-4.081168	شناخته	-0.7879499
-3.579364	شناسایی	-0.6294748
-4.010968	شنبه	-0.6835802
-4.439103	شنود	-0.3649565
-4.374645	شنیده	-0.3861183
-4.475315	شنیدید	-0.3177605
-3.961982	شه	-0.2856858
-3.961982	شهر	-0.4509373
-4.081168	شهرام	-0.8825883
-4.475315	شهرداری	-0.5084435
-4.292974	شهرستان	-0.3785439
-4.18383	شهره	-1.60202
-4.345681	شهروند	-0.380848
-4.318529	شهروندان	-0.446668
-4.405679	شهرک	-0.773445
-4.405679	شهریورنیا	-0.3237193
-4.051713	شهید	-0.537809
-4.405679	شهیدی	-0.257821
-3.878001	شو	-0.2828594
-4.318529	شواهد	-0.3433126
-4.514823	شواهدی	-0.5429759
-4.010968	شوخی	-0.3569079
-4.318529	شوخیه	-0.3069557
-3.294217	شود	-0.5257239
-3.907624	شورای	-0.9145219
-3.939416	شوند	-0.3457886
-4.514823	شونه	-0.3358666
-4.268841	شوید	-0.3717386
-4.374645	شویی	-0.4200054
-4.345681	شک	-0.37601
-3.244866	شکایت	-0.6027656
-3.768857	شکری	-2.05679
-3.928558	شکل	-0.5525615
-4.558289	شکن	-0.3378637
-4.660952	شکنجه	-0.6009917
-4.010968	شکوری	-0.6377572
-3.669725	شیاد	-0.3840498
-4.224259	شیادی	-0.3429855
-4.439103	شیخ	-0.5254003
-4.146847	شید	-0.4689353
-4.514823	شیر	-0.3243286
-4.514823	شیرین	-0.3319018
-4.558289	شیم	-0.2714337
-4.345681	شیوه	-0.2922907
-4.203574	صابر	-0.7762764
-4.292974	صاحاب	-0.3441404
-4.081168	صاحب	-0.3892355
-4.558289	صاحبان	-0.290364
-4.066191	صادر	-0.6418146
-4.345681	صادرات	-0.2768229
-4.051713	صادق	-1.015176
-4.439103	صادقی	-0.2882088
-4.606594	صبا	-0.6358677
-4.010968	صباسل	-0.3670628
-3.832721	صبح	-0.3620508
-4.010968	صبر	-0.5284129
-3.754257	صحبت	-0.7920535
-4.09668	صحت	-0.5661972
-4.439103	صحتی	-0.4113419
-3.939416	صحنه	-0.6347279
-4.081168	صحیح	-0.3816341
-4.374645	صد	-0.4196231
-3.658066	صدا	-0.7969506
-4.318529	صداسیما	-0.3424726
-4.374645	صداش	-0.4808269
-3.27475	صداوسیما	-0.4773661
-4.024129	صداوسیمای	-1.027039
-3.681707	صدای	-0.4752695
-4.606594	صدر	-0.4958893
-4.224259	صدها	-0.3945453
-4.164945	صدور	-0.4884675
-3.349904	صرافی	-0.5029791
-4.475315	صرف	-0.3491126
-3.859319	صرفا	-0.4505732
-4.318529	صریح	-0.2859356
-3.669725	صفحات	-0.6324415
-3.447877	صفحه	-0.4830668
-4.345681	صفر	-0.2724495
-4.514823	صلاحیت	-0.3729882
-4.292974	صمت	-0.304185
-4.405679	صنایع	-0.6779696
-4.374645	صندوق	-0.631703
-3.726453	صنعت	-0.4203099
-4.066191	صنعتی	-0.8223003
-4.268841	صنفی	-0.4798677
-4.405679	صوتی	-0.287489
-3.058168	صورت	-0.544799
-4.18383	صیانت	-0.7106913
-4.475315	صیغه	-0.3201374
-4.606594	ضایع	-0.649921
-3.97372	ضبط	-0.7376412
-4.164945	ضد	-0.409228
-4.439103	ضربه	-0.3956765
-4.374645	ضرر	-0.3391949
-4.129473	ضعف	-0.4694582
-4.345681	ضعیف	-0.3387221
-4.081168	ضمن	-0.4536849
-4.558289	ضیا	-0.2755797
-4.318529	طاهری	-0.4914474
-3.681707	طبق	-0.4912456
-4.660952	طبقه	-0.4371555
-4.439103	طراح	-0.3667487
-4.606594	طراحان	-0.9369805
-3.740133	طراحی	-0.715589
-3.279536	طرح	-0.5679341
-3.37315	طرف	-0.2584094
-3.249332	طریق	-0.4818664
-4.224259	طلا	-0.4810569
-4.010968	طلایی	-0.3254278
-4.345681	طلب	-0.3558975
-4.558289	طماع	-0.2569803
-3.985784	طمع	-0.5120836
-4.245978	طنز	-0.6888414
-4.18383	طور	-0.425853
-3.897523	طول	-0.5602255
-4.514823	طولانی	-0.3614137
-3.560581	طی	-0.6379585
-4.514823	ظاهر	-0.3423756
-4.606594	ظرفیت	-0.2933283
-4.318529	عادت	-0.4552643
-4.405679	عادل	-0.2810724
-4.129473	عادی	-0.4674123
-4.558289	عادیه	-0.2676273
-4.439103	عاقبت	-0.3180794
-3.950552	عالی	-0.4225655
-3.444346	عامل	-0.4281421
-4.606594	عاملین	-0.3245823
-4.405679	عبادتی	-0.3332392
-3.815853	عباس	-0.3662631
-4.439103	عباسی	-0.6196009
-4.146847	عبور	-0.5324848
-4.558289	عجایب	-0.390514
-4.606594	عجله	-0.3453318
-3.878001	عجیب	-0.5059029
-4.268841	عجیبه	-0.4484975
-4.606594	عجیبی	-0.3964331
-4.345681	عدالت	-0.2791301
-4.010968	عدد	-0.3322194
-3.641143	عدم	-0.5552704
-4.345681	عده	-0.6840679
-4.129473	عذر	-1.41488
-4.224259	عذرخواهی	-0.4389409
-4.514823	عراق	-0.2979663
-3.783964	عرض	-0.7857767
-4.374645	عرضه	-0.2934841
-4.318529	عرفان	-0.5042699
-4.405679	عزتی	-0.4609558
-3.376145	عزیز	-0.3394553
-3.391438	عزیزان	-0.3210529
-3.907624	عزیزانی	-1.315127
-4.245978	عزیزی	-0.5950632
-4.374645	عسگری	-0.4446399
-4.405679	عصر	-0.4224206
-3.294217	عضو	-0.6521804
-3.687824	عضویت	-0.5383701
-4.129473	علاقه	-0.6976867
-4.660952	علاوه	-0.9021105
-3.859319	علت	-0.4060038
-4.345681	علم	-0.5819324
-3.700322	علمی	-0.4367025
-4.514823	علنی	-0.3942401
-3.669725	علوم	-0.5608336
-4.439103	علوی	-0.5513259
-3.107068	علی	-0.8299074
-3.675675	علیجانی	-0.5064628
-3.747138	علیرضا	-0.5865472
-3.768857	علیه	-0.5114952
-3.897523	عمده	-0.582563
-4.514823	عمر	-0.3098986
-3.907624	عمل	-0.4395376
-4.164945	عملا	-0.3294812
-3.998194	عمله	-0.4250336
-3.832721	عملکرد	-0.4701502
-4.374645	عملیات	-0.4255603
-4.514823	عملیاتی	-0.4275437
-4.374645	عمو	-0.4534333
-3.417087	عمومی	-0.389266
-3.824205	عناوین	-0.5508886
-4.558289	عنایت	-0.5447956
-2.971939	عنوان	-0.388584
-3.907624	عهده	-0.4778338
-4.558289	عواقب	-0.3339051
-3.706709	عوامل	-0.4638135
-4.374645	عواملش	-0.3208219
-4.245978	عوض	-0.4399857
-3.39771	عکس	-0.4852723
-4.514823	عید	-0.3407202
-4.203574	عیدی	-0.5716747
-4.514823	عینا	-0.4256233
-4.405679	غر	-0.3621726
-4.606594	غرفه	-0.3173277
-4.606594	غریب	-0.376006
-4.439103	غصه	-0.2989773
-4.439103	غفاری	-0.3396887
-4.558289	غفلت	-0.4268476
-4.051713	غلط	-0.3570535
-3.504604	غیر	-0.8292696
-4.514823	غیرفعال	-0.4299603
-3.658066	غیرقانونی	-0.4266393
-4.318529	غیرمجاز	-0.4493035
-4.203574	فاجعه	-0.3284328
-4.037702	فارس	-0.5006846
-3.652351	فارسی	-0.4736179
-4.010968	فارغ	-1.481554
-3.97372	فارم	-0.5998343
-4.374645	فاز	-0.4617558
-3.574592	فاسد	-0.3768668
-4.345681	فاش	-0.8008759
-4.405679	فاصله	-0.3204514
-4.558289	فاضلاب	-0.3570197
-4.514823	فال	-0.4865951
-4.345681	فالو	-0.4280186
-4.245978	فالور	-0.4506632
-4.405679	فالوور	-0.3864948
-4.245978	فامیل	-0.3804096
-4.475315	فاوا	-0.4480675
-4.558289	فایروال	-0.3595548
-3.815853	فایل	-0.4556896
-4.18383	فاینانس	-0.3618596
-3.171462	فتا	-0.4311472
-4.09668	فتای	-0.7581375
-4.558289	فتوشاپ	-0.3604541
-4.439103	فحش	-0.3480219
-4.475315	فدا	-0.6017078
-4.439103	فدای	-0.64266
-4.439103	فدراسیون	-0.7400655
-4.164945	فر	-0.2784966
-4.514823	فراتر	-1.031534
-4.164945	فراخوان	-0.7541087
-3.928558	فرار	-0.5409771
-4.475315	فراری	-0.3012811
-3.897523	فراموش	-0.472206
-3.878001	فراهم	-0.5808033
-4.164945	فرایند	-0.2647106
-3.041163	فرد	-0.429573
-3.669725	فردا	-0.3627693
-3.388336	فردی	-0.869698
-3.551485	فردین	-0.5374923
-4.164945	فرزاد	-0.5711634
-4.558289	فرزند	-0.2812293
-4.203574	فرزین	-1.078969
-4.439103	فرستاد	-0.3904882
-4.514823	فرستاده	-0.4034459
-3.841408	فرشید	-1.120916
-4.024129	فرصت	-0.3670629
-4.292974	فرض	-0.5501602
-4.224259	فرق	-0.4198237
-4.292974	فرقی	-0.8210994
-4.405679	فرم	-0.327655
-3.928558	فرمان	-1.26968
-4.268841	فرمانده	-0.5831383
-4.439103	فرمودند	-0.5977224
-4.606594	فرمول	-0.600687
-3.473431	فرهاد	-1.178313
-4.051713	فرهنگ	-0.4492662
-4.081168	فرهنگی	-0.4203279
-4.606594	فرهودی	-0.3115698
-4.345681	فرو	-0.3865905
-4.292974	فروارد	-0.640703
-4.245978	فروخته	-0.4090884
-4.18383	فروردین	-0.8741012
-3.125236	فروش	-0.4398989
-4.010968	فروشنده	-0.4787225
-3.939416	فروشگاه	-0.6214454
-4.129473	فروشی	-0.3451287
-4.475315	فروغی	-0.3469929
-3.675675	فریب	-0.5620436
-4.374645	فریدون	-1.175755
-3.196561	فساد	-0.4843496
-4.514823	فسادی	-0.4084075
-3.939416	فشار	-0.3858292
-4.345681	فشل	-0.5014619
-3.961982	فضا	-0.4576809
-3.186735	فضای	-0.9956148
-3.40088	فعال	-0.5897632
-3.091187	فعالیت	-0.6121725
-4.374645	فعالیتش	-0.456528
-4.405679	فعالین	-0.3067372
-3.754257	فعلا	-0.3373099
-3.58419	فعلی	-0.3484649
-2.653204	فقط	-0.4915626
-4.129473	فلان	-0.3193097
-4.606594	فلانی	-0.2715304
-4.439103	فن	-0.3583072
-3.488738	فناوری	-1.078933
-4.405679	فناپ	-0.3220426
-3.646711	فنی	-0.3539841
-4.558289	فهمید	-0.3760908
-4.606594	فهمیده	-0.3447649
-4.475315	فوت	-0.7747185
-3.998194	فوتبال	-0.3617181
-3.950552	فوری	-0.3027262
-4.112767	فوق	-0.516472
-4.09668	فوچرز	-0.3272403
-3.094318	فکر	-0.9214475
-4.660952	فکری	-0.3249615
-4.268841	فیسبوک	-0.3538792
-4.439103	فیشر	-0.409255
-3.291736	فیشینگ	-0.5218464
-4.558289	فیشینگه	-0.2567746
-3.202565	فیلتر	-0.6436303
-4.514823	فیلترشکن	-0.2645731
-4.514823	فیلتره	-0.3498712
-4.037702	فیلترینگ	-0.279266
-3.783964	فیلم	-0.487516
-4.146847	فیک	-0.355112
-4.606594	ق	-0.4446023
-3.447877	قابل	-0.7038168
-3.939416	قابلیت	-0.3778666
-3.455026	قادری	-0.5319676
-4.660952	قاسم	-0.5836443
-3.652351	قاضی	-0.4787371
-4.606594	قاطی	-0.4741456
-4.439103	قاعدتا	-0.3159907
-3.985784	قالب	-0.3853878
-4.318529	قانع	-0.5702798
-3.299224	قانون	-0.3868832
-4.606594	قانونمند	-0.2606164
-3.238252	قانونی	-0.3533342
-4.18383	قاچاق	-0.5031396
-4.112767	قاچاقچی	-0.466334
-3.451437	قبل	-0.763337
-3.162182	قبلا	-0.6204922
-4.405679	قبلش	-0.5292053
-3.799616	قبلی	-0.3621945
-3.799616	قبول	-0.4923386
-4.374645	قتل	-0.3896123
-4.318529	قد	-0.4349332
-4.345681	قدر	-0.3410933
-3.706709	قدرت	-0.4657703
-4.037702	قدم	-0.4450035
-4.164945	قدیر	-1.681198
-3.841408	قدیمی	-0.4039792
-2.974315	قرار	-1.043505
-3.859319	قرارداد	-0.4585959
-4.037702	قراره	-0.3466504
-4.558289	قرارگاه	-0.4736209
-4.439103	قران	-0.3857533
-3.100646	قربانی	-0.4394546
-3.40729	قربانیان	-0.5138373
-4.374645	قربون	-1.041357
-4.475315	قرعه	-1.380179
-4.129473	قرمز	-0.3102596
-4.345681	قرون	-0.5053223
-3.850271	قسمت	-0.6139936
-4.475315	قشم	-0.5018836
-4.374645	قشنگ	-0.3691279
-4.405679	قصد	-0.3640901
-3.917965	قصه	-0.3633498
-4.037702	قضا	-0.3021799
-4.475315	قضائی	-0.4098629
-4.245978	قضاوت	-0.4337998
-3.08193	قضایی	-0.4349714
-3.370175	قضاییه	-0.4627065
-4.374645	قضیه	-0.2940489
-3.832721	قطع	-0.4042169
-3.635646	قطعا	-0.2966491
-4.245978	قطعی	-0.3304351
-4.439103	قفل	-0.4854871
-3.841408	قلابی	-0.479394
-4.224259	قلب	-0.4143034
-4.146847	قلم	-0.3831733
-4.037702	قلمبر	-1.792339
-4.558289	قم	-0.4203902
-2.611992	قمار	-0.6188495
-4.475315	قمارباز	-0.2907562
-4.606594	قماربازان	-0.455465
-4.514823	قماربازی	-0.4755211
-4.318529	قمارخانه	-0.4153488
-3.832721	قمارخونه	-0.6167012
-4.318529	قماره	-0.3550768
-4.374645	قمه	-0.8337436
-4.606594	قندون	-0.418844
-4.09668	قهرمان	-0.5027951
-4.292974	قوا	-0.3945593
-3.579364	قوانین	-0.4631529
-4.660952	قوانینی	-0.4862005
-4.037702	قول	-0.6254968
-3.314599	قوه	-1.61817
-4.514823	قوی	-0.321779
-3.560581	قیمت	-0.3642522
-4.514823	لابد	-0.3339396
-3.58419	لازم	-0.7574252
-4.292974	لازمه	-0.3813616
-4.318529	لاکچری	-0.3519593
-4.405679	لای	-0.3954234
-4.268841	لایه	-0.4195956
-3.447877	لایو	-0.6082266
-3.560581	لایواستریم	-0.7658851
-4.245978	لایک	-0.5115085
-4.439103	لباس	-0.4211538
-4.318529	لجن	-0.2932254
-4.037702	لحظه	-0.3561915
-3.589069	لذا	-0.4036351
-4.224259	لزوم	-0.5250304
-3.658066	لطف	-0.432656
-3.074364	لطفا	-0.6331741
-4.475315	لعنت	-0.424634
-4.010968	لغو	-0.5510354
-4.066191	لندن	-0.3473848
-4.224259	لندینگ	-0.4471127
-4.345681	لو	-0.5817325
-4.723099	لیام	-0.259663
-4.405679	لیسانس	-0.4371327
-3.212761	لیست	-0.4360339
-4.558289	لیستی	-0.6713712
-3.455026	لینک	-0.5427601
-4.558289	لینکدین	-0.3316515
-2.408746	ما	-0.4873563
-4.112767	ماجرا	-0.280531
-4.146847	مادر	-0.4012826
-4.024129	ماده	-0.9188559
-3.594005	مارو	-0.4183865
-4.024129	مارکت	-0.2950864
-4.606594	مارکلایی	-0.384496
-3.850271	ماست	-0.4538661
-3.998194	ماشین	-0.4687708
-4.558289	مافیا	-0.2810595
-3.97372	مافیای	-0.4867963
-4.475315	مافیایی	-0.2888547
-3.500583	مال	-0.8315588
-4.024129	مالباخته	-0.4380087
-4.292974	مالباختگان	-0.2913629
-4.18383	مالزی	-0.3375102
-4.224259	ماله	-0.6130091
-3.917965	مالک	-0.4711687
-4.514823	مالکیت	-0.261473
-4.164945	مالکین	-0.6064759
-3.40729	مالی	-0.3930276
-4.245978	مالیات	-0.3996529
-4.606594	مالیاتی	-0.2675885
-4.439103	ماند	-0.4430198
-4.268841	مانده	-0.5978662
-4.514823	ماندگار	-0.4941446
-4.374645	مانع	-0.4495315
-3.824205	مانند	-0.3268127
-4.081168	مانی	-0.3444405
-3.153095	ماه	-0.5675693
-4.112767	ماهان	-0.7713617
-4.439103	ماهانه	-0.7638218
-3.370175	ماهر	-0.430187
-3.97372	ماهه	-0.4264395
-4.268841	ماهواره	-0.7102829
-3.776345	ماهی	-0.8886088
-4.081168	ماهیانه	-0.3417243
-4.010968	ماکان	-1.832406
-4.345681	مایل	-0.5332343
-4.268841	مایلید	-0.942209
-4.268841	ماین	-0.5472926
-3.747138	ماینر	-0.3873324
-3.928558	ماینینگ	-0.3548968
-4.558289	مایه	-0.6449921
-4.514823	مبارز	-0.3567477
-3.265334	مبارزه	-0.8659149
-4.224259	مبارک	-0.6586588
-4.292974	مبارکه	-0.3103771
-4.514823	مبالغ	-0.2712056
-3.776345	مبلغ	-0.454226
-3.897523	مبنا	-1.099294
-4.010968	مبنی	-1.530542
-3.859319	مبین	-0.854578
-2.974315	متاسفانه	-0.3513668
-4.292974	متاسفم	-0.5017439
-4.606594	متحده	-0.4562921
-3.961982	متخصص	-0.4764924
-4.514823	متخصصین	-0.3386466
-3.807659	متخلف	-0.425209
-4.405679	متخلفین	-0.3722952
-4.345681	متصل	-0.5865151
-4.405679	متضرر	-0.4930226
-3.681707	متعلق	-1.837134
-4.514823	متفاوت	-0.2741438
-3.604047	متن	-0.4457147
-4.606594	متنی	-0.3966842
-3.961982	متهم	-0.3933091
-4.081168	متواری	-0.5853612
-4.051713	متوجه	-0.4685902
-3.733239	متوقف	-0.5792114
-4.606594	متولد	-0.5931265
-4.203574	مثال	-0.415571
-3.145961	مثل	-0.448127
-3.3556	مثلا	-0.3611551
-4.345681	مجاز	-0.3382953
-3.939416	مجازات	-0.4757059
-3.16587	مجازی	-0.4690565
-4.129473	مجبور	-0.5196124
-4.268841	مجتبی	-0.2829406
-4.09668	مجدد	-0.2958914
-3.604047	مجرم	-0.3410145
-4.024129	مجرمانه	-0.3963999
-3.726453	مجرمین	-0.357621
-3.79172	مجری	-0.417846
-3.233898	مجلس	-0.4742216
-4.514823	مجله	-0.3672658
-3.358476	مجموعه	-0.4049462
-3.37315	مجوز	-0.4817192
-4.318529	مجوزی	-0.4784256
-3.815853	مجید	-0.4237359
-4.374645	مجیدی	-0.3101524
-4.606594	محاسبات	-0.3525942
-4.318529	محاسبه	-0.3343338
-3.878001	محاکمه	-0.5494957
-3.108689	محترم	-0.429789
-4.660952	محتوا	-0.2725622
-4.224259	محتوای	-0.4213283
-3.733239	محتوی	-0.510161
-4.18383	محدود	-0.3982184
-4.164945	محدودیت	-0.3444817
-4.066191	محرمانه	-0.4241723
-4.051713	محرمیان	-0.7136201
-3.294217	محسن	-0.9902518
-4.066191	محصول	-0.3434864
-4.010968	محصولات	-0.2914661
-4.345681	محض	-0.4573963
-4.723099	محقق	-0.3615601
-3.663857	محل	-0.4441456
-4.514823	محله	-0.3788393
-3.016841	محمد	-1.05725
-4.439103	محمدجواد	-0.6570618
-3.998194	محمدرضا	-0.6505706
-4.723099	محمدزاده	-0.2922056
-4.18383	محمدعلی	-0.4937406
-4.318529	محمدی	-0.3023418
-3.961982	محمود	-0.8687211
-3.887653	محکوم	-0.615987
-4.146847	مخابرات	-0.5623919
-4.129473	مخابراتی	-0.4931913
-4.164945	مخاطب	-0.3363014
-4.405679	مخالف	-0.2871454
-4.245978	مختاری	-0.4013289
-4.09668	مخترع	-0.3502894
-3.799616	مختلف	-0.2499039
-4.475315	مختلفی	-0.5028701
-4.514823	مخزن	-0.8235098
-4.292974	مخصوص	-0.3189349
-4.268841	مخصوصا	-0.3791929
-4.051713	مخفی	-0.4581422
-3.481017	مدارک	-0.7074903
-4.475315	مدال	-0.2849935
-3.776345	مدت	-0.5214009
-4.606594	مدتها	-0.2842394
-3.950552	مدتهاست	-0.5704303
-3.79172	مدتی	-0.6795014
-4.345681	مدرس	-0.4268006
-4.475315	مدرن	-1.380174
-3.244866	مدرک	-0.5975602
-3.815853	مدعی	-0.8194152
-3.950552	مدل	-0.3855
-4.345681	مدیا	-0.3512247
-2.935584	مدیر	-0.6510557
-3.299224	مدیران	-0.5106162
-4.558289	مدیرش	-0.2706501
-3.330538	مدیرعامل	-0.6175877
-3.850271	مدیره	-0.6065442
-4.345681	مدیرکل	-0.3859701
-4.112767	مدیری	-0.4741102
-3.296713	مدیریت	-0.4153644
-4.037702	مذهبی	-0.3425848
-4.164945	مذکور	-0.4252132
-4.081168	مراتب	-0.4016912
-3.850271	مراجع	-0.5589284
-3.907624	مراجعه	-0.7449356
-4.439103	مراحل	-0.3606332
-4.245978	مراد	-1.300758
-4.606594	مرادزاده	-0.7260084
-4.164945	مرادی	-0.3814336
-4.558289	مراسم	-0.2984321
-3.473431	مراقب	-0.6258019
-4.129473	مراکز	-0.5465046
-3.754257	مربع	-0.4894953
-3.579364	مربوط	-1.315146
-4.224259	مربوطه	-0.3601592
-3.776345	مرتبط	-0.7984194
-4.268841	مرتضوی	-0.2854441
-3.652351	مرتضی	-0.9207579
-4.514823	مرتکب	-0.4070072
-4.292974	مرجع	-0.4331942
-3.799616	مرحله	-0.5954884
-4.146847	مرد	-0.3640819
-4.558289	مرداد	-0.8143535
-2.371511	مردم	-0.5471053
-3.998194	مردمه	-0.3760306
-3.619559	مردمی	-0.5666712
-4.374645	مرده	-0.4103952
-4.439103	مردک	-0.3024483
-4.245978	مرز	-0.437643
-4.292974	مرزهای	-0.899559
-4.066191	مرور	-0.5075322
-4.606594	مرورگر	-0.3556143
-3.071374	مرکز	-0.7529042
-3.17523	مرکزی	-0.3979568
-4.18383	مرگ	-0.415833
-4.514823	مریض	-0.4249111
-4.514823	مریم	-0.3009914
-3.317215	مسئول	-0.4189655
-4.660952	مسئوله	-0.2305265
-4.18383	مسئولی	-0.6257238
-3.51276	مسئولیت	-0.3942374
-4.439103	مسئولیتش	-0.6820208
-4.081168	مسئولیتی	-0.2937692
-3.105454	مسئولین	-0.4753692
-4.660952	مسئولینی	-0.8922439
-4.558289	مسائل	-0.4019417
-3.917965	مسابقات	-0.4526984
-3.807659	مسابقه	-0.4446149
-4.475315	مستر	-0.3432336
-4.203574	مستردیجی	-0.4333954
-4.439103	مستضعفان	-0.6904612
-4.475315	مستعار	-0.3000955
-3.97372	مستقل	-0.3820358
-3.388336	مستقیم	-0.5465646
-3.462294	مستند	-0.3971142
-4.318529	مستندات	-0.2816003
-3.658066	مسخره	-0.8012549
-3.465975	مسدود	-0.9671446
-3.317215	مسعود	-1.006492
-4.129473	مسلمون	-0.3295671
-4.318529	مسولین	-0.2930011
-3.761496	مسیر	-0.3344548
-3.928558	مشابه	-0.3216454
-4.051713	مشارکت	-0.5706697
-3.807659	مشاهده	-0.6600462
-3.832721	مشاور	-0.4745621
-3.97372	مشاوره	-0.3838174
-3.694028	مشت	-0.5584394
-3.998194	مشترک	-0.2730692
-4.475315	مشترکین	-0.3295826
-3.897523	مشتری	-0.3225819
-3.917965	مشتریان	-0.4303139
-3.367221	مشخص	-0.7524775
-4.558289	مشخصا	-0.2813404
-4.224259	مشخصات	-0.4288266
-4.112767	مشخصه	-0.2586292
-4.439103	مشخصی	-0.4214146
-4.024129	مشغول	-0.5223442
-4.514823	مشغوله	-0.3584832
-4.558289	مشمول	-0.387081
-4.224259	مشهد	-0.3348978
-4.514823	مشهدی	-0.336445
-3.347084	مشکل	-0.3333019
-3.917965	مشکلات	-0.3630184
-3.799616	مشکلی	-0.6333066
-4.475315	مشکوک	-0.3357549
-3.630217	مصاحبه	-0.5302595
-4.374645	مصادیق	-0.5926702
-4.405679	مصداق	-0.7157928
-4.18383	مصرف	-0.4025553
-4.066191	مصطفی	-0.5835559
-4.79565	مصلحت	-0.592095
-4.475315	مصنوعی	-0.2981203
-3.950552	مصوبه	-0.3211742
-4.345681	مطابق	-0.652284
-3.37315	مطالب	-0.5987502
-3.719771	مطالبه	-0.4712906
-4.405679	مطالبی	-0.5961664
-4.345681	مطالعه	-0.5385199
-3.719771	مطرح	-0.764984
-3.306843	مطلب	-0.487732
-3.887653	مطلبی	-0.6595418
-4.203574	مطلع	-0.3343342
-4.374645	مطلق	-0.2649453
-3.907624	مطمئن	-0.5260545
-4.405679	مطمئنم	-0.4022808
-4.606594	معادل	-0.6348587
-4.037702	معارفی	-0.303026
-4.405679	معامله	-0.3962309
-3.279536	معاون	-0.8145898
-3.961982	معاونت	-0.4940013
-4.010968	معتبر	-0.3303647
-4.475315	معدن	-0.466837
-3.147734	معرفی	-0.6892126
-4.245978	معروف	-0.5033669
-4.268841	معلوم	-0.5556978
-4.292974	معمولا	-0.3865717
-4.475315	معمولی	-0.2829102
-3.939416	معنی	-0.4606471
-4.606594	معین	-0.3762492
-3.897523	مفت	-0.5002161
-4.558289	مفسدین	-0.252548
-4.129473	مفهوم	-0.6347669
-4.051713	مفید	-0.4284119
-4.660952	مقابل	-0.2830736
-3.768857	مقابله	-0.9970707
-4.514823	مقاله	-0.4563477
-3.961982	مقام	-0.7415226
-4.439103	مقاومت	-0.4073432
-4.268841	مقایسه	-0.5816278
-4.475315	مقدار	-0.3502949
-3.887653	مقدم	-0.789086
-4.112767	مقررات	-0.783779
-4.439103	مقیم	-0.590629
-3.032903	ملت	-0.3876535
-4.345681	ملکی	-0.316884
-3.240446	ملی	-0.4491211
-4.514823	ممد	-0.3594045
-3.145961	مملکت	-0.4394746
-4.405679	مملکته	-0.5420619
-4.164945	ممنوع	-0.6230854
-4.18383	ممنون	-0.5018646
-4.051713	ممکن	-0.779118
-3.706709	ممکنه	-0.3883959
-2.430673	من	-0.4136293
-4.081168	منابع	-0.3218152
-4.405679	مناسب	-0.3383531
-4.514823	مناسبت	-0.4291393
-4.439103	مناسبی	-0.5609553
-3.97372	منافع	-0.2992318
-3.754257	منبع	-0.4908558
-2.834877	منتشر	-1.232691
-3.529547	منتظر	-0.4451373
-4.79565	منتظریم	-0.332561
-4.051713	منتقل	-0.7234386
-4.318529	منجر	-1.041408
-4.224259	منطقه	-0.4684964
-4.224259	منظور	-0.3264512
-4.475315	منفی	-0.3250521
-4.558289	منقضی	-0.9943535
-3.776345	منم	-0.3406923
-3.658066	منو	-0.3759651
-4.405679	منکر	-0.4222952
-4.129473	مهاجرت	-0.3941439
-3.565201	مهدی	-0.6133127
-3.998194	مهر	-0.4153839
-3.86856	مهران	-1.47701
-3.832721	مهرداد	-0.8680269
-4.164945	مهرمنش	-0.4151892
-3.133751	مهم	-0.6767404
-4.606594	مهمان	-0.334179
-4.723099	مهمتر	-0.5329821
-4.374645	مهمترین	-0.336957
-3.658066	مهمه	-0.5069371
-3.950552	مهمی	-0.4889768
-3.700322	مهندس	-0.3809815
-4.374645	مهندسی	-0.3665405
-4.475315	مو	-0.3888199
-4.345681	مواجه	-0.3511015
-4.405679	مواد	-0.4169895
-3.841408	موارد	-0.2647992
-4.224259	مواردی	-0.5879765
-4.374645	موافق	-0.3682605
-3.325159	موبایل	-0.3754725
-4.606594	موبایلتون	-0.7716247
-4.345681	موبایلی	-0.3258286
-4.514823	موتور	-0.2918256
-4.345681	موثر	-0.363405
-4.051713	موج	-0.3694681
-4.066191	موجود	-0.4794602
-3.985784	موجودی	-0.3908406
-2.944392	مورد	-0.4152007
-3.950552	موردش	-0.5306305
-4.268841	موردی	-0.3281777
-4.146847	موز	-0.8652905
-4.345681	موسس	-0.4470179
-4.558289	موسسات	-0.4060818
-3.635646	موسسه	-0.4193396
-4.037702	موسوی	-0.3925294
-4.203574	موسی	-0.4373198
-4.606594	موسیقی	-0.2634057
-4.439103	موش	-0.4936064
-4.514823	موشک	-0.5525094
-3.012917	موضوع	-0.4341846
-4.374645	موضوعات	-0.3577704
-4.374645	موضوعی	-0.4794414
-4.514823	موظف	-0.8498082
-3.694028	موفق	-0.5036322
-3.700322	موفقیت	-0.333504
-4.374645	موفقیتشون	-1.160573
-4.081168	موقت	-0.3770437
-4.245978	موقع	-0.3433591
-3.477207	مولوی	-0.4242411
-4.606594	مومن	-0.7507632
-4.318529	مونده	-0.3461303
-4.09668	مکالمه	-0.3442076
-4.292974	مکان	-0.3307225
-4.245978	مکانیزم	-0.331512
-4.405679	مگر	-0.402573
-4.224259	مگه	-0.6060413
-2.786663	می	-1.23317
-3.272377	میاد	-0.3924928
-4.292974	میارن	-0.2121978
-4.345681	میاره	-0.315831
-3.998194	میان	-0.3387804
-4.439103	میباشد	-0.305328
-4.405679	میبرن	-0.3075787
-4.037702	میبره	-0.3985643
-4.558289	میبنده	-0.3084444
-4.439103	میبینم	-0.3748272
-4.374645	میبینن	-0.3151008
-4.405679	میبینه	-0.3475209
-4.292974	میبینی	-0.3371233
-3.525289	میبینید	-0.4308676
-4.268841	میبینیم	-0.4532345
-4.514823	میتواند	-0.4308751
-3.939416	میتوانید	-0.6160042
-4.345681	میتونم	-0.2779937
-3.907624	میتونن	-0.4540704
-3.349904	میتونه	-0.4291734
-4.051713	میتونی	-0.3170674
-3.17523	میتونید	-0.6897281
-3.754257	میثم	-1.09955
-4.405679	میخرن	-0.4744484
-3.700322	میخواد	-0.3941317
-4.129473	میخوام	-0.4152068
-4.224259	میخوان	-0.3077139
-4.558289	میخواهید	-0.57448
-4.318529	میخوای	-0.2797919
-4.051713	میخواید	-0.7725454
-4.203574	میخورن	-0.308627
-4.129473	میخوره	-0.4146431
-4.129473	میداد	-0.3715084
-4.606594	میدادن	-0.2996929
-4.345681	میداده	-0.3285634
-4.475315	میداف	-0.3159055
-3.700322	میدم	-0.469826
-3.473431	میدن	-0.4015754
-3.038392	میده	-0.4462517
-3.950552	میدهد	-0.5715274
-4.660952	میدهند	-0.3718986
-3.985784	میدونم	-0.3663427
-4.164945	میدونن	-0.3978008
-3.630217	میدونه	-0.3690947
-4.405679	میدونی	-0.2795731
-4.010968	میدونید	-0.5128243
-4.345681	میدونیم	-0.2827126
-4.09668	میدی	-0.306122
-3.998194	میدید	-0.4120623
-3.917965	میدیم	-0.4715761
-4.475315	میذارم	-0.357871
-4.606594	میذارن	-0.3270169
-4.514823	میذاره	-0.2581929
-3.950552	میرسه	-0.3946716
-4.514823	میرم	-0.2812941
-3.939416	میرن	-0.4477083
-3.669725	میره	-0.327828
-4.374645	میری	-0.3374099
-4.475315	میرید	-0.3740487
-4.514823	میریم	-0.2412661
-4.439103	میز	-0.2957451
-4.405679	میزاره	-0.3589503
-3.783964	میزان	-0.3347905
-4.224259	میزنم	-0.3235499
-3.79172	میزنن	-0.3895308
-3.609156	میزنه	-0.4634308
-4.405679	میزنی	-0.2393756
-4.514823	میزنید	-0.2389281
-3.939416	میزنیم	-0.5100233
-4.475315	میسازن	-0.3255265
-4.606594	میسازه	-0.3515095
-3.859319	میشد	-0.3875019
-4.660952	میشده	-0.3257878
-4.558289	میشم	-0.2613206
-3.565201	میشن	-0.4055487
-4.475315	میشناسید	-0.366404
-2.734952	میشه	-0.5181469
-3.565201	میشود	-0.5254237
-4.345681	میشوند	-0.5237116
-4.224259	میشی	-0.3219041
-4.268841	میشید	-0.3147438
-4.439103	میفته	-0.2825934
-4.245978	میفرمایند	-0.2823806
-4.203574	میفروشن	-0.3774367
-4.010968	میفروشه	-0.3564995
-4.18383	میل	-0.3460428
-3.713191	میلاد	-0.9459506
-4.024129	میلی	-0.3134213
-3.223201	میلیارد	-0.8869011
-4.475315	میلیاردر	-0.4157335
-3.939416	میلیاردها	-0.878639
-3.681707	میلیاردی	-0.4342674
-2.858862	میلیون	-0.9090353
-3.907624	میلیونها	-0.9116126
-3.824205	میلیونی	-0.3409629
-4.318529	میمونه	-0.2959894
-4.606594	میندازن	-0.3794237
-4.558289	میندازه	-0.4133807
-4.514823	مینویسم	-0.3273012
-4.268841	میپردازیم	-0.5086462
-4.475315	میچرخه	-0.3852193
-3.740133	میکرد	-0.4176135
-4.18383	میکردم	-0.3348767
-3.907624	میکردن	-0.4793342
-3.815853	میکرده	-0.4184476
-4.660952	میکردی	-0.2892374
-4.374645	میکردید	-0.3085584
-4.606594	میکردیم	-0.4161914
-4.405679	میکشه	-0.2980592
-3.556009	میکند	-0.4945928
-3.133751	میکنم	-0.4638784
-2.88425	میکنن	-0.4918033
-3.681707	میکنند	-0.5162923
-2.718778	میکنه	-0.5015491
-3.560581	میکنی	-0.4071692
-3.314599	میکنید	-0.3501336
-2.99381	میکنیم	-0.6108503
-4.18383	میگذره	-0.5329488
-4.558289	میگرده	-0.3795322
-4.606594	میگرفته	-0.3863085
-3.768857	میگم	-0.3100645
-3.719771	میگن	-0.2912581
-3.433922	میگه	-0.3044258
-4.051713	میگی	-0.3437566
-4.318529	میگید	-0.384553
-4.558289	میگیرم	-0.284963
-3.669725	میگیرن	-0.534454
-3.417087	میگیره	-0.5384482
-4.146847	میگیری	-0.3055935
-4.514823	میگیرید	-0.3657026
-3.950552	میگیم	-0.3788268
-3.79172	ن	-0.3546503
-4.051713	نا	-0.8356189
-3.807659	نااگاه	-0.3737433
-4.203574	نااگاهی	-0.5577689
-4.268841	نابود	-0.3770979
-4.514823	نابودی	-0.2950292
-4.129473	ناجا	-0.4046921
-4.475315	ناجی	-0.3353485
-4.345681	ناحیه	-1.018889
-4.558289	ناخواسته	-0.4818786
-4.405679	نادان	-0.2659527
-4.514823	نادر	-0.4769417
-4.439103	ناراحت	-0.408593
-4.606594	ناراضی	-0.4728594
-4.268841	ناشناس	-0.2866739
-3.985784	ناصر	-1.015974
-3.352743	ناظر	-0.6131253
-4.245978	ناظمی	-0.4243748
-4.318529	ناقابل	-0.4024189
-4.439103	ناقص	-0.3081438
-3.062526	نام	-0.4104559
-4.606594	نامبرده	-0.3487889
-4.660952	نامدار	-0.3331274
-4.374645	نامشروع	-0.2480664
-3.440843	نامه	-0.3360499
-4.475315	نایب	-0.902791
-4.405679	نباش	-0.3477135
-3.897523	نباشه	-0.3527088
-3.807659	نباشید	-0.483497
-3.713191	نباید	-0.353428
-3.579364	نبود	-0.3923923
-4.439103	نبودن	-0.2699453
-3.824205	نبوده	-0.445778
-4.374645	نت	-0.3894265
-4.024129	نتایج	-0.4710175
-4.660952	نتونسته	-0.3471163
-4.268841	نتیجش	-0.5391612
-3.379161	نتیجه	-0.4787784
-4.066191	نجات	-0.4293578
-3.961982	نحوه	-0.5089136
-4.514823	نحوی	-0.543653
-4.164945	نخبه	-0.3263677
-4.268841	نخستین	-0.3495845
-3.998194	نخواهد	-0.7869725
-4.475315	نخواهند	-0.473232
-4.081168	نخورید	-0.4271612
-4.405679	نداد	-0.4409969
-4.268841	ندادن	-0.2909649
-4.066191	نداده	-0.5069401
-3.488738	ندارد	-0.5082231
-3.713191	ندارم	-0.3914456
-3.521072	ندارن	-0.4512885
-4.345681	ندارند	-0.3328671
-2.907113	نداره	-0.5418172
-4.292974	نداری	-0.2806423
-3.887653	ندارید	-0.2991035
-3.669725	نداریم	-0.43849
-4.066191	نداشت	-0.339451
-4.268841	نداشتن	-0.3382054
-3.681707	نداشته	-0.4665722
-4.475315	نده	-0.277677
-3.939416	ندید	-0.3300177
-4.558289	ندیدم	-0.3238011
-4.514823	ندیدن	-0.2697286
-4.245978	ندیده	-0.3924373
-4.292974	ندیدید	-0.581356
-4.475315	نرسیده	-0.3799433
-4.558289	نرفته	-0.3732811
-3.907624	نرم	-0.8651886
-3.859319	نره	-0.4153545
-4.558289	نریمان	-0.8448123
-4.558289	نریمانی	-0.5844217
-4.010968	نزدیک	-0.44283
-4.514823	نزن	-0.3150913
-4.292974	نسب	-0.3098094
-3.652351	نسبت	-1.220889
-3.335984	نسخه	-0.5613475
-4.514823	نسل	-0.398756
-3.58419	نشان	-0.637695
-4.475315	نشانه	-0.3906203
-4.606594	نشانی	-0.370152
-3.878001	نشت	-0.8392321
-3.496598	نشد	-0.4969498
-4.129473	نشدن	-0.3808537
-3.210702	نشده	-0.6324998
-4.245978	نشر	-0.6222095
-4.345681	نشست	-0.5206612
-4.558289	نشستن	-0.3793097
-4.345681	نشسته	-0.3488011
-3.917965	نشه	-0.3815487
-3.447877	نشون	-0.8724773
-4.439103	نشید	-0.3700759
-3.311998	نصب	-0.5768095
-4.245978	نصف	-0.4241515
-3.529547	نظارت	-0.5240078
-3.768857	نظارتی	-0.4011693
-3.624855	نظام	-0.6279837
-4.660952	نظامی	-0.2817681
-3.015529	نظر	-0.6721335
-4.268841	نظرات	-0.3677456
-4.203574	نظرتون	-0.8194574
-4.164945	نظرسنجی	-0.4178239
-4.475315	نظرش	-0.670143
-4.037702	نظرم	-0.3262505
-4.268841	نظری	-0.3920592
-4.558289	نظریه	-0.3408675
-3.147734	نفر	-0.4677413
-4.475315	نفره	-0.3214156
-4.037702	نفری	-0.7313946
-4.203574	نفع	-0.3867176
-3.815853	نفوذ	-0.4072187
-4.081168	نقد	-0.3484194
-4.606594	نقدی	-0.4621393
-4.405679	نقره	-0.9358318
-3.706709	نقش	-0.4785084
-4.345681	نقشه	-0.435174
-4.514823	نقض	-0.5156311
-4.037702	نقطه	-0.508288
-4.037702	نقل	-1.161251
-4.112767	نماد	-0.5262892
-4.558289	نماید	-0.3973922
-3.897523	نمایش	-0.4564476
-4.723099	نمایشنامه	-0.3518314
-4.475315	نمایشگاه	-0.4873148
-4.245978	نمایند	-0.440015
-3.352743	نماینده	-0.7746764
-4.405679	نمایندگان	-0.8442641
-4.066191	نمایندگی	-0.3795456
-4.606594	نمایید	-0.4661284
-4.514823	نمود	-0.4960842
-4.405679	نموده	-0.7250951
-3.265334	نمونه	-0.4081058
-3.719771	نمی	-0.6496676
-3.939416	نمیاد	-0.358246
-4.606594	نمیبینن	-0.4154388
-4.439103	نمیبینه	-0.3626249
-4.345681	نمیبینید	-0.3232982
-4.203574	نمیتونم	-0.4118399
-4.439103	نمیتونن	-0.2858164
-3.832721	نمیتونه	-0.3148968
-4.475315	نمیتونی	-0.279282
-4.129473	نمیخواد	-0.3127747
-4.439103	نمیخوام	-0.2796533
-4.514823	نمیخوره	-0.319077
-4.203574	نمیدن	-0.3345043
-3.887653	نمیده	-0.4537996
-4.660952	نمیدهد	-0.32085
-3.516896	نمیدونم	-0.495526
-4.081168	نمیدونن	-0.3013242
-3.815853	نمیدونه	-0.387702
-4.475315	نمیدونی	-0.3211343
-4.024129	نمیدونید	-0.3676291
-4.405679	نمیدونیم	-0.3337328
-3.939416	نمیرسه	-0.4115761
-4.203574	نمیره	-0.3360616
-4.345681	نمیشد	-0.3714603
-4.475315	نمیشن	-0.4071913
-4.660952	نمیشناسه	-0.3340197
-3.341498	نمیشه	-0.3292107
-4.374645	نمیشود	-0.4649063
-4.439103	نمیکرد	-0.303141
-4.405679	نمیکند	-0.4093511
-4.146847	نمیکنم	-0.3266833
-3.850271	نمیکنن	-0.4273011
-3.492651	نمیکنه	-0.3744184
-4.037702	نمیکنید	-0.3212434
-4.224259	نمیگه	-0.3461776
-4.514823	نمیگیرن	-0.520116
-4.318529	نمیگیره	-0.6195856
-4.475315	ننگ	-0.300626
-4.439103	ننگین	-0.9205025
-2.791329	نه	-0.3856859
-3.624855	نهاد	-0.6419738
-4.203574	نهادهای	-0.4778103
-3.799616	نهایت	-0.3521599
-4.037702	نهایی	-0.3033412
-4.345681	نو	-0.3837229
-4.203574	نوبت	-0.5725896
-4.606594	نوبیتکس	-0.3263004
-4.345681	نوتی	-0.3186561
-4.405679	نور	-0.2973857
-4.268841	نوروزی	-0.3554876
-4.514823	نوش	-0.4764989
-4.024129	نوشت	-0.4288552
-4.164945	نوشتم	-0.4814719
-4.09668	نوشتن	-0.3086942
-3.529547	نوشته	-0.4444492
-4.318529	نوشتیم	-0.3845511
-3.700322	نوع	-0.396427
-3.887653	نون	-0.5364721
-4.18383	نویس	-0.3068211
-4.475315	نویسنده	-0.3491042
-4.475315	نویسی	-0.3216206
-3.754257	نوین	-0.6619086
-3.768857	نژاد	-0.4334579
-4.439103	نکات	-0.4247073
-3.776345	نکته	-0.5995985
-4.051713	نکرد	-0.4493718
-4.203574	نکردم	-0.3115751
-3.97372	نکردن	-0.3287181
-3.556009	نکرده	-0.460559
-4.268841	نکردید	-0.3133758
-4.129473	نکن	-0.3378455
-4.405679	نکنن	-0.4133148
-4.606594	نکنند	-0.5155864
-3.97372	نکنه	-0.3267991
-4.558289	نکنی	-0.3844289
-3.333252	نکنید	-0.4750427
-4.224259	نکنیم	-0.3714479
-4.514823	نگار	-0.2823624
-3.824205	نگاه	-0.4904639
-4.514823	نگاهی	-1.135246
-3.604047	نگران	-0.4807526
-4.203574	نگرانی	-0.410104
-4.405679	نگرفته	-0.3549498
-4.439103	نگفت	-0.5166797
-4.374645	نگه	-0.4359291
-4.292974	نگهداری	-0.4367139
-4.292974	نگید	-0.3318974
-4.345681	نیا	-0.2761584
-4.405679	نیاد	-0.4328507
-3.630217	نیاز	-0.7779544
-3.887653	نیازی	-0.87198
-4.318529	نیرو	-0.5699632
-4.606594	نیروهای	-0.373184
-4.037702	نیروی	-0.6490963
-3.574592	نیز	-0.3921131
-2.523808	نیست	-0.5877656
-4.010968	نیستم	-0.5510452
-3.887653	نیستن	-0.3730398
-4.374645	نیستند	-0.3347569
-4.405679	نیستی	-0.2595336
-4.203574	نیستید	-0.2986315
-4.245978	نیستیم	-0.4260177
-4.245978	نیم	-0.6298138
-4.268841	نیما	-0.291023
-4.558289	نیمه	-0.3334517
-4.606594	نیوز	-0.378028
-4.558289	نیومده	-0.2307584
-4.164945	نیویورک	-0.3127091
-4.514823	نیک	-0.3617197
-4.475315	نیکی	-1.039551
-3.388336	ه	-0.4466151
-2.234007	ها	-0.5147457
-4.066191	هاب	-0.6782094
-4.514823	هاتون	-0.4270536
-3.807659	هادی	-0.9667063
-3.614326	هاست	-0.4646724
-3.761496	هاش	-0.3561945
-4.374645	هاشمی	-0.2375602
-4.558289	هاشو	-0.3221253
-4.268841	هاشون	-0.3873694
-3.594005	هاوس	-0.4899826
-2.004725	های	-0.6847902
-3.126925	هایی	-0.9278768
-4.112767	هدایت	-0.4654255
-4.405679	هدر	-0.6010215
-3.335984	هدف	-0.4300844
-4.475315	هدفش	-0.2787561
-4.345681	هدفی	-0.2920001
-4.268841	هدیه	-0.2992691
-2.649804	هر	-0.808841
-3.338732	هرمی	-0.4589298
-4.081168	هرچند	-0.8079916
-4.475315	هرچه	-0.5910921
-3.86856	هرچی	-0.2945617
-4.514823	هرکی	-0.3260575
-3.907624	هرگونه	-0.4596741
-2.874673	هزار	-0.8813965
-3.508663	هزاران	-0.7387689
-4.606594	هزارتا	-0.2735954
-3.277136	هزینه	-0.4779985
-3.338732	هست	-0.4281177
-3.761496	هستم	-0.3673194
-3.624855	هستن	-0.4340904
-2.998823	هستند	-0.4834888
-4.129473	هستی	-0.3209685
-3.417087	هستید	-0.5332177
-3.462294	هستیم	-0.5538424
-4.268841	هش	-0.3169937
-4.514823	هشت	-0.4763342
-4.606594	هشتصد	-0.9540718
-3.451437	هشتگ	-1.135878
-2.971939	هشدار	-0.671857
-4.475315	هفت	-0.3670669
-3.687824	هفته	-0.581668
-4.345681	هلدینگ	-0.4303938
-2.098976	هم	-0.3318837
-4.224259	همان	-0.3412509
-4.514823	همانطور	-1.332023
-4.475315	هماهنگ	-0.419387
-4.245978	هماهنگی	-0.3046673
-3.841408	همایش	-0.4683826
-4.18383	همت	-0.3592647
-4.475315	همتون	-0.303103
-3.928558	همتی	-0.5229763
-4.439103	همدست	-0.2928662
-4.606594	همدستی	-0.4305342
-3.061068	همراه	-0.6427417
-4.606594	همراهی	-0.3311233
-3.440843	همزمان	-0.3930354
-4.606594	همسرش	-0.2807845
-3.815853	همش	-0.4501174
-4.129473	همشون	-0.3239861
-4.514823	هممون	-0.4586488
-2.57388	همه	-0.5663857
-4.345681	هموطن	-0.3528501
-4.405679	هموطنان	-0.3192176
-3.125236	همون	-0.4340962
-4.18383	همونطور	-1.652358
-4.558289	همونقدر	-0.5363814
-3.258404	همچنان	-0.4157959
-3.533847	همچنین	-0.3647242
-3.658066	همچون	-0.3298511
-3.706709	همچین	-0.4658374
-4.475315	همکار	-0.2668102
-4.558289	همکاران	-0.4234611
-3.465975	همکاری	-0.3327904
-3.598997	همکنون	-0.4290501
-4.660952	همگی	-0.2764815
-4.268841	همیار	-1.414896
-3.385256	همیشه	-0.3174872
-4.345681	همیشگی	-0.3270756
-2.760402	همین	-0.5278629
-4.010968	همینجا	-0.4462954
-4.146847	همینقدر	-0.319399
-4.112767	همینه	-0.4631752
-4.224259	هنر	-0.3020173
-2.947741	هنوز	-0.4957495
-4.514823	هنگام	-0.4454767
-4.037702	هوا	-0.413862
-4.203574	هوش	-0.5293124
-3.824205	هوشمند	-0.4127315
-4.514823	هولدینگ	-0.3234238
-3.304288	هویت	-0.3973812
-3.635646	هویتی	-0.4936867
-3.190639	هک	-0.6446941
-3.430502	هکر	-0.4721691
-4.245978	هکرها	-0.342673
-4.374645	هکرهای	-0.5682422
-4.439103	هی	-0.28854
-4.164945	هیئت	-1.102279
-4.010968	هیات	-1.063872
-4.606594	هیج	-0.4094071
-2.745376	هیچ	-0.7126011
-3.754257	هیچی	-0.2734665
-1.389621	و	-0.2420462
-4.09668	وابسته	-1.241585
-4.203574	واحد	-0.278742
-3.58419	وارد	-0.5020402
-4.405679	واردات	-0.4604763
-3.768857	واریز	-0.4735965
-4.475315	واریزی	-0.4113983
-4.439103	واسط	-0.5492959
-3.998194	واسطه	-0.3136159
-4.439103	واسه	-0.2962554
-4.292974	واضح	-0.3366358
-4.475315	واضحه	-0.4069864
-4.112767	واقع	-0.4773322
-3.451437	واقعا	-0.4754669
-3.624855	واقعی	-0.3434459
-4.024129	واقعیت	-0.4917703
-4.081168	وان	-0.6258371
-4.051713	واژه	-0.4787783
-3.950552	واکنش	-0.4916029
-4.475315	واگذار	-0.6191609
-4.606594	وایت	-0.774649
-4.660952	وایزلینگ	-0.3842219
-2.558975	وب	-1.790915
-3.713191	وبسایت	-0.5562359
-4.439103	وثیقه	-0.5399216
-4.558289	وجدان	-0.3751822
-4.292974	وجه	-0.387052
-3.125236	وجود	-0.7591718
-4.18383	وجودی	-1.350659
-4.439103	وجوه	-0.5896728
-4.558289	وجیهی	-0.3013715
-3.907624	وحید	-0.8708844
-4.514823	ور	-0.4073037
-4.514823	ورد	-0.9029389
-4.374645	ورزشی	-0.3560109
-4.606594	ورق	-0.409635
-3.604047	ورود	-0.5501215
-4.606594	ورودی	-0.3727624
-3.056726	وزارت	-1.152891
-2.980314	وزیر	-0.6505309
-3.897523	وس	-0.41618
-3.574592	وسط	-0.5074131
-4.203574	وصل	-0.3076434
-4.606594	وصله	-0.4238824
-4.606594	وصول	-0.4491087
-3.799616	وضع	-0.46729
-3.589069	وضعیت	-0.4160271
-4.345681	وضوح	-0.4278187
-4.660952	وطن	-0.2996442
-4.606594	وظایف	-0.4859429
-3.754257	وظیفه	-0.4923602
-3.740133	وعده	-0.4307034
-4.606594	وقاحت	-0.3762617
-3.066927	وقت	-0.4053863
-4.374645	وقتشه	-0.5583658
-3.091187	وقتی	-0.3622819
-4.439103	وقوع	-0.4710818
-4.010968	ول	-0.4963977
-4.606594	ولت	-0.3997564
-2.553968	ولی	-0.5537792
-4.660952	وهوشی	-0.3263093
-4.514823	ووچر	-0.3550734
-3.713191	وکیل	-0.3559549
-3.985784	وگرنه	-0.3127
-3.458645	وی	-0.5681879
-2.943281	ویدیو	-0.5519604
-4.660952	ویدیویی	-0.4748291
-4.606594	ویرایش	-0.3285473
-3.768857	ویروس	-0.6117744
-3.768857	ویس	-0.5050623
-4.292974	ویسپی	-0.3132028
-4.475315	ویندوز	-0.3789172
-3.733239	ویژه	-0.4039978
-3.641143	٪	-0.3660311
-4.318529	٫	-0.3073514
-3.799616	پ	-1.740133
-4.18383	پا	-0.3404179
-4.475315	پارس	-0.5338644
-3.86856	پارسا	-0.3985005
-4.558289	پارسال	-0.3190569
-4.318529	پارسیان	-0.3557811
-4.514823	پاره	-0.4485692
-4.268841	پاسارگاد	-0.3888029
-3.455026	پاسخ	-0.5306267
-4.024129	پاسخگو	-0.5441735
-4.475315	پاسخگویی	-0.4423185
-4.374645	پاسپورت	-0.3617632
-4.606594	پاش	-0.3818875
-4.09668	پامپ	-0.8412698
-3.253844	پانزی	-0.5466954
-4.439103	پاچه	-0.4454856
-3.776345	پاک	-0.62626
-3.917965	پای	-0.379386
-4.318529	پایا	-0.7587182
-3.669725	پایان	-0.4346806
-4.203574	پایه	-0.5461137
-4.292974	پایگاه	-0.6145236
-3.740133	پایین	-0.3912216
-3.341498	پخش	-0.5392531
-4.405679	پدافند	-1.145992
-3.652351	پدر	-0.5147582
-4.660952	پدرش	-0.2876851
-4.475315	پذیر	-0.4294812
-4.345681	پذیرش	-0.3331881
-4.051713	پذیرنده	-0.5736019
-4.18383	پذیری	-0.2783076
-3.488738	پر	-0.6690804
-4.405679	پراکسی	-0.3422608
-2.755335	پرداخت	-0.4973977
-4.439103	پرداختش	-0.5267172
-4.268841	پرداخته	-0.3176486
-4.475315	پرداختی	-0.3947401
-4.18383	پرداز	-0.4256977
-4.514823	پردازان	-0.4171005
-4.439103	پردازش	-0.5583736
-3.733239	پرده	-0.4667049
-4.606594	پرزنت	-0.271062
-4.439103	پرسش	-0.7811064
-4.245978	پرسید	-0.4357243
-4.660952	پرسیده	-0.3156795
-4.606594	پرشین	-0.2815645
-3.663857	پرهام	-0.5603569
-4.374645	پروانه	-0.3548737
-3.998194	پروفایل	-0.4161431
-3.832721	پروفسور	-0.5725686
-4.374645	پرومو	-0.5589843
-4.514823	پروموت	-0.3364431
-3.034269	پرونده	-0.4779569
-3.053854	پروژه	-0.6390809
-4.514823	پز	-0.3649071
-4.374645	پزشکی	-0.3345153
-2.84626	پس	-0.8562959
-3.306843	پست	-0.576432
-3.542577	پسر	-0.4175306
-4.514823	پسرش	-0.2864313
-3.998194	پسورد	-0.3164589
-3.37315	پشت	-0.721795
-4.514823	پشتش	-0.2798942
-4.405679	پشتوانه	-0.3243948
-4.164945	پشتیبانی	-0.3041356
-4.606594	پلاک	-0.876726
-3.97372	پلتفرم	-0.4525866
-4.514823	پلمب	-0.4218128
-4.558289	پلنگی	-0.4895075
-2.948863	پلیس	-0.9630023
-3.824205	پلیسی	-0.6901085
-4.203574	پناهنده	-0.5424546
-4.224259	پناهندگی	-0.2451508
-4.164945	پنج	-0.5529337
-4.514823	پنجم	-0.3703237
-4.660952	پندار	-0.5953659
-4.292974	پنل	-0.3066149
-3.961982	پنهان	-0.5685731
-4.164945	پهن	-0.5364071
-3.641143	پور	-0.4758344
-4.18383	پورن	-0.3166563
-4.374645	پوز	-0.3119775
-4.374645	پوست	-0.48095
-3.939416	پوشش	-0.4742911
-4.558289	پوششی	-0.327031
-4.439103	پوشه	-0.3259811
-2.677175	پول	-0.5418078
-3.917965	پولای	-0.7712284
-4.292974	پولتون	-0.6781513
-4.081168	پولدار	-0.488251
-4.660952	پولش	-0.3250872
-4.439103	پولشو	-0.3205908
-4.245978	پولشون	-0.5573143
-3.364286	پولشویی	-0.5062802
-4.292974	پوله	-0.2898102
-4.475315	پولها	-0.7712814
-4.024129	پولهای	-0.7292982
-3.579364	پولی	-0.7156586
-4.439103	پوچ	-0.4146225
-3.961982	پویا	-0.285064
-4.146847	پویان	-1.106807
-4.514823	پویش	-0.9541768
-4.010968	پکیج	-0.5403354
-3.391438	پی	-0.551456
-4.514823	پیاده	-0.6947439
-3.263011	پیام	-0.752343
-4.374645	پیامرسان	-0.4019182
-3.433922	پیامک	-0.5136104
-3.97372	پیامکی	-0.3073568
-3.533847	پیج	-0.601974
-4.558289	پیجش	-0.5033895
-3.221093	پیدا	-0.8993122
-4.439103	پیداش	-0.4556903
-4.318529	پیرو	-0.3099597
-3.009028	پیش	-0.4444771
-4.146847	پیشبینی	-0.3603623
-4.024129	پیشتر	-0.5597675
-4.374645	پیشرفت	-0.4286279
-4.268841	پیشفرض	-0.2780779
-3.807659	پیشنهاد	-0.4464933
-4.475315	پیشنهادی	-0.366046
-4.318529	پیشگیری	-0.5738432
-4.374645	پینوکیو	-0.4341364
-4.723099	پیپر	-0.2896762
-4.318529	پیچیده	-0.5378167
-3.939416	پیگیر	-0.3544388
-3.433922	پیگیری	-0.4134609
-4.606594	چارخونه	-0.4544846
-4.268841	چالش	-0.5674182
-4.660952	چاپ	-0.3442708
-3.961982	چت	-0.5110137
-4.374645	چخبر	-0.4788654
-3.887653	چخبره	-0.4914766
-2.674777	چرا	-0.4683674
-4.558289	چرند	-0.2984741
-4.514823	چرندیات	-0.2617297
-3.961982	چشم	-0.375157
-3.286814	چطور	-0.4468252
-3.694028	چطوری	-0.3483827
-3.194578	چقدر	-0.4681606
-3.035639	چند	-0.7636522
-3.928558	چندین	-0.4506817
-4.203574	چنین	-0.3502563
-2.732214	چه	-0.5369953
-3.917965	چهار	-0.6251702
-4.514823	چهارم	-0.2532104
-4.268841	چهره	-0.6521687
-4.405679	چوب	-0.4859033
-3.020801	چون	-0.3060214
-4.514823	چپ	-0.350258
-3.928558	چک	-0.6272613
-3.747138	چکار	-0.7815585
-4.374645	چکاره	-0.6920538
-3.832721	چگونه	-0.4170066
-4.606594	چگونگی	-0.2995611
-3.000086	چی	-0.5471659
-3.841408	چیز	-0.408511
-4.318529	چیزا	-0.4583256
-4.475315	چیزایی	-0.3105204
-3.190639	چیزی	-0.7067478
-3.574592	چیست	-0.601973
-4.024129	چین	-0.3590932
-4.245978	چینی	-0.417607
-3.270016	چیه	-0.4477237
-4.514823	ژل	-0.9358242
-4.439103	ژن	-0.6633289
-4.405679	ک	-0.2936235
-4.79565	کاج	-0.2712659
-3.985784	کادوس	-1.097536
-2.722765	کار	-0.3701979
-4.146847	کارا	-0.5355704
-3.998194	کارافرین	-0.4227795
-4.268841	کارافرینی	-0.3251356
-4.514823	کارای	-0.3502454
-3.361372	کاربر	-0.3582457
-3.376145	کاربران	-0.4463347
-4.514823	کاربرانش	-0.4284375
-4.660952	کاربردی	-0.2890263
-3.887653	کاربری	-0.4327746
-2.948863	کارت	-0.733725
-3.897523	کارتل	-0.794148
-3.815853	کارش	-0.3445136
-3.681707	کارشناس	-0.3965106
-4.129473	کارشناسان	-0.3596676
-4.268841	کارشناسی	-0.4240775
-4.475315	کارشو	-0.3508605
-4.066191	کارشون	-0.4130906
-4.081168	کارمند	-0.4225845
-4.405679	کارمندان	-0.3292055
-4.224259	کارنامه	-0.4422618
-4.439103	کاره	-0.5374455
-4.345681	کارها	-0.2649762
-3.859319	کارهای	-0.4383557
-4.723099	کارهایی	-0.6571766
-4.203574	کارو	-0.4068812
-4.439103	کارگروه	-0.6339673
-3.270016	کاری	-0.4460069
-4.405679	کارینا	-0.3764451
-4.660952	کاریه	-0.3559146
-4.439103	کازینو	-0.3846288
-4.606594	کازینوی	-0.6525775
-4.606594	کاسب	-0.2618293
-4.18383	کاسبی	-0.2998025
-3.824205	کاش	-0.4776868
-3.998194	کاشانی	-0.4144526
-4.268841	کاشف	-0.2858222
-4.203574	کاظمی	-0.3297743
-4.660952	کاغذ	-0.3887185
-3.619559	کافه	-1.908269
-3.799616	کافی	-0.5313872
-3.950552	کافیه	-0.3910404
-4.374645	کالا	-0.3461972
-4.606594	کالای	-0.6989219
-4.318529	کالج	-0.803409
-3.516896	کامل	-0.3714525
-4.051713	کاملا	-0.3362621
-3.939416	کامنت	-0.6045928
-4.318529	کامپیوتر	-0.3484994
-4.318529	کامیابان	-1.505127
-3.907624	کانادا	-0.3076299
-2.70191	کانال	-0.5782265
-4.268841	کانالش	-0.3362389
-4.606594	کانالی	-0.3868175
-4.318529	کاهش	-0.3164324
-4.224259	کاوه	-0.9771734
-4.439103	کت	-0.8402055
-3.907624	کتاب	-0.3448771
-4.514823	کتک	-0.7399023
-3.740133	کثافت	-1.042989
-3.761496	کثیف	-0.399403
-4.79565	کثیفی	-0.4659213
-3.604047	کجا	-0.3548092
-3.878001	کجاست	-0.4001445
-4.558289	کجان	-0.3884392
-4.558289	کجای	-0.4952263
-4.606594	کجایی	-0.3357703
-3.444346	کد	-0.5676959
-4.475315	کدام	-0.2897949
-4.146847	کدملی	-0.3367773
-4.292974	کدهای	-0.5021349
-3.783964	کدوم	-0.4378681
-4.318529	کذب	-0.4529855
-4.558289	کربلایی	-0.3704942
-2.68201	کرد	-0.5587698
-3.260701	کردم	-0.4234629
-2.634827	کردن	-0.461409
-3.658066	کردند	-0.5585525
-2.516273	کرده	-0.6544837
-3.646711	کردی	-0.3677266
-4.558289	کردیت	-0.5899679
-3.488738	کردید	-0.3786644
-3.208654	کردیم	-0.5537692
-4.129473	کرمی	-0.3915957
-4.345681	کره	-0.3006816
-4.09668	کرونا	-0.38426
-4.051713	کریمی	-0.3258747
-4.374645	کریپتو	-0.2870623
-4.037702	کریپتولند	-0.391373
-3.569871	کس	-0.4925265
-3.747138	کسانی	-0.7067761
-3.055287	کسب	-1.156017
-4.292974	کسر	-0.5259093
-3.031542	کسی	-0.6430256
-4.245978	کش	-0.3497722
-4.112767	کشف	-0.5018593
-2.533631	کشور	-0.3952293
-3.832721	کشوره	-0.4474198
-4.318529	کشورهای	-0.4349438
-3.614326	کشوری	-0.7978309
-4.129473	کشی	-0.3654422
-4.606594	کشید	-0.3718507
-4.245978	کشیدن	-0.2789818
-4.318529	کشیده	-0.4402414
-4.164945	کف	-0.5592738
-3.437369	کل	-0.6309947
-3.740133	کلا	-0.2788168
-3.53819	کلاب	-1.666403
-3.824205	کلاس	-0.6133267
-4.439103	کلان	-0.4662154
-3.783964	کلاه	-0.5074462
-2.636466	کلاهبردار	-0.5358711
-4.660952	کلاهبردارا	-0.3608245
-3.367221	کلاهبرداران	-0.4771315
-3.841408	کلاهبردارن	-0.3421965
-4.146847	کلاهبرداره	-0.3064253
-3.687824	کلاهبردارها	-0.3640337
-4.292974	کلاهبردارهای	-0.4849899
-2.520443	کلاهبرداری	-0.6867305
-4.606594	کلاهبرداریش	-0.333415
-4.09668	کلاهبرداریه	-0.5544162
-4.405679	کلفت	-0.4107527
-4.558289	کلمه	-0.2900355
-4.514823	کلود	-0.5798407
-3.97372	کلی	-0.3150355
-4.024129	کلید	-0.4661439
-4.606594	کلیدی	-0.2861874
-4.514823	کلیه	-0.2971752
-3.961982	کلیپ	-0.3293795
-4.374645	کلیک	-0.5371239
-3.48486	کم	-0.4603735
-4.475315	کمال	-0.4766596
-4.051713	کمالیان	-0.3729504
-4.164945	کمتر	-0.6039736
-4.558289	کمپانی	-0.4724865
-4.010968	کمپین	-0.4843115
-3.272377	کمک	-0.6050347
-4.345681	کمکی	-0.4988734
-3.928558	کمی	-0.3346024
-4.18383	کمیته	-0.5078809
-3.961982	کمیسیون	-0.5469664
-3.188683	کن	-0.3882801
-4.037702	کنار	-0.346301
-3.86856	کنترل	-0.3625595
-3.410532	کند	-0.464771
-3.850271	کنفرانس	-0.5206364
-3.251582	کنم	-0.3902317
-3.194578	کنن	-0.4578119
-3.447877	کنند	-0.4667638
-3.413797	کننده	-0.3699551
-4.164945	کنندگان	-0.3752927
-2.828869	کنه	-0.5031607
-4.558289	کنون	-0.4023081
-4.405679	کنکور	-0.3395847
-3.427109	کنی	-0.4173645
-2.378103	کنید	-0.7245025
-3.137205	کنیم	-0.4694618
-1.625949	که	-0.5074695
-3.799616	کوتاه	-0.3065726
-4.374645	کوتاهی	-0.2972785
-3.687824	کودک	-1.038728
-4.164945	کودکان	-0.6000769
-4.558289	کوفت	-0.4942023
-4.405679	کوچه	-0.306654
-4.374645	کوچک	-0.297708
-4.606594	کوچیک	-0.2610609
-3.244866	کوین	-0.5304137
-3.86856	کپی	-0.6113173
-4.245978	کک	-0.3499378
-3.492651	کی	-0.450183
-4.606594	کیا	-0.2843557
-4.164945	کیان	-0.8233196
-4.660952	کیس	-0.6984134
-3.700322	کیست	-0.6265849
-3.768857	کیش	-0.3469568
-4.037702	کیف	-0.9414915
-4.268841	کیفیت	-0.3624369
-4.203574	کینگ	-1.16615
-3.604047	کیه	-0.4144367
-4.318529	گاز	-0.3113224
-4.405679	گام	-0.4259835
-4.558289	گاهی	-0.4346363
-4.010968	گذار	-0.388073
-4.203574	گذاران	-0.2982847
-3.284374	گذاری	-0.4830334
-4.606594	گذاشت	-0.5253647
-4.606594	گذاشتم	-0.3044328
-3.985784	گذاشتن	-0.2949003
-3.824205	گذاشته	-0.4530928
-4.129473	گذشت	-0.6132252
-3.594005	گذشته	-0.3895578
-4.345681	گرامی	-0.3276995
-4.558289	گران	-0.3986769
-4.146847	گرداب	-0.4754886
-3.694028	گرداننده	-0.6528575
-3.807659	گردانندگان	-0.7064497
-4.374645	گردش	-0.9577764
-3.841408	گردن	-0.486947
-4.405679	گردید	-0.2743804
-3.496598	گرفت	-0.4389229
-4.146847	گرفتم	-0.4407456
-3.344282	گرفتن	-0.4243977
-4.606594	گرفتند	-0.3743193
-3.171462	گرفته	-0.5434521
-4.374645	گرفتیم	-0.4404923
-3.859319	گرم	-0.5276347
-3.095891	گروه	-0.4280335
-4.405679	گروهک	-0.3469008
-3.985784	گروهی	-0.4614843
-4.439103	گرگ	-0.4795
-4.475315	گری	-0.2951156
-4.318529	گریه	-0.570204
-2.941068	گزارش	-0.5295086
-4.129473	گزارشی	-0.7338501
-4.245978	گزاری	-0.669216
-4.292974	گزینه	-0.3912194
-4.164945	گستران	-0.8240472
-3.304288	گسترده	-0.4480228
-4.405679	گستردگی	-0.6294297
-3.985784	گسترش	-0.594544
-3.500583	گفت	-0.3734871
-3.887653	گفتم	-0.3208686
-3.939416	گفتن	-0.4665813
-3.481017	گفته	-0.4482264
-3.897523	گفتگو	-0.6702805
-4.203574	گفتگوی	-0.5629789
-4.112767	گفتیم	-0.2623123
-3.832721	گل	-0.4036792
-4.606594	گند	-0.2822488
-4.374645	گنده	-0.3538145
-4.224259	گو	-0.4236556
-4.514823	گواهینامه	-0.4227305
-3.551485	گوش	-0.6674603
-4.405679	گوشه	-0.6000423
-4.245978	گوشی	-0.3962228
-4.405679	گول	-0.4007795
-3.97372	گونه	-0.4130675
-3.641143	گوگل	-0.358415
-3.364286	گویا	-0.3086149
-4.439103	گوید	-0.2791671
-4.268841	گویی	-0.3524828
-3.897523	گپ	-0.4382638
-3.939416	گیر	-0.3491097
-4.475315	گیرد	-0.3279802
-3.733239	گیری	-0.3635944
-4.224259	گیگ	-0.5488238
-3.658066	ی	-0.3297861
-2.606849	یا	-0.4351145
-4.660952	یاب	-0.382856
-3.832721	یاد	-0.3835616
-3.961982	یاداوری	-0.663488
