
\data\
ngram 1=3789
ngram 2=118797

\1-grams:
-1.416207	</s>
-1.700858	<NUM>	-0.1264002
-5.241666	<UNK>35023
-3.755446	<URL>	0.02634795
-4.285503	<USERNAME>	0.01542488
-99	<s>	-0.2255645
-4.218557	B	0.02404925
-4.499383	BMW	0.01707948
-3.927992	BRG	0.0861416
-4.461595	Blackhat	0.007361486
-4.142836	C	0.05456913
-4.586534	Coinbase	0.02269855
-4.239746	DDOS	0.06628326
-4.499383	Day	0.007475819
-4.336656	DefconDay	0.006904454
-4.461595	E	0.007378984
-4.262022	FBI	0.04660052
-4.394648	FVdpmEhKJDVzeSXyTADE	0.00713291
-4.461595	GDPR	0.03558153
-4.762625	Google
-4.394648	Hj	0.00713291
-4.262022	ICT	0.03830389
-4.540776	IR	0.02791251
-4.310327	Jcoin	0.02124212
-4.586534	NIUTM	0.02116949
-4.394648	NXZ	0.00713291
-4.049414	PSP	0.03666559
-4.336656	SSL	0.03981528
-5.063655	TeleDR	0.01974878
-4.063655	USSD	0.04964205
-4.336656	VAS	0.03838529
-4.093618	a	0.02332725
-4.499383	address
-4.336656	and	-0.0003213992
-4.262022	anonymous	-0.002149723
-4.336656	b	0.006958328
-4.009297	c	0.07002999
-4.262022	co	0.01549579
-3.252974	com	0.04550135
-4.262022	d	0.006561995
-4.009297	e	0.004853741
-4.198353	f	0.006447903
-4.262022	far	0.0148106
-4.499383	info	0.01624727
-3.400897	ir	0.02905039
-4.499383	is	-0.0003088955
-4.394648	k	0.00713291
-4.285503	net	0.01528614
-4.426833	of	-0.0002117958
-4.364685	org	0.01529016
-4.218557	people	-0.002149723
-4.262022	poll	0.0148106
-4.336656	rdwave	0.02193948
-4.262022	so	-0.002149723
-4.285503	telescam	-0.001987719
-4.394648	the
-4.499383	us	0.02657058
-4.262022	voted	-0.002149723
-4.426833	x	0.008570023
-4.218557	xbet	0.06415517
-4.426833	xyz	0.01580106
-4.218557	ا	0.03675742
-3.868678	اب	0.05895592
-4.426833	اباد	0.04812783
-3.927992	ابادی	0.08329821
-4.142836	ابان	0.05750038
-4.109412	ابتدا	0.0735219
-4.499383	ابتدای	3.600365e-05
-4.394648	ابتدایی	0.01086028
-4.461595	ابراهیم	-0.001049614
-4.461595	ابراهیمی	0.036937
-4.461595	ابرو	0.0230673
-4.262022	ابروی	0.02381523
-4.239746	ابزار	0.00491678
-4.499383	ابزاری	0.02333461
-4.540776	ابلاغ	0.003421133
-4.160565	ابوذر	-0.001755518
-4.078378	ابی	0.03073591
-4.009297	اتاق	0.04092833
-3.949712	اتحادیه	-0.002982195
-3.972574	اتفاق	0.02902129
-3.984473	اتفاقا	0.05470013
-4.586534	اتفاقات	0.007858225
-3.887563	اتفاقی	0.07170865
-3.927992	اتهام	0.05148549
-4.336656	اتی	0.01108398
-4.364685	اتیه	-0.001564339
-4.078378	اثبات	0.0401103
-4.540776	اثری	0.008921658
-3.714701	اجاره	0.0196
-3.606278	اجازه	0.03113791
-3.777348	اجباری	0.07527055
-3.654285	اجتماعی	0.1187496
-3.984473	اجرا	0.01770969
-3.769924	اجرای	0.02291014
-3.596293	اجرایی	0.04975301
-3.85058	احترام	0.02463678
-4.239746	احتشامی	0.07274902
-4.109412	احتمال	3.499824e-05
-3.659962	احتمالا	0.0623172
-4.336656	احتمالی	0.03074735
-4.022262	احراز	0.01412963
-4.461595	احساس	-0.0006686516
-4.394648	احسان	0.0157894
-4.540776	احقاق	-0.0008235741
-3.741436	احمد	0.00555125
-3.769924	احمدی	0.04025843
-4.239746	احمق	0.03377185
-4.049414	اخبار	0.03285373
-4.035626	اختراع	0.08586126
-4.540776	اختصاص	0.001964837
-4.179048	اختصاصی	0.03272877
-4.239746	اختلال	0.02106916
-3.567648	اختیار	0.02160822
-4.239746	اخذ	0.0166776
-3.917527	اخر	0.07018927
-3.784901	اخرین	-0.001859248
-4.239746	اخطار	0.0258473
-4.218557	اخلاق	0.03741698
-4.198353	اخلاقی	0.04664321
-4.285503	اخلال	0.006943222
-3.677453	اخه	0.07309829
-4.586534	اخوند	-0.0003929387
-3.897323	اخیر	0.07556901
-4.841806	اخیرا	0.01039735
-3.769924	اداره	0.008081009
-4.426833	اداری	0.05735406
-4.310327	ادام	0.01712617
-3.244111	ادامه	0.06129136
-4.394648	ادب	0.0490976
-3.226909	ادرس	0.08495303
-3.800413	ادعا	0.06748807
-4.586534	ادعاهای	0.0006449736
-3.54955	ادعای	0.02427395
-4.262022	ادعایی	0.0421184
-3.356085	ادم	0.119085
-4.239746	ادما	0.04396451
-4.035626	ادمای	0.006306438
-4.310327	ادمایی	0.011063
-4.109412	ادمین	0.04845196
-3.972574	ادیب	-0.00425975
-4.695678	اذر	0.01883944
-3.581735	اذری	-0.01001667
-4.285503	ار	0.01751068
-4.586534	ارا	0.02704643
-3.433566	ارائه	0.1110096
-4.285503	اراجیف	0.04430811
-4.499383	اراذل	0.009544505
-3.572293	ارایه	0.03754393
-3.54955	ارتباط	0.09019116
-3.47259	ارتباطات	0.07596262
-4.426833	ارتباطش	0.01163726
-4.063655	ارتباطی	0.02932439
-4.022262	ارتزاق	0.008730084
-4.336656	ارتش	0.01998632
-4.142836	اردیبهشت	0.02135567
-3.532176	ارز	0.1149688
-2.637144	ارزش	0.07978729
-4.637686	ارزشش	0.01638664
-4.310327	ارزشی	0.0358156
-4.426833	ارزهای	-0.0009294474
-4.426833	ارزی	0.06297764
-3.081383	ارسال	0.06569033
-4.310327	ارسالی	0.03867959
-4.394648	ارش	0.001308515
-4.179048	ارشاد	0.01088963
-4.262022	ارشد	0.008835709
-3.927992	ارشیو	0.05942719
-4.586534	ارقام	0.02006168
-4.461595	ارمان	-0.0007794088
-4.426833	ارمندهی	0.04301009
-3.695678	ارمین	0.01026021
-4.586534	ارند	0.02260145
-4.262022	اره	0.0397048
-4.125803	ارون	0.0617332
-3.949712	اروپا	0.04189187
-3.621698	اریا	0.1063607
-1.656491	از	-0.2778011
-3.637686	ازاد	0.07607018
-4.394648	ازادی	0.009218887
-4.540776	ازار	0.04761687
-3.8165	ازاری	0.1023076
-4.461595	ازای	0.008420232
-4.394648	ازاین	0.01373939
-4.540776	ازت	-0.0007331841
-4.461595	ازتون	0.01657003
-3.532176	ازش	0.06440594
-3.960993	ازشون	0.01340121
-4.239746	ازمایی	0.04629295
-4.078378	ازمون	0.01332077
-3.683444	اس	0.04909167
-3.198353	اساس	0.0721103
-4.461595	اساسی	0.02866492
-3.868678	اسامی	0.03731713
-4.394648	اسان	0.02066126
-2.14388	است	0.03627891
-3.683444	استاد	0.04846002
-4.049414	استارتاپ	0.05645957
-4.239746	استارتاپی	0.07310704
-4.426833	استارس	0.05643146
-3.859535	استان	0.01418949
-4.160565	استانبول	0.06562992
-4.009297	استخدام	0.04178997
-4.035626	استخراج	0.001354131
-4.198353	استراحت	0.02349465
-4.239746	استرداد	0.03275075
-4.198353	استریم	0.02752895
-4.499383	استعداد	0.01518005
-4.285503	استعفا	0.003386844
-3.938716	استعلام	0.05698002
-2.85058	استفاده	0.05572615
-4.499383	استناد	0.03463777
-4.637686	استور	0.03165375
-4.198353	استوری	0.04306117
-3.325932	استوی	0.1196549
-4.218557	اسرائیل	0.07867785
-4.125803	اسفند	0.03609015
-3.972574	اسلام	0.07781727
-3.305248	اسلامی	0.1159258
-2.811611	اسم	0.06140292
-4.394648	اسماعیل	0.02690912
-4.394648	اسماعیلی	0.06933542
-3.677453	اسمش	0.08736582
-4.394648	اسمشو	0.0108442
-4.364685	اسمشون	0.02718382
-4.426833	اسمی	0.02344065
-3.695678	اسناد	0.08048298
-4.499383	اسنادی	0.03095706
-3.960993	اسپانسر	0.07366098
-4.239746	اسپانیا	0.04779631
-4.179048	اسکرین	-0.00248691
-4.499383	اسکریپت	0.03301336
-4.586534	اسکم	0.0392389
-4.540776	اسیا	0.05353753
-4.695678	اسیاتک	0.03407388
-4.394648	اسیایی	-8.454032e-06
-4.009297	اسیب	0.003373589
-4.160565	اش	0.03953899
-3.611357	اشاره	0.0106851
-3.654285	اشتباه	0.07432893
-4.586534	اشتباهی	0.01141116
-4.218557	اشتباهید	0.05453598
-4.022262	اشتراک	0.009651033
-4.364685	اشتهاردی	0.03932472
-4.499383	اشخاص	-0.0008625826
-4.109412	اشغال	0.0717243
-3.689518	اشنا	0.01838923
-4.426833	اشنایانتوت	0.008798634
-4.310327	اشنایی	0.01100364
-4.125803	اشکار	0.05343552
-4.394648	اشیانه	0.03846179
-4.109412	اصفهان	0.08037622
-3.808382	اصل	0.02842523
-3.320668	اصلا	0.0809026
-4.093618	اصلاح	0.01263326
-3.388488	اصلی	0.1317463
-4.540776	اصلیش	0.04437545
-3.714701	اضافه	0.006085414
-3.106207	اطلاع	0.02499278
-2.57276	اطلاعات	0.1190035
-4.239746	اطلاعاتتون	0.02350891
-4.426833	اطلاعاتش	0.02612604
-4.364685	اطلاعاتشون	0.0283941
-4.499383	اطلاعاته	0.05031462
-3.616497	اطلاعاتی	0.08259742
-4.179048	اطلاعی	0.02879802
-3.887563	اطلاعیه	0.05281668
-4.285503	اطمینان	0.01026227
-4.310327	اظهار	0.0005162886
-3.581735	اعتبار	0.06025239
-4.461595	اعتبارسنجی	0.01085727
-4.093618	اعتباری	0.04631086
-4.179048	اعتراض	0.01597181
-4.364685	اعتراف	0.01270045
-3.558505	اعتماد	0.04925747
-4.336656	اعدام	0.01401495
-4.394648	اعضا	0.02548326
-3.567648	اعضای	0.02676468
-4.461595	اعطا	0.002315362
-4.394648	اعطای	0.008700988
-3.23758	اعلام	0.06650878
-4.461595	اعلان	-0.001106321
-4.586534	اعم	0.008654724
-4.198353	اعمال	0.0128574
-3.784901	اغاز	0.03361526
-4.364685	اغفال	0.002701472
-4.022262	اف	0.01414645
-4.109412	افتا	0.07233651
-4.239746	افتاد	0.06837208
-4.262022	افتادن	0.06002894
-3.868678	افتاده	0.08808825
-3.833206	افتخار	0.09129498
-4.586534	افتخارات	0.02390277
-4.426833	افتخاری	0.0522763
-4.461595	افتضاح	0.03984118
-3.22063	افراد	0.1098484
-3.370514	افرادی	0.06456176
-4.364685	افرین	0.03013693
-3.648681	افزار	0.07560136
-4.394648	افزاری	0.04985602
-3.748384	افزایش	0.009718021
-4.499383	افزود	0.02507045
-2.710829	افزوده	0.1475976
-4.499383	افسر	-0.001230865
-4.078378	افشا	0.02088462
-4.426833	افشانی	0.03251201
-4.540776	افشاگری	0.006425499
-4.049414	افشای	0.00887135
-4.285503	افغانستان	0.0384496
-4.499383	افکار	-0.0008476623
-3.558505	اقا	0.09601615
-4.461595	اقازاده	0.02483296
-4.461595	اقامت	0.008698493
-3.927992	اقامیری	0.1035745
-2.665715	اقای	-0.0488856
-3.523743	اقایان	0.1239559
-4.078378	اقایون	0.05542886
-4.009297	اقتصاد	0.02972443
-3.695678	اقتصادی	0.07024844
-3.347651	اقدام	0.04743758
-4.285503	اقدامات	0.02644789
-4.336656	اقدامی	0.01076456
-4.394648	اقدمی	0.02680083
-4.499383	ال	0.01109978
-4.586534	الاسلام	-0.0007715782
-3.124135	الان	0.1115643
-2.908319	البته	0.1409648
-4.364685	البرز	0.05139348
-4.394648	التحصیل	0.003274361
-4.285503	الدین	-0.001601527
-3.741436	الله	0.05046402
-3.85058	المال	0.07217181
-3.824773	المان	0.09416098
-4.285503	الملل	0.02728254
-4.078378	المللی	0.02342597
-4.336656	الناس	0.04919254
-4.394648	اله	0.01663973
-3.476318	الوده	0.06609757
-4.586534	الودگی	0.03266998
-3.701927	الکترونیک	0.02753283
-3.972574	الکترونیکی	0.05677237
-4.426833	الگوی	-0.0007148168
-3.50335	ام	0.09406769
-3.433566	اما	0.06623597
-4.160565	اماده	0.009480059
-4.364685	امادگی	0.01632102
-4.109412	امار	0.04070484
-3.800413	امام	0.0846118
-4.310327	امامی	0.06238502
-3.960993	امثال	0.03130945
-4.540776	امد	0.04039678
-4.160565	امده	0.06149811
-2.814864	امروز	0.1679096
-3.103025	امریکا	0.1433564
-4.336656	امریکاست	0.05205113
-3.887563	امریکایی	0.08036295
-4.394648	امسال	0.03077556
-3.356085	امشب	0.07758309
-4.125803	امضا	0.03171518
-4.499383	امضای	8.961065e-05
-4.364685	املاک	0.03087199
-3.833206	امن	0.05857621
-3.17342	امنیت	0.09808306
-3.443866	امنیتی	0.1252055
-3.878018	امور	0.001269458
-2.752608	اموز	0.1419645
-3.567648	اموزش	0.08476999
-3.887563	اموزشی	0.07296783
-4.461595	اموزه	0.05587729
-3.800413	امکان	0.01023925
-4.093618	امکانات	0.02664396
-4.218557	امیتیس	0.04842734
-3.581735	امید	0.03544135
-4.499383	امیدوار	0.001642611
-3.833206	امیدوارم	0.04192087
-3.972574	امیدواریم	0.02751653
-4.179048	امیدی	0.02631074
-3.394648	امیر	0.02306126
-4.394648	امیرحسین	0.008026454
-3.917527	امیرشقاقی	0.05357843
-4.499383	امیری	0.0299018
-3.416924	امین	0.00936337
-2.946383	ان	0.1438362
-4.499383	انالیز	0.01143259
-3.762625	انتخاب	0.07724445
-4.142836	انتخابات	0.05925808
-3.310327	انتشار	0.07180212
-4.285503	انتظار	0.009592101
-4.125803	انتظامی	0.01668441
-4.336656	انتقاد	0.0206561
-4.142836	انتقال	0.03086357
-3.887563	انتها	0.05172972
-4.461595	انتهای	0.0265642
-4.022262	انتی	-0.003293955
-4.394648	انجا	0.02094831
-3.347651	انجام	0.01863384
-3.727863	انجمن	0.06345632
-4.461595	انجیدنی	0.018121
-4.179048	انحصار	0.04419674
-4.142836	انحصاری	0.04115356
-3.440406	اند	0.1148574
-4.499383	انداخت	0.02004939
-3.996708	انداختن	0.05932757
-4.142836	انداخته	0.07306106
-4.109412	اندازه	0.00980502
-3.487698	اندازی	0.05777113
-4.336656	اندروید	0.05877937
-3.996708	انرژی	0.02837388
-3.972574	انزلی	0.09766971
-4.198353	انسان	0.02747662
-3.426833	انشالله	0.09620485
-4.461595	انصاف	0.001618924
-4.336656	انصافا	0.02428298
-3.859535	انقلاب	0.07491107
-3.972574	انقلابی	0.05287726
-3.491558	انلاین	0.1456061
-3.38544	انها	0.1058317
-4.461595	انواع	0.0003015619
-4.142836	انچه	0.03182472
-3.984473	انکار	0.06189149
-4.125803	انگار	0.06800883
-4.540776	انگشت	0.03306834
-4.009297	انگل	0.01460035
-4.461595	انگلستان	0.03285533
-3.769924	انگلیس	0.08255122
-3.972574	انگلیسی	0.05876001
-4.426833	انگیز	0.05983274
-4.499383	اه	0.02828818
-4.093618	اهداف	0.03224773
-4.310327	اهمیت	0.02836627
-4.394648	اهمیتی	0.01099429
-3.450871	او	0.09333476
-4.586534	اوائی	0.008745389
-4.239746	اوج	0.009455974
-4.239746	اور	0.04673643
-4.218557	اورد	0.04978127
-4.198353	اوردن	0.03443333
-4.035626	اورده	0.06641024
-4.499383	اوردی	0.02916292
-3.917527	اوری	0.035951
-2.989326	اول	0.1705563
-3.404056	اولین	0.01043467
-4.285503	اولیه	0.03906106
-4.035626	اومد	0.05334738
-4.179048	اومدن	0.04261679
-3.878018	اومده	0.08248872
-4.540776	اومدی	0.02731732
-4.586534	اومدید	0.0371815
-2.787193	اون	0.126708
-3.927992	اونا	0.01546858
-4.364685	اونام	-0.0009429685
-4.049414	اونایی	0.01001978
-3.784901	اونجا	0.0542047
-4.540776	اونجاست	0.02642638
-3.897323	اونقدر	0.02683402
-3.632291	اونم	0.07766297
-3.777348	اونها	0.1182186
-4.285503	اونو	0.03827517
-4.198353	اونور	0.05014739
-4.394648	اونی	0.009571472
-4.540776	اویژه	0.02281729
-3.00675	اپ	0.1285908
-4.499383	اپا	0.007269152
-3.800413	اپارات	0.09246415
-4.499383	اپدیت	-0.0007060029
-3.476318	اپراتور	0.124192
-3.917527	اپراتورها	0.1088449
-4.310327	اپراتورهای	0.001428472
-4.637686	اپل	0.03280801
-3.755446	اپلیکیشن	0.06689256
-4.310327	اپهای	0.01976639
-4.461595	اپی	0.0517748
-4.499383	اکادمی	0.02248958
-4.586534	اکاذیب	0.001201538
-3.887563	اکانت	0.06139484
-3.741436	اکبر	0.03468953
-4.239746	اکثر	0.01140343
-3.708267	اکسچنج	0.1054087
-4.394648	اکنون	0.02732495
-4.426833	اکوسیستم	0.004464524
-4.063655	اگاه	0.05092316
-4.009297	اگاهی	0.06835247
-2.529629	اگر	0.05154153
-4.179048	اگریگیتور	0.04034694
-4.540776	اگریگیتوری	0.02579382
-4.035626	اگه	0.01086842
-4.022262	اگهی	0.02855481
-2.574634	ای	0.1458945
-3.212396	ایا	0.07591305
-4.394648	ایت	-0.001506705
-4.336656	ایتا	0.062589
-3.637686	ایجاد	0.06738772
-4.022262	اید	0.1032747
-4.109412	ایده	0.04214992
-4.364685	ایدی	0.01620816
-3.984473	ایراد	0.03895137
-4.499383	ایرادی	0.0006525754
-2.489238	ایران	0.1346672
-3.499383	ایرانسل	0.1092446
-3.927992	ایرانه	0.06972105
-3.114265	ایرانی	0.1700087
-4.198353	ایرانیان	0.06919531
-4.461595	ایرنیک	0.01992305
-4.540776	ایستاده	0.04523102
-3.996708	ایشان	0.05203526
-2.938716	ایشون	0.130124
-4.336656	ایشونه	0.05946691
-4.198353	ایم	0.08583446
-4.142836	ایمان	0.01465712
-3.461595	ایمیل	0.1139264
-1.702935	این	-0.1490183
-3.002957	اینا	0.1348462
-3.727863	اینارو	0.04029604
-4.364685	اینام	0.02145548
-3.907308	اینبار	0.0386548
-3.134236	اینترنت	0.1353196
-3.824773	اینترنتی	0.1003366
-2.719918	اینجا	0.1321998
-3.859535	اینجاست	0.038897
-4.540776	اینجاییم	0.04427228
-3.554004	اینجوری	0.071348
-4.461595	اینحد	0.01093943
-3.554004	اینده	0.1130932
-4.499383	اینروزا	0.019656
-4.499383	اینستا	0.03524363
-3.142836	اینستاگرام	0.153688
-4.461595	اینستاگرامش	0.02328688
-4.461595	اینستاگرامی	0.04839477
-3.312889	اینقدر	0.06745737
-3.407237	اینم	0.06999789
-3.394648	اینماد	0.1070259
-3.002957	اینه	0.07567045
-3.596293	اینها	0.06782651
-3.833206	اینهمه	0.004605354
-3.404056	اینو	0.05200526
-4.063655	اینور	0.02352487
-3.984473	اینکارو	0.02755927
-2.808382	اینکه	0.08384579
-4.285503	اینگونه	0.01383362
-4.499383	ایه	0.03988564
-3.949712	ایوب	0.02497716
-1.819295	با	-0.1802315
-3.727863	بابا	0.0698153
-4.426833	باباش	0.04272021
-4.063655	بابایی	0.07616331
-3.495453	بابت	0.05878568
-3.949712	بابک	0.02280427
-3.50335	بات	0.0551377
-3.457991	باج	0.02787414
-3.833206	باخته	0.07066061
-4.499383	باختگان	0.01983012
-4.310327	باد	-0.0006320979
-3.769924	بادران	0.1036741
-4.336656	بادرود	0.06131108
-3.320668	بار	0.1397984
-4.499383	باربد	0.009349773
-4.540776	بارز	0.01810324
-3.654285	بارها	0.03173201
-3.111024	باز	0.07811363
-3.323292	بازار	0.1352055
-4.109412	بازاریابی	0.03054091
-4.461595	بازخواست	0.00639575
-3.231146	بازداشت	0.1027674
-3.695678	بازدید	0.08917596
-4.394648	بازرسی	0.02779887
-4.160565	بازرگانی	0.03826629
-3.938716	بازم	0.06694552
-3.841806	بازنشر	0.0307043
-4.262022	بازه	0.05127778
-4.364685	بازوی	0.0008971855
-3.972574	بازپرس	0.03639111
-4.540776	بازگرداندن	0.01731133
-4.093618	بازگشت	0.0502321
-3.180941	بازی	0.1188146
-3.972574	باش	0.08515898
-3.487698	باشد	0.1111525
-4.093618	باشم	0.06218698
-3.554004	باشن	0.1120755
-4.142836	باشند	0.06663838
-2.898312	باشه	0.1404959
-4.049414	باشگاه	0.003128861
-3.917527	باشی	0.06333071
-3.139375	باشید	0.1233438
-3.927992	باشیم	0.08472545
-4.540776	باطل	0.02854637
-3.878018	باعث	0.0378198
-3.984473	باغبانیان	0.0545055
-4.364685	باقر	0.007791068
-4.586534	باقی	0.0004050826
-4.426833	بال	0.02650784
-3.111024	بالا	0.1473783
-4.285503	بالاتر	0.06371015
-4.336656	بالاست	0.06463523
-4.285503	بالای	0.0097975
-4.461595	بالایی	0.01697282
-4.499383	بامزه	0.03220505
-4.218557	باند	0.02483582
-2.862258	بانک	0.08567955
-2.833206	بانکی	0.1535681
-3.701927	باهاش	0.05157034
-4.239746	باهاشون	-0.0007472332
-3.443866	باور	-0.005246519
-4.586534	باورتون	3.063969e-05
-4.499383	باورش	0.003608494
-3.800413	باگ	0.0684834
-2.620131	باید	0.07858416
-4.310327	ببخشید	0.03779265
-4.364685	ببره	0.03514117
-4.239746	ببرید	0.0535613
-3.057903	ببنید	0.1235339
-4.198353	ببنیم	0.06425436
-3.572293	ببین	0.08704809
-3.984473	ببینم	0.06776477
-4.285503	ببینن	0.03805388
-4.009297	ببینه	0.04302469
-3.280705	ببینید	0.1091451
-3.621698	ببینیم	0.07429355
-3.878018	بت	0.06931904
-4.109412	بتونه	0.03214489
-3.960993	بحث	0.03063448
-4.262022	بحران	0.01646926
-4.540776	بخاطر	0.008071449
-4.109412	بخت	0.006889258
-4.461595	بختیاری	0.04268611
-4.461595	بخرید	0.03907004
-3.09207	بخش	0.07627093
-4.142836	بخشنامه	7.619556e-06
-3.266618	بخشی	0.02652011
-4.336656	بخصوص	0.02370594
-4.540776	بخواد	0.02090861
-4.336656	بخوانید	0.05618474
-4.461595	بخوره	0.03802427
-4.461595	بخون	0.03312125
-4.540776	بخونه	0.04503906
-3.218557	بخونید	0.08102895
-4.499383	بخیر	0.0444667
-3.611357	بد	0.01924368
-3.320668	بدافزار	0.1435492
-4.426833	بدافزارها	0.03652104
-4.198353	بدافزارهای	0.007004688
-3.808382	بدبخت	0.08005068
-3.960993	بدبختی	0.04970428
-4.461595	بدتر	0.03463035
-4.394648	بدترین	0.01713709
-4.540776	بدرد	0.001368148
-4.063655	بدست	-0.003356559
-3.714701	بدم	0.08744209
-3.606278	بدن	0.116518
-4.218557	بدنه	0.002183361
-3.119172	بده	0.1364249
-4.239746	بدهی	0.04548538
-4.461595	بدهید	0.02726424
-4.426833	بدو	0.01636093
-3.107807	بدون	0.0176636
-4.022262	بدونن	0.0570916
-4.285503	بدونه	0.05094039
-3.426833	بدونید	0.08431119
-4.262022	بدونیم	0.03158125
-3.762625	بدی	0.1091216
-3.23328	بدید	0.1450421
-4.078378	بدیم	0.07426888
-4.394648	بدین	0.01625523
-4.364685	بدیهی	0.001602392
-4.364685	بذار	0.02226783
-4.637686	بذارن	0.02886195
-4.364685	بذاره	0.04718702
-3.938716	بذارید	0.07764772
-3.701927	بذرپاش	0.1067603
-2.726528	بر	0.001184503
-4.022262	برا	0.0161959
-3.420202	برابر	0.04460346
-4.035626	برات	0.0416185
-3.708267	براتون	0.05423366
-3.632291	برادر	0.04035348
-4.499383	برادران	0.03480336
-4.109412	براساس	0.008257316
-3.626962	براش	0.05047627
-3.769924	براشون	0.03809423
-4.009297	برام	0.02129897
-4.022262	برامون	0.03507505
-4.310327	براورد	0.01272484
-2.171189	برای	-0.0501834
-4.179048	برتر	0.04813614
-4.394648	برخلاف	-0.001635516
-3.024902	برخورد	0.0636797
-4.461595	برخوردی	0.005506909
-3.297738	برخی	0.0141426
-4.125803	برد	0.04518354
-4.461595	بردار	0.04006414
-4.364685	برداری	0.04066006
-3.984473	برداشت	0.0497017
-4.336656	برداشته	0.03245335
-4.035626	بردن	0.02527308
-4.262022	برده	0.03969074
-2.648125	بررسی	0.110799
-3.808382	برسه	0.1065336
-4.364685	برسونید	0.05900694
-4.022262	برطرف	0.02064838
-4.499383	برعلیه	0.02004803
-3.996708	برق	0.04304952
-4.239746	برم	0.03018321
-4.461595	برمیگرده	0.02705641
-4.109412	برن	0.0498818
-3.127476	برنامه	0.09883123
-3.996708	برنده	0.05540115
-3.648681	بره	0.08301535
-4.461595	برهان	0.001887573
-3.859535	برو	0.04353205
-3.833206	بروز	-0.001189998
-4.198353	بروزرسانی	0.04670902
-4.394648	برگ	0.0289097
-4.540776	برگرده	0.04943556
-4.310327	برگردیم	0.009046631
-4.461595	برگرفته	0.008311635
-4.063655	برگزار	0.00206921
-4.142836	برگزاری	0.00987024
-4.285503	برگشت	0.04875951
-4.179048	بری	0.04937493
-3.616497	برید	0.05447175
-4.142836	بریدن	0.02799055
-4.540776	بریده	0.02376476
-3.755446	بریم	0.05327222
-4.218557	بزارید	0.04728766
-3.50335	بزرگ	0.1345741
-3.721232	بزرگترین	0.02462153
-3.996708	بزرگی	0.07628824
-4.262022	بزن	0.07812575
-4.336656	بزنم	0.05875472
-4.198353	بزنن	0.03921741
-3.727863	بزنه	0.09964585
-4.218557	بزنی	0.05487612
-3.586534	بزنید	0.1012675
-4.179048	بزنیم	0.07103495
-4.461595	بس	0.01197164
-4.142836	بساط	0.02807215
-4.394648	بست	0.02755997
-3.545141	بستر	0.06242561
-4.540776	بستری	0.0144188
-4.063655	بستن	0.0702633
-3.671544	بسته	0.09046111
-3.714701	بسیار	0.008434109
-3.8165	بسیاری	0.01301564
-4.218557	بسیج	0.0291181
-3.841806	بشن	0.09512366
-4.125803	بشنوید	0.05582862
-3.08441	بشه	0.1375643
-4.218557	بشی	0.03745741
-3.727863	بشید	0.1080847
-4.499383	بشیم	0.0556145
-4.364685	بصورت	-0.0008405142
-3.034271	بعد	0.109154
-3.878018	بعدا	0.06386317
-4.499383	بعدش	0.007990553
-3.859535	بعدی	0.1073001
-4.540776	بعضا	0.01311813
-4.336656	بعضی	0.01770893
-4.198353	بعلاوه	0.0504437
-4.499383	بغل	0.009927861
-4.499383	بفرست	0.01240646
-3.960993	بفرستید	0.07847542
-4.336656	بفرمایید	0.03230713
-4.499383	بقیش	0.0425717
-3.271263	بقیه	0.08432619
-3.701927	بلاخره	0.04276836
-4.179048	بلافاصله	0.03262846
-4.160565	بلاک	0.01896903
-3.972574	بلاکچین	0.06763897
-4.394648	بلد	0.0009610878
-4.540776	بلده	0.02683789
-3.637686	بله	0.1169022
-3.400897	بلکه	0.09940737
-4.310327	بلیط	0.02079649
-4.695678	بمونه	0.03687618
-4.394648	بمی	0.0582937
-4.394648	بنا	0.01664476
-4.049414	بنابراین	0.05635339
-4.499383	بنام	-0.0003869158
-4.310327	بند	0.06079675
-4.540776	بندازن	0.06882862
-4.461595	بندازه	0.03262558
-3.734596	بنده	0.0587572
-3.014437	بندی	0.166207
-4.586534	بندیه	0.02088198
-4.695678	بنر	0.02047327
-4.499383	بنویس	0.03641704
-4.461595	بنویسم	0.03307223
-4.364685	بنویسید	0.04748207
-4.394648	بنگاه	0.03933349
-3.741436	بنیاد	0.02403388
-4.009297	بنیان	0.02827391
-1.611204	به	-0.3079362
-3.972574	بهانه	0.03650487
-3.996708	بهت	0.03234849
-3.616497	بهتر	0.09017204
-4.009297	بهتره	0.09449147
-4.426833	بهتری	0.009507859
-3.887563	بهترین	0.01980462
-3.859535	بهتون	0.06395032
-4.142836	بهداشت	0.05173177
-4.310327	بهرام	0.007696782
-4.179048	بهره	0.003709814
-4.009297	بهروز	0.006284804
-3.278325	بهش	0.06672858
-4.499383	بهشت	0.0190239
-3.938716	بهشتی	0.06295189
-3.689518	بهشون	0.06873503
-3.960993	بهم	0.004930567
-4.285503	بهمن	0.006881787
-4.540776	بهینه	0.01021958
-2.64425	بود	0.1318852
-4.426833	بودجه	0.0172755
-3.748384	بودم	0.08966066
-3.196384	بودن	0.1168478
-4.078378	بودند	0.08912069
-4.540776	بودنش	0.03707213
-2.839208	بوده	0.13188
-4.198353	بودی	0.08011496
-4.078378	بودید	0.07521459
-3.671544	بودیم	0.09789997
-3.938716	بورس	0.02589858
-4.540776	بومرنگ	0.02595858
-3.887563	بومی	0.0951539
-4.426833	بوک	0.03603332
-4.426833	بوی	0.009917599
-4.310327	بپرس	0.02711124
-4.540776	بپرسه	0.0005247633
-4.049414	بپرسید	0.04599088
-3.262022	بچه	0.076788
-4.364685	بکار	-0.001036195
-4.540776	بکش	0.007681232
-4.540776	بکشن	0.04496977
-4.394648	بکشه	0.04546816
-4.285503	بکشید	0.06151813
-4.310327	بکن	0.01843656
-4.461595	بکنن	0.03353124
-3.960993	بکنه	0.08545347
-4.022262	بکنید	0.0585679
-3.721232	بگم	0.101455
-4.179048	بگن	0.06737147
-3.616497	بگه	0.06790474
-3.859535	بگو	0.06090456
-3.949712	بگی	0.0457315
-3.621698	بگید	0.1020094
-3.927992	بگیر	0.05390718
-4.426833	بگیرد	0.03543073
-4.426833	بگیرم	0.03594726
-3.897323	بگیرن	0.07754958
-3.576988	بگیره	0.1111455
-4.125803	بگیری	0.04778516
-3.665715	بگیرید	0.1054623
-4.179048	بگیریم	0.07785952
-4.142836	بگیم	0.0348269
-2.978483	بی	-0.0003826278
-4.049414	بیا	0.07588169
-3.762625	بیاد	0.0678175
-4.461595	بیارن	0.04623606
-4.336656	بیاره	0.06154601
-4.336656	بیارید	0.05299677
-3.917527	بیان	0.05970505
-3.887563	بیانیه	0.06114215
-3.616497	بیاید	0.06740229
-3.596293	بیت	-0.002542656
-3.523743	بیتکوین	0.1394529
-4.586534	بیداد	0.02030755
-3.841806	بیدار	0.03417508
-3.841806	بیرون	0.06342396
-4.093618	بیزنس	0.0138396
-4.426833	بیستون	0.05445803
-4.285503	بیسواد	0.04387308
-4.540776	بیسوادی	0.0191201
-3.00675	بیش	-0.01770167
-3.235425	بیشتر	0.1168425
-3.769924	بیشتری	0.04242431
-3.777348	بیشترین	0.0001968582
-4.218557	بیفته	0.06837398
-4.336656	بیلیون	0.0007983423
-4.198353	بیمسئولیت	0.05688472
-4.179048	بیمسئولیتی	0.04890791
-3.714701	بیمه	0.07056426
-3.30778	بین	0.07790596
-4.093618	بینی	0.03255744
-4.078378	بیچاره	0.05472736
-4.336656	بیکار	0.01875575
-2.485398	تا	0.1159361
-4.586534	تاثیر	0.004112463
-4.586534	تاخیر	0.008552391
-3.358932	تاریخ	0.1033018
-4.499383	تاریخی	0.06822255
-3.741436	تازه	0.01958844
-3.762625	تاسف	-0.003893199
-3.996708	تاسیس	0.04835523
-4.426833	تاشکایا	0.02033285
-3.671544	تامین	0.001546139
-4.336656	تان	0.03035827
-4.239746	تاکنون	0.04237771
-3.792588	تاکید	0.01558707
-3.218557	تایید	0.07738615
-4.364685	تبادل	0.005523819
-3.632291	تبدیل	0.05108192
-3.841806	تبریک	0.00713662
-2.877075	تبلیغ	0.1573968
-3.090527	تبلیغات	0.1306741
-3.536455	تبلیغاتی	0.1241721
-4.285503	تتر	0.04437631
-4.540776	تتلو	0.0536796
-3.689518	تجارت	0.04404112
-4.093618	تجاری	0.05228687
-3.927992	تجربه	0.05211693
-3.665715	تحت	-0.006415493
-3.917527	تحریم	0.04630367
-4.336656	تحریک	0.0182664
-4.078378	تحصیل	0.03755072
-4.142836	تحصیلی	0.0557551
-4.093618	تحقیق	0.05167611
-4.142836	تحقیقات	0.03783092
-4.022262	تحلیل	0.05997307
-4.239746	تحمل	0.03773693
-4.125803	تحویل	0.002987928
-4.078378	تخریب	0.02649917
-4.198353	تخصص	0.0446191
-4.125803	تخصصی	0.04517866
-4.262022	تخفیف	0.04880879
-3.769924	تخلف	0.0772554
-3.938716	تخلفات	0.05974111
-4.586534	تدبیر	0.01833351
-4.394648	تذکر	-0.0003144159
-3.358932	تر	0.1041703
-4.310327	ترابیان	0.06794994
-4.160565	ترافیک	0.04984065
-4.394648	ترامپ	0.04194422
-3.727863	تراکنش	0.05942256
-4.461595	تربیت	0.00989987
-4.336656	ترجمه	0.01378558
-4.336656	ترجیح	-0.0004912849
-3.972574	ترفند	0.02862989
-4.336656	تره	0.06246496
-4.262022	ترو	-0.001981465
-4.499383	تروخدا	0.01135058
-4.540776	ترور	0.01773373
-4.540776	ترویج	0.01657094
-4.499383	ترکی	0.006241277
-4.426833	ترکیب	0.008848299
-3.125803	ترکیه	0.143035
-4.262022	تری	0.02250605
-4.035626	تریبون	0.08155161
-4.394648	ترید	0.02964576
-3.361799	ترین	0.02119757
-3.800413	تست	0.02699459
-4.364685	تسنیم	0.05837198
-4.499383	تسویه	0.004190022
-3.878018	تشخیص	0.0187203
-3.949712	تشریف	-0.002758075
-3.626962	تشویق	0.03303109
-3.264314	تشکر	0.05370234
-3.907308	تشکیل	0.03138288
-3.85058	تصاویر	0.06024243
-3.689518	تصمیم	0.04516231
-4.586534	تصمیمات	0.003035763
-3.949712	تصور	0.002432022
-4.142836	تصویب	0.04799259
-3.447354	تصویر	0.1089718
-4.179048	تصویری	0.03023597
-4.394648	تضمین	0.02556068
-4.310327	تضمینی	0.02746996
-4.063655	تعاون	0.02268425
-4.049414	تعجب	0.06071376
-3.714701	تعداد	0.01942254
-4.179048	تعرفه	0.002533959
-3.972574	تعریف	0.02842701
-4.310327	تعطیل	0.01555337
-4.540776	تعطیلی	0.02831364
-4.078378	تعقیب	0.02275381
-4.364685	تعلیق	0.003037948
-4.198353	تعیین	0.002500086
-3.457991	تغییر	0.01746898
-4.364685	تغییرات	0.009974816
-4.499383	تغییری	0.01812122
-4.499383	تفکیک	0.01276648
-4.586534	تقاضای	0.008331175
-4.499383	تقدسی	0.03172914
-4.218557	تقدیر	0.01693495
-4.218557	تقدیم	0.01075369
-3.591386	تقریبا	0.08288491
-4.461595	تقسیم	0.005094218
-4.239746	تقلب	0.06743295
-4.586534	تقلبی	0.0290969
-3.507352	تلاش	0.05555038
-4.262022	تلخ	0.03697215
-3.938716	تلسکم	0.1034865
-3.960993	تلفن	0.07023913
-4.218557	تلفنی	0.04602355
-4.285503	تلفیق	0.01596245
-4.239746	تله	0.003058777
-4.035626	تلویزیون	0.09160128
-4.310327	تلویزیونی	0.04611935
-3.045232	تلگرام	0.1501198
-3.887563	تلگرامی	0.07628193
-3.290356	تماس	0.07981383
-3.290356	تمام	0.07418761
-3.701927	تمامی	0.01172177
-4.218557	تموم	0.004779046
-4.262022	تن	0.02640652
-4.078378	تنظیم	0.02260045
-3.141102	تنها	0.101453
-4.426833	تنهایی	0.01142544
-4.239746	ته	0.0003654217
-3.677453	تهدید	0.05033778
-3.356085	تهران	0.1250949
-3.755446	تهش	0.1064897
-4.009297	تهمت	0.04403255
-3.727863	تهیه	0.02996766
-2.978483	تو	0.1414789
-4.049414	توان	0.06077316
-4.160565	تواند	0.01779187
-4.364685	توانید	0.03893421
-3.106207	توجه	0.02105527
-4.179048	توجهی	0.0185746
-4.035626	توجیه	0.03276855
-4.336656	توحید	-0.001777737
-2.833206	توسط	0.02482061
-3.540776	توسعه	0.01478466
-3.960993	توسکا	0.09127905
-4.009297	توش	0.07343711
-4.125803	توصیه	0.01059156
-3.043846	توضیح	0.08446441
-3.648681	توضیحات	0.08163878
-4.336656	توضیحاتی	0.01519015
-4.336656	توضیحی	0.02426916
-4.125803	توقع	0.04404654
-4.022262	توقف	0.03662862
-4.262022	توقیف	0.03315711
-4.262022	تولد	0.04487024
-3.480078	تولید	0.03867344
-4.499383	تولیدی	0.009923723
-2.996708	تومان	0.1320427
-3.949712	تومانی	0.1099306
-3.671544	تومن	0.08992872
-4.540776	تومنی	0.02077182
-4.499383	تونسته	0.01200008
-3.808382	توهین	0.05425698
-3.47259	توکن	0.09209947
-4.093618	توی	0.01908163
-4.499383	تویتر	0.05633103
-3.255219	توییت	0.1176298
-3.198353	توییتر	0.1382622
-4.160565	توییتری	0.08117842
-4.586534	توییتی	0.03164173
-3.938716	تک	0.03924503
-4.063655	تکذیب	0.007102163
-4.394648	تکرار	0.006441576
-4.461595	تکراری	0.05265013
-4.022262	تکلیف	0.03817946
-4.109412	تکمیل	0.02421778
-3.984473	تکمیلی	0.08185492
-4.125803	تکنولوژی	0.04262893
-4.239746	تگ	0.006731476
-3.917527	تی	0.0299415
-4.198353	تیر	0.007152109
-3.938716	تیز	0.0652515
-3.808382	تیغ	-0.004605332
-3.320668	تیم	0.09782788
-4.310327	تیمش	0.05370824
-4.035626	تیموری	0.09920431
-4.540776	تیمی	0.01757688
-4.179048	تیک	0.02197427
-4.540776	تیکه	0.009267523
-3.734596	ثابت	0.1216009
-4.336656	ثامن	0.0718217
-4.364685	ثانیه	0.04049394
-2.941986	ثبت	0.05850092
-4.394648	ثروت	0.02864565
-4.540776	ثنا	0.03574844
-4.499383	ج	-0.0006818945
-3.665715	جا	0.03432814
-4.218557	جاسمی	-0.002370376
-4.426833	جاسوس	0.02631586
-4.160565	جاسوسی	0.0767246
-4.540776	جاش	0.002567975
-3.637686	جالب	0.04389245
-3.762625	جالبه	0.03841685
-4.285503	جالبی	0.03011327
-4.125803	جام	0.02428392
-3.586534	جامعه	0.09285376
-3.689518	جان	0.08889093
-3.841806	جاویدنیا	0.0615375
-3.297738	جای	0.02370899
-3.721232	جایزه	0.06459743
-4.239746	جایگاه	0.01900409
-4.540776	جایگزین	0.005256788
-3.708267	جایی	0.06142574
-4.262022	جبران	0.001986407
-4.364685	جبهه	0.00453697
-3.8165	جدا	0.05771927
-4.336656	جداگانه	0.01557369
-4.336656	جدول	0.01847432
-3.430186	جدی	0.1344528
-3.226909	جدید	0.146218
-4.049414	جدیدی	0.05601895
-4.540776	جذاب	0.03179895
-3.423505	جذب	0.08655776
-4.218557	جرائم	-0.001196298
-4.142836	جرات	0.02958887
-3.342119	جرایم	0.06720211
-4.586534	جرایمی	0.02189102
-3.229022	جرجندی	0.1056615
-3.430186	جرم	0.1109432
-4.394648	جرمه	0.022505
-4.540776	جرمی	0.001301569
-4.109412	جریان	0.02949521
-3.984473	جریمه	0.08654705
-3.476318	جز	0.06034416
-4.461595	جزئیات	0.017445
-4.364685	جزایری	0.05041212
-4.218557	جزو	0.01629883
-4.285503	جزیات	0.02673711
-3.777348	جستجو	0.02047366
-4.179048	جستجوی	0.03508119
-4.336656	جشن	0.03392692
-3.996708	جشنواره	0.03670489
-4.109412	جعبه	0.001398129
-4.049414	جعفر	0.002951105
-4.285503	جعفری	0.04201482
-4.035626	جعل	0.007419314
-2.940893	جعلی	0.1428502
-4.637686	جعلیه	0.03481553
-4.310327	جلالی	0.02099226
-4.285503	جلب	0.001083167
-3.701927	جلسه	0.05650325
-4.125803	جلو	0.02428288
-4.285503	جلوشو	-0.001980748
-4.310327	جلوه	0.01305265
-4.218557	جلوگیری	0.02075932
-3.433566	جلوی	0.04851624
-4.426833	جم	0.002421071
-4.540776	جماعت	0.01131593
-3.278325	جمع	0.03015977
-4.540776	جمعا	0.007886872
-4.198353	جمعه	0.06133216
-4.394648	جمعی	0.008311635
-4.022262	جمله	0.04098162
-4.078378	جمهور	0.04809491
-3.511392	جمهوری	0.04375514
-3.443866	جناب	0.004945809
-4.637686	جنجالی	0.003884282
-4.336656	جنس	0.01135842
-4.364685	جنسی	0.05000903
-4.499383	جنوبی	0.01995632
-4.125803	جنگ	0.06283049
-3.927992	جهان	0.06211867
-4.364685	جهانبخش	0.03343879
-3.907308	جهانی	0.09800293
-3.410442	جهت	0.02178647
-3.373459	جهرمی	0.1357151
-4.239746	جو	0.01180017
-3.511392	جواب	0.07508232
-4.198353	جوابش	0.05419752
-4.586534	جوابی	0.01916483
-4.499383	جوابیه	0.008510245
-3.51547	جواد	0.02673564
-3.721232	جوان	0.1038039
-4.218557	جوانان	0.03969427
-4.637686	جوانی	0.0440082
-4.285503	جوایز	0.02327363
-4.394648	جور	0.01111245
-4.394648	جوری	0.01134735
-4.049414	جون	0.01327422
-3.8165	جوون	0.06596092
-3.762625	جی	0.07096296
-3.231146	جیب	0.03357527
-4.461595	جیبش	0.0235037
-3.887563	حاتمی	0.07915353
-4.426833	حاج	-0.001687784
-4.394648	حاجی	0.01758949
-4.239746	حادثه	0.02344321
-3.960993	حاشیه	0.03992222
-4.022262	حاصل	0.03828641
-4.022262	حاضر	0.05164188
-3.972574	حافظی	0.01660385
-3.048016	حال	0.07087592
-2.900295	حالا	0.1072244
-3.917527	حالت	0.03057549
-3.671544	حالی	0.01825937
-4.218557	حامد	0.01513898
-4.009297	حامی	0.03800245
-4.285503	حامیان	0.01200881
-4.142836	حاوی	0.01661029
-4.218557	حاکمیت	0.0565379
-4.461595	حاکمیتی	0.0463892
-4.160565	حبس	0.01997187
-3.164199	حتما	0.1153485
-2.814049	حتی	0.08361954
-4.540776	حجاب	0.03128728
-4.035626	حجت	0.0004447415
-3.567648	حجم	0.03587435
-3.8165	حد	0.02184244
-3.379408	حداقل	0.08853287
-4.239746	حداکثر	0.02145612
-4.125803	حدس	-0.003073639
-4.218557	حدود	0.007823223
-4.426833	حدی	0.01328253
-3.119172	حذف	0.05065858
-4.426833	حذفیات	0.01654499
-4.461595	حراست	0.03721199
-4.109412	حرام	0.03828912
-3.423505	حرف	0.03946465
-4.499383	حرفاش	0.01442442
-4.285503	حرفای	0.0008763858
-3.996708	حرفه	-0.002518049
-4.426833	حرفی	0.01829586
-4.461595	حروم	-0.001159774
-4.078378	حرکت	0.03101202
-4.125803	حریم	-0.002783896
-4.285503	حس	-8.072841e-05
-3.056476	حساب	0.08426577
-4.540776	حسابتون	0.02521233
-4.198353	حسابی	0.05820673
-4.426833	حساس	0.001939694
-4.009297	حسام	0.02128358
-3.741436	حسن	0.07242253
-4.364685	حسنعلی	-0.001671795
-4.160565	حسنی	0.06129864
-3.606278	حسین	0.05522109
-4.009297	حسینی	0.05416805
-4.160565	حصین	0.05157384
-4.310327	حضرت	0.007931119
-3.611357	حضور	0.0361422
-4.394648	حضوری	0.03783338
-4.063655	حفاظت	0.01455833
-4.198353	حفظ	0.001220405
-3.596293	حق	0.06131535
-3.648681	حقوق	0.05914478
-4.093618	حقوقی	0.04356398
-4.461595	حقیقت	0.03531678
-4.499383	حقیقی	0.03096651
-3.868678	حل	0.01361628
-4.179048	حلال	0.03378332
-4.637686	حلاله	0.04897048
-4.499383	حلقه	0.001472999
-4.364685	حلقوم	0.01160249
-3.200332	حمایت	0.05254208
-3.824773	حملات	0.06894087
-3.572293	حمله	0.06467616
-3.907308	حمید	0.01536196
-4.364685	حمیدرضا	-0.0001980419
-4.499383	حمیده	-0.001235899
-4.364685	حوادث	0.02565998
-4.586534	حواشی	0.03534896
-3.626962	حوزه	0.05429778
-4.586534	حوصله	-1.140024e-05
-3.996708	حکم	0.03744864
-4.499383	حکومت	0.03486516
-4.285503	حکومتی	0.05705859
-4.426833	حیثیت	0.02818933
-4.142836	حیف	0.04588122
-3.177164	خارج	0.04729843
-4.262022	خارجه	0.04586183
-3.701927	خارجی	0.112417
-3.949712	خاص	0.07191938
-4.198353	خاصی	0.04814662
-4.285503	خاطر	0.002947727
-4.426833	خاطره	0.02545229
-4.461595	خالص	0.01770255
-3.833206	خالی	0.04917571
-4.310327	خام	0.06464192
-4.499383	خاموش	0.009629195
-3.536455	خانم	0.09777246
-4.063655	خانه	0.02746587
-3.734596	خانواده	0.07653484
-4.285503	خانوادگی	0.03744483
-4.499383	خاورمیانه	0.04106302
-4.239746	خاک	0.002074094
-4.364685	خاکستری	0.03497526
-3.250741	خب	0.07679837
-2.959851	خبر	0.12115
-4.461595	خبرفوری	0.01907512
-3.755446	خبرنگار	0.08816604
-4.109412	خبرنگاران	0.02483672
-4.285503	خبرنگاری	0.03924873
-4.499383	خبرها	0.04720375
-4.035626	خبرهای	0.01499283
-3.416924	خبرگزاری	0.03890133
-3.563052	خبری	0.1274428
-4.426833	خجالت	0.000412897
-3.394648	خدا	0.1366993
-3.659962	خداروشکر	0.07263172
-4.310327	خدایی	-0.001572557
-3.226909	خدمات	0.05672589
-4.394648	خدماتی	0.04260157
-3.792588	خدمت	0.05831843
-4.499383	خدمتتون	0.02762803
-4.336656	خراب	0.02172844
-3.917527	خرج	0.03306702
-4.336656	خرداد	0.03620639
-4.093618	خرم	-0.003135993
-3.841806	خروج	0.0320488
-3.878018	خروجی	0.03719535
-4.364685	خروجیش	0.0113675
-3.30778	خرید	0.09864917
-4.218557	خریدار	0.03265187
-4.022262	خریداری	0.002453502
-4.540776	خریدن	0.0420567
-4.035626	خریده	0.05669068
-4.218557	خزایی	0.02962023
-4.093618	خسارت	0.03385308
-3.897323	خسته	0.01360251
-4.285503	خشونت	0.03929397
-3.777348	خصوص	0.04027275
-3.659962	خصوصی	0.1156241
-3.887563	خط	0.03202425
-3.777348	خطر	0.02005826
-4.336656	خطره	0.01701075
-4.586534	خطری	0.01421328
-4.394648	خلا	0.002967356
-3.878018	خلاصه	0.04150492
-3.938716	خلاف	0.009066883
-4.394648	خم	0.003135697
-4.637686	خمینی	0.02381515
-4.239746	خنده	0.003700485
-3.927992	خواب	0.03029348
-3.677453	خواجه	0.0009688669
-4.336656	خوار	0.02853712
-4.394648	خواست	0.03563023
-4.142836	خواستم	0.01997513
-4.394648	خواسته	0.01264898
-4.364685	خوان	0.05309146
-4.364685	خواهان	0.01918275
-3.229022	خواهد	-0.01960924
-4.426833	خواهر	0.01889988
-4.198353	خواهش	0.001351908
-4.198353	خواهم	0.01082695
-3.808382	خواهند	-0.002018424
-3.841806	خواهی	0.06342123
-4.310327	خواهید	0.0008042665
-3.824773	خواهیم	-0.001792523
-3.36759	خوب	0.1112642
-3.714701	خوبه	0.1092255
-3.50335	خوبی	0.1010113
-2.826446	خود	0.1328766
-4.009297	خودت	0.06733626
-4.586534	خودتو	0.01648286
-3.563052	خودتون	0.09599133
-4.461595	خودجوش	0.05911626
-4.198353	خودداری	0.009025267
-3.927992	خودرو	0.05898133
-3.132536	خودش	0.134681
-3.917527	خودشو	0.03082517
-3.648681	خودشون	0.07656418
-3.762625	خودم	0.07315946
-3.972574	خودمون	0.0710674
-4.394648	خودکار	0.03992561
-4.394648	خودکشی	0.01191263
-4.179048	خور	0.06527983
-3.762625	خورد	0.1004582
-4.198353	خوردبین	0.0504799
-4.109412	خوردن	0.05140421
-4.009297	خورده	0.09251277
-4.540776	خورشید	0.008554952
-4.364685	خوری	0.02138088
-4.035626	خوش	0.008652702
-4.461595	خوشبختانه	0.01036782
-4.218557	خوشحال	0.0292506
-4.586534	خوشحالم	0.009243561
-4.499383	خوشحالی	0.01098294
-3.907308	خون	0.0583449
-4.426833	خوندن	0.02549345
-3.621698	خونه	0.1196077
-3.677453	خوک	0.00754229
-4.540776	خوکها	0.02307491
-3.972574	خیانت	0.03639852
-4.426833	خیانتی	0.02100119
-3.611357	خیر	0.1198463
-2.916494	خیلی	0.06282173
-4.540776	دات	-0.0005530186
-3.721232	داخل	0.03551765
-3.701927	داخلی	0.1149451
-3.093618	داد	0.1109593
-4.364685	داداش	0.02026526
-3.447354	داداشی	0.1217051
-3.54955	دادستان	0.08178339
-3.404056	دادستانی	0.1124154
-4.336656	دادسرا	0.06845339
-3.907308	دادسرای	0.00400645
-3.917527	دادم	0.07369196
-3.206322	دادن	0.1148444
-4.540776	دادند	0.04308039
-3.0017	داده	0.1198048
-3.545141	دادگاه	0.07931523
-4.198353	دادگاهی	0.04452576
-3.996708	دادگستری	0.05190102
-4.336656	دادی	0.02722194
-4.285503	دادید	0.09220204
-3.626962	دادیم	0.08368474
-3.878018	دار	0.09758522
-4.310327	دارابی	0.06489404
-4.009297	دارای	0.006983777
-3.996708	دارایی	0.03658715
-3.23758	دارد	0.1247418
-3.447354	دارم	0.1257717
-2.935471	دارن	0.152741
-3.897323	دارند	0.1061157
-4.394648	دارنده	-0.001869217
-2.519173	داره	0.1276703
-4.218557	دارو	0.0334895
-3.495453	داری	0.1340794
-3.255219	دارید	0.130548
-3.244111	داریم	0.1237932
-4.461595	داس	0.005032573
-3.824773	داستان	0.08098597
-3.353255	داشت	0.1310266
-4.022262	داشتم	0.05901549
-3.51547	داشتن	0.1190459
-4.336656	داشتند	0.06561153
-3.060769	داشته	0.1062748
-4.364685	داشتی	0.04537189
-4.179048	داشتید	0.05223143
-4.461595	داشتیم	0.01789095
-4.426833	داعش	0.03823366
-4.198353	داغ	0.02072647
-4.125803	دام	0.046542
-4.461595	دامن	0.008713095
-3.295263	دامنه	0.113949
-4.093618	دامپ	0.08440773
-4.336656	دان	0.0004088822
-3.695678	دانش	0.05125592
-4.336656	دانشجو	0.0601403
-4.499383	دانشجوی	-0.0004842296
-4.218557	دانشجویان	0.05180618
-4.499383	دانشجویی	0.008062482
-4.426833	دانشمند	0.0009308567
-3.196384	دانشگاه	0.1122221
-4.093618	دانشگاهی	0.08764975
-4.179048	دانلود	0.06970375
-4.499383	داود	-0.0005420965
-4.364685	داوود	-0.001487254
-4.239746	دبی	0.03086668
-4.364685	دبیر	0.01608698
-4.009297	دختر	0.05031896
-4.540776	دختران	0.03484005
-1.680618	در	-0.3136085
-4.364685	دراختیار	0.0008052371
-3.290356	درامد	0.1158521
-4.009297	درباره	0.02267419
-4.394648	درج	0.01933369
-4.336656	درجه	0.0381707
-3.47259	درحال	0.006767509
-3.949712	درحالی	0.02606699
-3.558505	درخواست	0.04354855
-3.648681	درد	0.04347886
-4.461595	دردناک	0.04862814
-4.461595	دردناکه	0.02828774
-4.540776	درده	0.01699848
-4.426833	درز	0.001768227
-4.142836	درس	0.01707593
-3.404056	درست	0.05976911
-4.499383	درستش	0.004447003
-4.035626	درسته	0.08145743
-4.285503	درستی	0.04178002
-3.567648	درصد	0.07102582
-4.499383	درصدی	0.02706091
-4.461595	درصورت	-0.001235584
-4.285503	درصورتی	0.008227569
-4.394648	درضمن	0.01055852
-4.198353	درمان	0.0430925
-4.461595	درمورد	0.01156995
-4.461595	درنمیاد	0.02456061
-3.741436	دروغ	0.06768563
-4.262022	درون	0.003495714
-3.897323	درک	0.03188935
-2.911366	درگاه	0.1040857
-3.938716	درگیر	0.03072198
-3.364685	دریافت	0.03610871
-4.179048	دریافتی	0.07855111
-3.255219	دزد	0.1283001
-3.400897	دزدان	0.1353688
-4.637686	دزدش	0.0189351
-4.198353	دزده	0.06291713
-2.969067	دزدی	0.1461975
-4.426833	دزدیدن	0.03273618
-4.239746	دزدیده	0.01198018
-4.394648	دزدیه	0.0378474
-3.907308	دزفولی	0.06783391
-2.836626	دست	0.120781
-4.285503	دستت	0.03582461
-4.426833	دستتون	0.04066966
-3.461595	دسترس	0.0431239
-4.310327	دسترسه	0.04985839
-3.476318	دسترسی	0.09498313
-3.907308	دستش	0.0884744
-4.218557	دستشون	0.09004086
-3.878018	دسته	0.04280484
-3.659962	دستور	0.008174037
-4.586534	دستوری	0.02954484
-4.310327	دستکاری	0.0111533
-2.937632	دستگاه	0.05903034
-4.078378	دستگیر	0.02196517
-4.160565	دستگیری	0.02695096
-4.160565	دستی	0.05899175
-4.586534	دعا	0.02812668
-4.198353	دعوا	0.02162628
-4.426833	دعوای	9.217095e-05
-3.616497	دعوت	0.02220214
-4.336656	دغدغه	0.03604888
-4.461595	دفاتر	0.02253418
-3.949712	دفاع	0.04910626
-3.616497	دفتر	0.09942857
-4.364685	دفعه	-0.0006285117
-4.179048	دقایقی	0.001974062
-3.897323	دقت	0.02609961
-3.800413	دقیق	0.07045538
-3.601257	دقیقا	0.08513816
-3.465229	دقیقه	0.09870733
-3.996708	دل	0.0576684
-3.226909	دلار	0.1496973
-3.714701	دلاری	0.1181729
-4.022262	دلایل	0.008255305
-4.310327	دلایلی	0.02856726
-4.336656	دلسوز	0.001666987
-4.336656	دلقک	0.008018279
-4.285503	دلم	0.007552642
-3.076883	دلیل	0.08366395
-3.8165	دلیلش	0.06043031
-4.009297	دلیلی	0.03467366
-3.85058	دم	0.05059709
-4.586534	دمت	-0.0009696305
-4.461595	دمتون	0.01645466
-3.034271	دنبال	0.05004503
-3.278325	دنیا	0.1409651
-4.394648	دنیاست	0.07049356
-4.109412	دنیای	0.006692059
-4.142836	ده	0.0290083
-3.949712	دهد	0.08875077
-4.218557	دهند	0.04823636
-3.748384	دهنده	0.09591367
-4.461595	دهندگان	0.03807199
-4.499383	دهه	0.01096514
-4.160565	دهی	0.04436236
-4.262022	دهید	0.06796578
-2.922728	دو	0.09822693
-3.447354	دوباره	0.07182455
-3.523743	دور	0.05707175
-4.364685	دوربین	0.02386936
-3.576988	دوره	0.0707268
-4.637686	دورهم	0.0008901496
-4.142836	دورهمی	0.04808931
-4.239746	دوری	0.01378128
-4.499383	دوزار	0.01018958
-4.198353	دوزاری	0.05647632
-3.984473	دوس	-0.001557134
-3.364685	دوست	0.03270917
-3.063655	دوستان	0.1329482
-4.540776	دوستانش	0.03254298
-3.878018	دوستانی	0.0292576
-4.540776	دوستش	0.02041887
-4.239746	دوستمون	0.04137073
-3.8165	دوستی	0.07024664
-4.540776	دوش	0.01696284
-4.586534	دوشنبه	0.04608213
-3.266618	دولت	0.1407455
-3.701927	دولتی	0.1118811
-3.491558	دوم	0.1086902
-4.336656	دونه	0.009977633
-4.586534	دونیت	0.03686425
-4.364685	دچار	0.007581897
-2.853247	دکتر	0.1140828
-4.540776	دکترا	0.04271381
-4.063655	دکترای	0.02503766
-3.626962	دکتری	0.095662
-3.708267	دکون	0.05380014
-4.499383	دکونی	0.03720868
-4.239746	دکی	0.02860495
-3.511392	دی	0.04452924
-4.063655	دیتا	0.05209297
-3.868678	دیتابیس	0.08133372
-4.198353	دیتاسنتر	0.03937441
-4.499383	دیتای	0.0002761475
-4.262022	دیتایی	0.02591424
-4.499383	دیجی	0.01657021
-3.85058	دیجیتال	0.08205497
-3.727863	دید	0.06229241
-4.078378	دیدم	0.07140704
-3.784901	دیدن	0.04996004
-3.450871	دیده	0.07486989
-4.285503	دیدی	0.05967859
-3.85058	دیدید	0.08606128
-4.262022	دیدیم	0.04185104
-4.310327	دیر	0.02225829
-3.714701	دیروز	0.09812319
-4.218557	دیشب	0.02476224
-4.125803	دین	0.04804394
-4.142836	دیوار	0.06504702
-4.499383	دیوان	-0.001290936
-4.586534	دیواندری	0.003054604
-4.426833	دیوونه	0.006043966
-3.186668	دیگر	0.1460363
-4.239746	دیگران	0.04858057
-3.545141	دیگری	0.08223691
-2.823938	دیگه	0.1573709
-3.949712	ذخیره	0.03378571
-4.218557	ذره	0.008729544
-4.461595	ذوق	0.001614294
-3.996708	ذکر	0.004003615
-4.285503	ذی	-0.001446172
-4.461595	ر	0.02286527
-3.353255	رئیس	0.004053958
-4.063655	رئیسی	0.06829602
-2.5309	را	0.06086188
-2.789497	رابطه	0.03813794
-3.626962	راحت	0.08940231
-4.461595	راحته	0.02902184
-3.410442	راحتی	0.1143253
-3.8165	راد	0.07476743
-4.125803	رادیو	0.01683138
-4.336656	رادیویی	0.03734479
-4.009297	راز	0.06599403
-4.499383	راس	0.002551431
-3.841806	راست	0.0425863
-4.093618	راستای	0.02363317
-4.049414	راستی	0.05662697
-4.022262	راضی	0.03478867
-3.677453	رانت	0.06568597
-4.142836	رانتی	0.06060507
-2.900295	راه	0.04672749
-4.239746	راهبردی	5.885616e-05
-4.461595	راهنمایی	0.03806159
-4.142836	راهکار	0.004396216
-4.198353	راهکارهای	0.0002307197
-3.769924	راهی	0.04673269
-4.035626	رای	0.02414449
-4.063655	رایانه	0.03439201
-4.426833	رایتل	0.05572297
-3.47259	رایگان	0.1255228
-3.868678	ربات	0.04801358
-4.499383	ربط	0.02463344
-3.972574	ربطی	0.008135022
-3.927992	رتبه	0.009705669
-4.394648	رحم	-0.0007349084
-3.868678	رخ	-0.003947336
-3.887563	رد	0.04287527
-4.364685	رده	0.006510622
-4.009297	رزومه	0.06442798
-3.665715	رسان	0.05920881
-3.212396	رسانه	0.09291143
-3.394648	رسانی	0.1205767
-4.540776	رسم	0.0009475522
-4.093618	رسما	0.01306577
-3.295263	رسمی	0.1258373
-4.218557	رسول	0.01072174
-4.499383	رسولی	0.0105241
-3.8165	رسید	0.07892814
-4.035626	رسیدن	0.07058756
-3.762625	رسیده	0.08925815
-3.960993	رسیدگی	0.01283801
-3.689518	رشته	0.01683399
-3.8165	رشد	0.07902299
-4.426833	رشوه	0.03953588
-4.049414	رشیدپور	0.0737767
-3.404056	رصد	0.05321626
-3.397761	رضا	0.007822725
-4.063655	رضایت	0.03217029
-3.972574	رضایی	0.0524184
-4.461595	رضوی	0.03005888
-4.078378	رعایت	0.02638036
-4.461595	رفاه	0.01964894
-3.632291	رفت	0.09895783
-4.063655	رفتار	0.01735855
-4.461595	رفتم	0.0490895
-3.721232	رفتن	0.08130266
-3.436972	رفته	0.1111428
-4.586534	رفتی	0.01118551
-4.637686	رفتیم	0.04262729
-4.218557	رفسنجان	0.06171601
-4.049414	رفع	0.006168058
-4.262022	رفیق	0.01793125
-4.461595	رقابت	0.006174351
-3.626962	رقم	0.08669788
-3.407237	رمز	0.02466272
-3.50335	رمزارز	0.1419716
-4.239746	رمزارزها	0.06534577
-4.142836	رمضانعلی	-0.003001673
-4.160565	رنگ	0.036945
-4.093618	رها	0.007175553
-4.125803	رهبری	0.05666144
-4.035626	رهنما	0.02516178
-1.85809	رو	-0.07526509
-4.142836	روابط	0.005606549
-4.160565	روال	0.05591429
-4.394648	روایت	0.01270885
-3.949712	روبیکا	0.09351431
-4.239746	روح	-0.0003185117
-4.336656	روحانی	0.04204543
-2.907308	روز	0.1244525
-4.218557	روزا	0.03793868
-3.868678	روزانه	0.05719589
-3.762625	روزنامه	0.03173505
-4.078378	روزه	0.06071073
-4.078378	روزها	0.04568429
-3.949712	روزهای	0.003792414
-3.331261	روزی	0.09032077
-4.285503	روستایی	0.06909023
-4.239746	روسی	0.04243547
-4.125803	روسیه	0.07312796
-3.292803	روش	0.07803994
-3.996708	روشن	0.05703676
-4.142836	روشی	0.05062504
-3.887563	روند	0.02845915
-4.695678	رونق	0.02084815
-4.218557	رونمایی	0.01411496
-2.97611	روی	0.04869153
-4.198353	رویکرد	0.04334537
-4.540776	رپورتاژ	-0.001176786
-4.540776	رژیم	0.02654253
-4.218557	رکورد	0.04306759
-4.336656	رگ	0.03036434
-3.824773	ریاست	-0.004561321
-4.239746	ریال	0.04315
-4.285503	ریالی	0.03475216
-4.093618	ریتوییت	0.03384493
-4.310327	ریخته	0.03038886
-4.285503	ریز	0.04518254
-4.262022	ریزی	0.05212111
-3.878018	ریس	0.005935913
-4.285503	ریسک	0.03159659
-4.461595	ریش	0.002449224
-4.461595	ریشه	0.01751726
-4.540776	رینگ	0.029387
-4.109412	ریپورت	0.0556588
-3.784901	رییس	-0.002734712
-3.33395	زاده	0.1205822
-4.285503	زار	0.02159186
-4.285503	زارع	0.01952736
-3.483871	زالو	0.05232129
-4.035626	زالوهای	-0.002090167
-4.426833	زایی	0.04748433
-3.748384	زبان	0.05324146
-4.394648	زحمات	0.03756365
-4.285503	زحمت	0.02017864
-3.824773	زد	0.09516272
-4.310327	زدم	0.06889272
-3.447354	زدن	0.1212007
-3.440406	زده	0.1181242
-4.364685	زدی	0.03661736
-4.142836	زدیم	0.07829728
-4.262022	زرابادی	0.0278328
-4.336656	زرد	0.05857017
-4.540776	زرنگ	0.009922877
-4.142836	زرگانی	0.08099442
-4.310327	زرین	-0.0006831186
-4.218557	زشت	0.004995705
-4.125803	زشته	0.05639978
-4.637686	زم	0.001611734
-3.271263	زمان	0.1367811
-3.47259	زمانی	0.05049299
-4.336656	زمین	0.03270109
-4.093618	زمینه	0.04013589
-4.022262	زن	0.07568017
-3.721232	زندان	0.07837891
-3.792588	زنده	0.06719615
-3.413671	زندگی	0.08448353
-4.426833	زندگیش	0.03495573
-4.499383	زندگیشون	0.04108731
-3.996708	زنگ	0.02447589
-4.586534	زهی	0.001050233
-4.540776	زود	0.0005908795
-4.540776	زودتر	0.05692335
-3.310327	زودی	0.1272014
-4.078378	زور	0.03051224
-4.310327	زورش	0.03643538
-3.621698	زیاد	0.1008237
-4.426833	زیاده	0.03866239
-3.596293	زیادی	0.06568744
-4.540776	زیبا	0.00715163
-3.090527	زیر	0.09759618
-4.499383	زیرا	0.01176276
-4.093618	زیرساخت	0.01929444
-4.093618	زیرمجموعه	0.01411976
-4.218557	زینب	0.01536885
-3.540776	سابق	0.06988934
-3.833206	سابقه	0.05790559
-4.426833	ساترا	0.0384096
-3.683444	ساخت	0.08610686
-4.285503	ساختار	0.0366358
-4.336656	ساختمان	0.03492436
-4.426833	ساختمون	0.04558679
-4.461595	ساختن	0.0316354
-3.85058	ساخته	0.0756269
-4.461595	ساختیم	0.0443448
-3.305248	ساده	0.10601
-3.576988	ساز	0.1118217
-3.190528	سازمان	0.06744952
-4.093618	سازمانی	0.0462383
-4.336656	سازنده	0.03102346
-3.24631	سازی	0.1348868
-4.426833	ساسپند	0.00190313
-4.364685	ساشا	0.01593319
-3.180941	ساعت	0.09318625
-4.160565	ساعته	0.03622523
-2.717954	سال	0.124247
-3.8165	سالم	0.08216979
-4.637686	سالن	0.01680226
-3.262022	ساله	0.1337067
-3.859535	سالها	0.05641798
-3.859535	سالهاست	0.06254689
-4.426833	سالهای	0.009961979
-4.364685	سالگی	0.03134637
-4.262022	سالی	0.02295583
-3.808382	سامان	0.03399295
-4.262022	ساماندهی	0.05543065
-3.350444	سامانه	0.09124053
-3.938716	ساکن	0.008540223
-4.499383	سایبر	0.01808068
-3.167864	سایبری	0.1463035
-2.290844	سایت	0.07713443
-3.859535	سایتش	0.07963875
-4.426833	سایتهای	0.01853472
-4.022262	سایتی	0.03580449
-4.426833	سایر	0.002183491
-3.960993	سایه	0.0235123
-4.285503	سبحانی	0.08130781
-4.179048	سبز	0.04651025
-4.461595	سبک	0.01676385
-3.606278	ستاد	0.01934625
-3.659962	ستاره	0.02135084
-3.54955	سجاد	-0.006111263
-4.637686	سحر	-0.0005576702
-3.755446	سخت	0.0423073
-3.972574	سخته	0.078159
-4.049414	سختی	0.0453412
-4.394648	سخنان	0.01562325
-4.540776	سخنرانی	0.009913128
-4.499383	سخنگوی	0.008108214
-3.158759	سر	0.104557
-4.394648	سراب	0.03722421
-4.637686	سراسر	0.001626056
-4.540776	سراسری	0.02722937
-4.109412	سراغ	0.006949307
-4.285503	سران	0.009286151
-4.540776	سرباز	0.01994631
-4.499383	سربازان	0.01500438
-4.049414	سرت	0.01356572
-4.499383	سرتون	0.05299857
-3.734596	سردار	0.04143018
-4.262022	سرشاخه	0.01718998
-4.540776	سرشماره	0.02868401
-4.540776	سرشون	0.01043289
-3.984473	سرعت	0.0415565
-3.996708	سرقت	0.02022427
-2.915464	سرمایه	0.1056569
-4.461595	سرنوشت	0.01654446
-3.960993	سرهنگ	0.0001931782
-3.476318	سرور	0.112002
-4.310327	سرورهای	0.02199105
-4.637686	سروری	0.03904109
-3.897323	سروش	0.07732238
-2.830659	سرویس	0.09228131
-3.949712	سرویسی	0.06573299
-4.499383	سرپرست	-0.001118069
-3.878018	سرچ	0.01647799
-4.336656	سرکار	-0.001599385
-4.540776	سرکردگی	0.01741785
-3.397761	سری	0.08364716
-4.426833	سریال	0.02045726
-3.960993	سریع	0.07876951
-4.285503	سریعتر	0.04859838
-3.519587	سطح	0.05108945
-4.426833	سعد	-0.001393769
-3.897323	سعی	0.03453466
-3.762625	سعید	0.005195973
-4.394648	سفارت	0.006440352
-4.336656	سفره	0.008512896
-4.063655	سفید	0.06765695
-4.586534	سفیر	0.009635059
-4.285503	سقف	0.02570974
-4.540776	سل	0.04831731
-3.841806	سلام	0.04825047
-4.262022	سلامت	0.01797985
-4.239746	سلبریتی	0.03643136
-4.364685	سلطان	0.01909094
-4.499383	سلطانی	0.05732898
-4.426833	سلیمانی	0.02586489
-4.540776	سلیمه
-3.984473	سلیمی	0.07899706
-4.218557	سم	0.01734644
-3.601257	سمت	0.07590462
-4.461595	سمنان	0.02011258
-4.285503	سن	0.0353656
-4.499383	سنت	0.04251852
-4.049414	سنجی	0.09676152
-3.339379	سند	0.1068431
-4.198353	سندی	0.05429799
-4.586534	سنگ	0.008021646
-4.364685	سنگین	0.02619194
-3.391557	سه	0.0087787
-4.262022	سهام	0.03244983
-4.336656	سهم	0.01173076
-4.142836	سهیل	0.003057681
-3.499383	سو	-0.008811996
-4.285503	سوئد	0.04972351
-4.285503	سوابق	0.02710803
-3.917527	سواد	0.04120988
-4.035626	سوار	0.01956105
-4.239746	سواستفاده	0.0318391
-3.169708	سوال	0.108697
-3.984473	سوالات	0.03964293
-4.540776	سواله	0.02806483
-4.125803	سوالی	0.03263316
-4.394648	سوخت	0.03869739
-3.072429	سود	0.1153558
-4.239746	سودجو	0.0634926
-4.336656	سودجویان	0.03908724
-4.499383	سودجویی	0.01937134
-4.310327	سودهای	0.0007091798
-4.218557	سودی	0.03541442
-4.540776	سورس	0.008105927
-3.841806	سوم	0.08224538
-4.461595	سوهانیان	0.03830817
-4.394648	سوژه	0.00908259
-4.109412	سوی	0.0004464019
-3.701927	سپاه	0.09462511
-4.336656	سپرده	0.02906733
-4.499383	سپری	0.02273077
-4.160565	سپس	0.03601604
-4.540776	سپهر	-0.001233731
-4.109412	سکه	0.01728493
-3.714701	سکوت	0.02945869
-3.887563	سی	0.04014095
-4.109412	سیاست	0.03576432
-3.654285	سیاسی	0.0901183
-3.659962	سیاه	0.1015511
-4.540776	سیب	0.0385982
-3.394648	سید	0.01938753
-4.364685	سیده	-0.001736954
-3.558505	سیستم	0.0539756
-4.586534	سیسکو	0.04272627
-4.394648	سیم	0.01683667
-3.897323	سیما	0.1144435
-3.264314	سینا	0.002990913
-4.540776	سینما	0.03112559
-4.285503	سیگنال	0.06851972
-4.540776	ش	0.004111135
-4.179048	شات	0.0481579
-4.461595	شاتل	0.06299778
-4.586534	شاخ	0.02899017
-4.499383	شاد	0.0284789
-4.426833	شادن	0.01639121
-3.800413	شارژ	0.05925841
-3.917527	شامل	0.01826837
-4.426833	شان	0.02107029
-4.499383	شانس	0.001329053
-3.887563	شاهد	0.01785718
-4.262022	شاهین	-0.0003716814
-3.266618	شاپرک	0.1297473
-4.063655	شاکی	0.02999843
-4.461595	شایان	-0.001355234
-3.342119	شاید	0.06829588
-4.394648	شایعه	0.01124998
-3.532176	شب	0.1029702
-3.907308	شبانه	0.005568831
-4.160565	شبه	0.02220555
-2.494671	شبکه	0.09115808
-4.160565	شبگرد	0.07674087
-3.878018	شبیه	0.009352876
-4.049414	شت	-0.003180479
-4.142836	شتاب	0.05903004
-3.960993	شخص	0.07181656
-4.394648	شخصا	0.0332481
-4.142836	شخصه	0.02213177
-3.777348	شخصی	0.07748375
-2.527096	شد	0.118828
-4.239746	شدت	0.02560499
-3.859535	شدم	0.1107563
-2.91341	شدن	0.1548545
-3.85058	شدند	0.09705121
-4.499383	شدنی	0.02018477
-2.309306	شده	0.1081713
-4.285503	شدی	0.07803248
-3.85058	شدید	0.108774
-4.093618	شدیم	0.08119763
-4.364685	شر	0.04441044
-4.160565	شرافت	0.03053556
-4.586534	شراکت	0.008129772
-3.683444	شرایط	0.06445937
-4.540776	شرایطی	0.01535121
-4.499383	شرح	0.01937138
-3.053638	شرط	-0.01947674
-3.695678	شرطبندی	0.08613346
-4.426833	شرعی	0.01464436
-4.078378	شرم	0.02708818
-3.347651	شروع	0.05298247
-2.219385	شرکت	0.08089118
-4.762625	شرکتش	0.02571087
-4.461595	شرکته	0.07847936
-4.426833	شرکتها	0.04572244
-4.218557	شرکتهای	0.0009428768
-3.586534	شرکتی	0.08135899
-3.824773	شریف	0.08338864
-4.364685	شریک	0.01688055
-4.364685	شش	-0.0006929268
-3.8165	شطرنج	0.09020855
-4.262022	شعار	0.0485195
-4.022262	شعبه	0.04802349
-3.972574	شعور	0.05559302
-4.198353	شغل	0.0325265
-4.499383	شغلی	0.03065556
-3.727863	شفاف	0.04325568
-4.125803	شفافیت	0.04783886
-4.198353	شقاقی	0.03446786
-4.364685	شلیله	0.05970926
-2.312889	شما	0.1147438
-3.079878	شماره	0.08271938
-4.218557	شمارو	0.0199751
-3.596293	شماست	0.1148602
-4.336656	شمایید	0.0457754
-4.426833	شمخانی	0.04707147
-4.285503	شن	0.05381267
-4.461595	شناخت	0.02575014
-4.063655	شناخته	0.001715393
-3.576988	شناسایی	0.05718887
-3.996708	شنبه	0.03791418
-4.394648	شنود	0.02068887
-4.336656	شنیده	0.008619848
-4.426833	شنیدید	0.01820781
-3.949712	شه	0.07625727
-3.949712	شهر	0.04914896
-4.063655	شهرام	0.03426181
-4.426833	شهرداری	0.0242068
-4.262022	شهرستان	0.0003975519
-4.160565	شهره	-0.002360373
-4.310327	شهروند	0.03112265
-4.285503	شهروندان	0.05484249
-4.364685	شهرک	0.002829766
-4.364685	شهریورنیا	0.04079437
-4.035626	شهید	0.01907423
-4.364685	شهیدی	0.03998696
-3.868678	شو	0.08520976
-4.285503	شواهد	0.05092405
-4.461595	شواهدی	0.01158443
-3.996708	شوخی	0.03442603
-4.285503	شوخیه	0.05238634
-3.295263	شود	0.1244529
-3.897323	شورای	-0.004775425
-3.927992	شوند	0.09997758
-4.461595	شونه	0.01420139
-4.239746	شوید	0.08932129
-4.336656	شویی	0.05360758
-4.310327	شک	0.01861408
-3.24631	شکایت	0.1158353
-3.762625	شکری	-0.006485998
-3.917527	شکل	0.03111817
-4.499383	شکن	0.006664576
-4.586534	شکنجه	-0.000311033
-3.996708	شکوری	0.06181155
-3.665715	شیاد	0.1178271
-4.198353	شیادی	0.08582292
-4.394648	شیخ	0.01720683
-4.125803	شید	0.04876919
-4.461595	شیر	0.0200472
-4.461595	شیرین	0.008016594
-4.499383	شیم	0.02721669
-4.310327	شیوه	0.005686954
-4.179048	صابر	-0.0008815871
-4.262022	صاحاب	0.03190925
-4.063655	صاحب	0.01042956
-4.499383	صاحبان	0.008274381
-4.049414	صادر	0.02233378
-4.310327	صادرات	0.05024677
-4.035626	صادق	-0.001697509
-4.394648	صادقی	0.04419427
-4.540776	صبا	0.01567017
-3.996708	صباسل	0.06758497
-3.824773	صبح	0.0579878
-3.996708	صبر	0.01903103
-3.748384	صحبت	0.01553521
-4.078378	صحت	0.03067713
-4.394648	صحتی	0.04631658
-3.927992	صحنه	0.04017835
-4.063655	صحیح	0.05319715
-4.336656	صد	0.003886332
-3.654285	صدا	0.07134824
-4.285503	صداسیما	0.07076135
-4.336656	صداش	0.01426539
-3.275958	صداوسیما	0.1351103
-4.009297	صداوسیمای	-0.003351738
-3.677453	صدای	0.04169659
-4.540776	صدر	0.007678283
-4.198353	صدها	0.005178868
-4.142836	صدور	0.008472961
-3.350444	صرافی	0.1150853
-4.426833	صرف	0.001102585
-3.85058	صرفا	0.06327245
-4.285503	صریح	0.03910624
-3.665715	صفحات	0.06428184
-3.447354	صفحه	0.07946531
-4.310327	صفر	0.02507623
-4.461595	صلاحیت	0.01274842
-4.262022	صمت	0.04697407
-4.364685	صنایع	0.001298071
-4.336656	صندوق	0.009796468
-3.721232	صنعت	0.08602992
-4.049414	صنعتی	0.002938998
-4.239746	صنفی	0.006919247
-4.364685	صوتی	0.01020794
-3.060769	صورت	0.01544753
-4.160565	صیانت	0.02591945
-4.426833	صیغه	0.0297498
-4.540776	ضایع	0.001773493
-3.960993	ضبط	0.02260865
-4.142836	ضد	0.01827364
-4.394648	ضربه	0.000190686
-4.336656	ضرر	0.02053054
-4.109412	ضعف	0.0424206
-4.310327	ضعیف	0.0259687
-4.063655	ضمن	0.0004617091
-4.499383	ضیا	0.02425521
-4.285503	طاهری	0.0559212
-3.677453	طبق	0.02548002
-4.586534	طبقه	0.008526301
-4.394648	طراح	0.02879163
-4.540776	طراحان	0.01581381
-3.734596	طراحی	0.02547196
-3.280705	طرح	0.09864673
-3.373459	طرف	0.1304447
-3.250741	طریق	0.06464305
-4.198353	طلا	0.0377031
-3.996708	طلایی	0.08862232
-4.310327	طلب	0.03161092
-4.499383	طماع	0.04149926
-3.972574	طمع	0.02247034
-4.218557	طنز	0.007623589
-4.160565	طور	0.02587247
-3.887563	طول	0.0345359
-4.461595	طولانی	0.02419098
-3.558505	طی	0.02055103
-4.461595	ظاهر	0.002202435
-4.540776	ظرفیت	0.005797729
-4.285503	عادت	0.00532697
-4.364685	عادل	0.01791608
-4.109412	عادی	0.06258205
-4.499383	عادیه	0.03120583
-4.394648	عاقبت	0.02168265
-3.938716	عالی	0.04710481
-3.443866	عامل	0.06913948
-4.540776	عاملین	0.02535662
-4.364685	عبادتی	0.03715227
-3.808382	عباس	0.04292046
-4.394648	عباسی	0.01486495
-4.125803	عبور	0.0302083
-4.499383	عجایب	0.01762096
-4.540776	عجله	0.004841789
-3.868678	عجیب	0.05858291
-4.239746	عجیبه	0.06233246
-4.540776	عجیبی	0.01176868
-4.310327	عدالت	0.05316203
-3.996708	عدد	0.07717291
-3.637686	عدم	-0.006597261
-4.310327	عده	0.01234359
-4.109412	عذر	-0.003103796
-4.198353	عذرخواهی	0.01293435
-4.461595	عراق	0.04155942
-3.777348	عرض	0.008939165
-4.336656	عرضه	0.0389824
-4.285503	عرفان	-0.0006100227
-4.364685	عزتی	0.04794935
-3.376423	عزیز	0.1441625
-3.391557	عزیزان	0.1516198
-3.897323	عزیزانی	0.0117661
-4.218557	عزیزی	0.04884185
-4.336656	عسگری	0.04510264
-4.364685	عصر	0.001119617
-3.295263	عضو	0.03007738
-3.683444	عضویت	0.04513125
-4.109412	علاقه	0.03877045
-4.586534	علاوه	-0.0001730362
-3.85058	علت	0.02647234
-4.310327	علم	0.01751126
-3.695678	علمی	0.07977374
-4.461595	علنی	0.04241366
-3.665715	علوم	0.07946987
-4.394648	علوی	0.003327248
-3.109412	علی	0.02785734
-3.671544	علیجانی	0.08253025
-3.741436	علیرضا	0.01158394
-3.762625	علیه	0.02372559
-3.887563	عمده	0.03317452
-4.461595	عمر	0.03430931
-3.897323	عمل	0.02976903
-4.142836	عملا	0.05346888
-3.984473	عمله	0.05106606
-3.824773	عملکرد	0.02884896
-4.336656	عملیات	0.01862585
-4.461595	عملیاتی	0.02613404
-4.336656	عمو	0.03641489
-3.416924	عمومی	0.1430332
-3.8165	عناوین	0.04274075
-4.499383	عنایت	0.009785081
-2.974928	عنوان	0.1184874
-3.897323	عهده	0.01546561
-4.499383	عواقب	0.01057907
-3.701927	عوامل	0.0693774
-4.336656	عواملش	0.03868848
-4.218557	عوض	0.02192403
-3.397761	عکس	0.1004431
-4.461595	عید	0.01639194
-4.179048	عیدی	0.0266272
-4.461595	عینا	0.01139543
-4.364685	غر	0.01533571
-4.540776	غرفه	0.03252657
-4.540776	غریب	0.03196113
-4.394648	غصه	0.001120531
-4.394648	غفاری	0.03755835
-4.499383	غفلت	0.018718
-4.035626	غلط	0.03097042
-3.50335	غیر	0.00529842
-4.461595	غیرفعال	0.007106871
-3.654285	غیرقانونی	0.08833426
-4.285503	غیرمجاز	0.04049533
-4.179048	فاجعه	0.04270911
-4.022262	فارس	0.06724722
-3.648681	فارسی	0.102712
-3.996708	فارغ	0.005934472
-3.960993	فارم	0.05848482
-4.336656	فاز	0.01291861
-3.572293	فاسد	0.07516019
-4.310327	فاش	0.002851184
-4.364685	فاصله	0.0440229
-4.499383	فاضلاب	0.02168074
-4.461595	فال	0.01686805
-4.310327	فالو	0.004666789
-4.218557	فالور	0.02274768
-4.364685	فالوور	0.0366352
-4.218557	فامیل	0.02579009
-4.426833	فاوا	0.04664065
-4.499383	فایروال	0.03590082
-3.808382	فایل	0.04003048
-4.160565	فاینانس	0.0722314
-3.17342	فتا	0.1479178
-4.078378	فتای	-0.0004031003
-4.499383	فتوشاپ	0.04732695
-4.394648	فحش	0.01825369
-4.426833	فدا	-0.0006774684
-4.394648	فدای	-0.001039549
-4.394648	فدراسیون	-0.001416743
-4.142836	فر	0.08396942
-4.461595	فراتر	0.008264704
-4.142836	فراخوان	0.02012768
-3.917527	فرار	0.05423034
-4.426833	فراری	0.03449582
-3.887563	فراموش	0.008231265
-3.868678	فراهم	0.02384576
-4.142836	فرایند	0.03249746
-3.043846	فرد	0.12676
-3.665715	فردا	0.1039916
-3.388488	فردی	0.07996518
-3.54955	فردین	0.09956557
-4.142836	فرزاد	0.02781489
-4.499383	فرزند	0.01798839
-4.179048	فرزین	-0.002187798
-4.394648	فرستاد	0.06691055
-4.461595	فرستاده	0.04994442
-3.833206	فرشید	0.0008897801
-4.009297	فرصت	0.04276801
-4.262022	فرض	0.002887093
-4.198353	فرق	0.02880787
-4.262022	فرقی	0.008774767
-4.364685	فرم	0.04266958
-3.917527	فرمان	0.004187913
-4.239746	فرمانده	0.01563659
-4.394648	فرمودند	0.03648955
-4.540776	فرمول	0.0003322544
-3.47259	فرهاد	0.01628359
-4.035626	فرهنگ	0.04706609
-4.063655	فرهنگی	0.01821799
-4.540776	فرهودی	0.03821623
-4.310327	فرو	0.001266653
-4.262022	فروارد	0.009409497
-4.218557	فروخته	0.07433309
-4.160565	فروردین	0.007083458
-3.127476	فروش	0.1099801
-3.996708	فروشنده	0.04234465
-3.927992	فروشگاه	0.04132733
-4.109412	فروشی	0.05180442
-4.426833	فروغی	0.03034055
-3.671544	فریب	0.02141825
-4.336656	فریدون	-0.001609259
-3.198353	فساد	0.1157462
-4.461595	فسادی	0.02841427
-3.927992	فشار	0.02844585
-4.310327	فشل	0.04602991
-3.949712	فضا	0.04101155
-3.188594	فضای	-0.008668507
-3.400897	فعال	0.0523825
-3.093618	فعالیت	0.09412625
-4.336656	فعالیتش	0.01751856
-4.364685	فعالین	0.02311057
-3.748384	فعلا	0.05865477
-3.581735	فعلی	0.103176
-2.657115	فقط	0.1083489
-4.109412	فلان	0.03704553
-4.540776	فلانی	0.02734836
-4.394648	فن	0.008084153
-3.487698	فناوری	0.02899571
-4.364685	فناپ	0.02786692
-3.643149	فنی	0.1171166
-4.499383	فهمید	0.03187735
-4.540776	فهمیده	0.01239295
-4.426833	فوت	0.001570345
-3.984473	فوتبال	0.06199727
-3.938716	فوری	0.08690285
-4.093618	فوق	0.02788067
-4.078378	فوچرز	0.09275161
-3.096731	فکر	0.01828962
-4.586534	فکری	0.03196877
-4.239746	فیسبوک	0.05949965
-4.394648	فیشر	0.04837813
-3.292803	فیشینگ	0.1159393
-4.499383	فیشینگه	0.04170249
-3.204316	فیلتر	0.1160065
-4.461595	فیلترشکن	0.03354236
-4.461595	فیلتره	0.04546821
-4.022262	فیلترینگ	0.07905199
-3.777348	فیلم	0.07042623
-4.125803	فیک	0.05906098
-4.540776	ق	0.03044378
-3.447354	قابل	-0.008517026
-3.927992	قابلیت	0.01969722
-3.454416	قادری	0.1246825
-4.586534	قاسم	0.0168433
-3.648681	قاضی	0.06445926
-4.540776	قاطی	0.00123537
-4.394648	قاعدتا	0.01673808
-3.972574	قالب	0.02023915
-4.285503	قانع	0.001090997
-3.300227	قانون	0.1376528
-4.540776	قانونمند	0.0383611
-3.239746	قانونی	0.146352
-4.160565	قاچاق	0.01587754
-4.093618	قاچاقچی	0.0302028
-3.450871	قبل	0.1069739
-3.164199	قبلا	0.09553637
-4.364685	قبلش	0.01219316
-3.792588	قبلی	0.1083827
-3.792588	قبول	0.009783858
-4.336656	قتل	0.05414632
-4.285503	قد	0.05132782
-4.310327	قدر	-0.001073743
-3.701927	قدرت	0.07725754
-4.022262	قدم	0.04213047
-4.142836	قدیر	-0.002812574
-3.833206	قدیمی	0.09680896
-2.977295	قرار	-0.01534805
-3.85058	قرارداد	0.06466236
-4.022262	قراره	0.04850177
-4.499383	قرارگاه	0.001754313
-4.394648	قران	0.05079723
-3.103025	قربانی	0.1578062
-3.407237	قربانیان	0.10841
-4.336656	قربون	-0.001449923
-4.426833	قرعه	-0.001454532
-4.109412	قرمز	0.07723426
-4.310327	قرون	0.03579994
-3.841806	قسمت	0.02185212
-4.426833	قشم	0.01893885
-4.336656	قشنگ	0.00845845
-4.364685	قصد	0.0008866574
-3.907308	قصه	0.07102446
-4.022262	قضا	0.07404768
-4.426833	قضائی	0.04360546
-4.218557	قضاوت	0.01801714
-3.08441	قضایی	0.1382349
-3.370514	قضاییه	0.1265144
-4.336656	قضیه	0.004402917
-3.824773	قطع	0.0186858
-3.632291	قطعا	0.0634866
-4.218557	قطعی	0.02103447
-4.394648	قفل	0.02370936
-3.833206	قلابی	0.07613484
-4.198353	قلب	-0.0002163102
-4.125803	قلم	0.02505946
-4.022262	قلمبر	-0.003600588
-4.499383	قم	0.02510129
-2.61598	قمار	0.1230153
-4.426833	قمارباز	0.04489476
-4.540776	قماربازان	0.0476318
-4.461595	قماربازی	0.0449913
-4.285503	قمارخانه	0.04477973
-3.824773	قمارخونه	0.03501428
-4.285503	قماره	0.03242197
-4.336656	قمه	0.009175642
-4.540776	قندون	0.02662953
-4.078378	قهرمان	0.004209763
-4.262022	قوا	0.04372435
-3.576988	قوانین	0.04694204
-4.586534	قوانینی	0.0172582
-4.022262	قول	-0.0008065691
-3.315467	قوه	-0.006718395
-4.461595	قوی	0.01802538
-3.558505	قیمت	0.09982564
-4.461595	لابد	0.01610663
-3.581735	لازم	0.07438363
-4.262022	لازمه	0.02484914
-4.285503	لاکچری	0.05033989
-4.364685	لای	0.01276704
-4.239746	لایه	0.04058418
-3.447354	لایو	0.07145515
-3.558505	لایواستریم	0.06959625
-4.218557	لایک	0.04109348
-4.394648	لباس	0.003168782
-4.285503	لجن	0.004989966
-4.022262	لحظه	0.03145985
-3.586534	لذا	0.05133346
-4.198353	لزوم	0.009797903
-3.654285	لطف	0.03948672
-3.076883	لطفا	0.08659438
-4.426833	لعنت	0.02900987
-3.996708	لغو	0.007288559
-4.049414	لندن	0.08700519
-4.198353	لندینگ	0.02625707
-4.310327	لو	0.01770895
-4.637686	لیام	0.03953042
-4.364685	لیسانس	1.351837e-05
-3.21444	لیست	0.1027574
-4.499383	لیستی	0.02569226
-3.454416	لینک	0.08027248
-4.499383	لینکدین	0.01836862
-2.413023	ما	0.1233677
-4.093618	ماجرا	0.07534105
-4.125803	مادر	0.02612742
-4.009297	ماده	0.03122379
-3.591386	مارو	0.04632682
-4.009297	مارکت	0.06097206
-4.540776	مارکلایی	0.03940596
-3.841806	ماست	0.07843636
-3.984473	ماشین	0.06197284
-4.499383	مافیا	0.06279609
-3.960993	مافیای	0.01223592
-4.426833	مافیایی	0.009766839
-3.499383	مال	0.05654712
-4.009297	مالباخته	0.06044122
-4.262022	مالباختگان	0.05624547
-4.160565	مالزی	0.07643762
-4.198353	ماله	0.01236179
-3.907308	مالک	0.04383975
-4.461595	مالکیت	0.03706028
-4.142836	مالکین	0.05187129
-3.407237	مالی	0.1256424
-4.218557	مالیات	0.05175893
-4.540776	مالیاتی	0.03101701
-4.394648	ماند	0.0656618
-4.239746	مانده	0.02417533
-4.461595	ماندگار	0.001095803
-4.336656	مانع	0.008571972
-3.8165	مانند	0.03969625
-4.063655	مانی	0.08053689
-3.15517	ماه	0.1216607
-4.093618	ماهان	0.02048419
-4.394648	ماهانه	0.01234588
-3.370514	ماهر	0.1187657
-3.960993	ماهه	0.06885286
-4.239746	ماهواره	0.02116666
-3.769924	ماهی	0.01385325
-4.063655	ماهیانه	0.05044832
-3.996708	ماکان	-0.003891593
-4.310327	مایل	0.01463042
-4.239746	مایلید	0.009390526
-4.239746	ماین	0.02005253
-3.741436	ماینر	0.09842134
-3.917527	ماینینگ	0.07692821
-4.499383	مایه	0.00664812
-4.461595	مبارز	0.02880273
-3.266618	مبارزه	0.0424333
-4.198353	مبارک	0.02467594
-4.262022	مبارکه	0.06525949
-4.461595	مبالغ	0.02721482
-3.769924	مبلغ	0.08624193
-3.887563	مبنا	0.03060302
-3.996708	مبنی	-0.003180118
-3.85058	مبین	0.01377128
-2.977295	متاسفانه	0.12418
-4.262022	متاسفم	0.05073936
-4.540776	متحده	0.01945824
-3.949712	متخصص	0.04454768
-4.461595	متخصصین	0.01844201
-3.800413	متخلف	0.09786084
-4.364685	متخلفین	0.03024797
-4.310327	متصل	0.01263913
-4.364685	متضرر	0.002205499
-3.677453	متعلق	0.005677542
-4.461595	متفاوت	0.02408334
-3.601257	متن	0.08446033
-4.540776	متنی	0.02736152
-3.949712	متهم	0.04640701
-4.063655	متواری	0.04365534
-4.035626	متوجه	0.003318296
-3.727863	متوقف	0.02622419
-4.540776	متولد	0.007467569
-4.179048	مثال	0.04604975
-3.148079	مثل	0.03794765
-3.356085	مثلا	0.08964916
-4.310327	مجاز	0.04900191
-3.927992	مجازات	0.02319955
-3.167864	مجازی	0.1318341
-4.109412	مجبور	0.01540872
-4.239746	مجتبی	0.01720594
-4.078378	مجدد	0.06532519
-3.601257	مجرم	0.105811
-4.009297	مجرمانه	0.0804841
-3.721232	مجرمین	0.1066654
-3.784901	مجری	0.05822875
-3.235425	مجلس	0.1305629
-4.461595	مجله	-0.0007757567
-3.358932	مجموعه	0.1379443
-3.373459	مجوز	0.1077809
-4.285503	مجوزی	0.04936676
-3.808382	مجید	0.02796498
-4.336656	مجیدی	0.0541958
-4.540776	محاسبات	0.004650898
-4.285503	محاسبه	0.04690375
-3.868678	محاکمه	0.01448891
-3.111024	محترم	0.1290416
-4.586534	محتوا	0.02701052
-4.198353	محتوای	0.02280929
-3.727863	محتوی	0.08812572
-4.160565	محدود	0.02915587
-4.142836	محدودیت	0.0187978
-4.049414	محرمانه	0.05433936
-4.035626	محرمیان	0.03217317
-3.295263	محسن	0.02739464
-4.049414	محصول	0.03668554
-3.996708	محصولات	0.05421293
-4.310327	محض	0.003218542
-4.637686	محقق	0.01719214
-3.659962	محل	0.03009662
-4.461595	محله	0.01684027
-3.019638	محمد	0.01382597
-4.394648	محمدجواد	0.02197096
-3.984473	محمدرضا	0.01481428
-4.637686	محمدزاده	0.007590249
-4.160565	محمدعلی	0.01555031
-4.285503	محمدی	0.02745503
-3.949712	محمود	0.01449352
-3.878018	محکوم	0.03225693
-4.125803	مخابرات	0.05661796
-4.109412	مخابراتی	0.05451893
-4.142836	مخاطب	0.07135779
-4.364685	مخالف	0.04524475
-4.218557	مختاری	0.04708189
-4.078378	مخترع	0.03765436
-3.792588	مختلف	0.09329231
-4.426833	مختلفی	0.02971539
-4.461595	مخزن	-0.001088802
-4.262022	مخصوص	0.03240088
-4.239746	مخصوصا	0.04305396
-4.035626	مخفی	0.02221353
-3.480078	مدارک	0.05000399
-4.426833	مدال	0.01403947
-3.769924	مدت	0.062549
-4.540776	مدتها	0.01455779
-3.938716	مدتهاست	0.03677695
-3.784901	مدتی	0.03058742
-4.310327	مدرس	0.01739959
-4.426833	مدرن	-0.001449531
-3.24631	مدرک	0.1160333
-3.808382	مدعی	0.004517714
-3.938716	مدل	0.06509735
-4.310327	مدیا	0.04413117
-2.938716	مدیر	0.07126793
-3.300227	مدیران	0.09094532
-4.499383	مدیرش	0.02776382
-3.331261	مدیرعامل	0.07631286
-3.841806	مدیره	0.05717161
-4.310327	مدیرکل	0.0087663
-4.093618	مدیری	0.0764326
-3.297738	مدیریت	0.08138148
-4.022262	مذهبی	0.06694166
-4.142836	مذکور	0.04675952
-4.063655	مراتب	0.03289219
-3.841806	مراجع	0.05398063
-3.897323	مراجعه	0.02647071
-4.394648	مراحل	0.0100745
-4.218557	مراد	-0.002243683
-4.540776	مرادزاده	-0.000275231
-4.142836	مرادی	0.07826743
-4.499383	مراسم	0.001659761
-3.47259	مراقب	0.02794694
-4.109412	مراکز	-0.001812844
-3.748384	مربع	0.0938741
-3.576988	مربوط	0.02551554
-4.198353	مربوطه	0.06887382
-3.769924	مرتبط	0.03796317
-4.239746	مرتضوی	0.059051
-3.648681	مرتضی	0.0285787
-4.461595	مرتکب	0.001311906
-4.262022	مرجع	0.01107826
-3.792588	مرحله	0.04028917
-4.125803	مرد	0.07798836
-4.499383	مرداد	0.007966481
-2.375829	مردم	0.09980276
-3.984473	مردمه	0.0871249
-3.616497	مردمی	0.09175169
-4.336656	مرده	0.03361485
-4.394648	مردک	0.03334247
-4.218557	مرز	0.04613761
-4.262022	مرزهای	0.001210473
-4.049414	مرور	0.0199293
-4.540776	مرورگر	0.01074702
-3.073908	مرکز	0.07654151
-3.177164	مرکزی	0.1436863
-4.160565	مرگ	0.006042567
-4.461595	مریض	0.02873606
-4.461595	مریم	-0.0001892892
-3.31806	مسئول	0.1009249
-4.586534	مسئوله	0.06785247
-4.160565	مسئولی	0.07815602
-3.511392	مسئولیت	0.08254233
-4.394648	مسئولیتش	0.03154571
-4.063655	مسئولیتی	0.08234811
-3.107807	مسئولین	0.1199192
-4.586534	مسئولینی	0.009584524
-4.499383	مسائل	0.006321504
-3.907308	مسابقات	0.06652782
-3.800413	مسابقه	0.06562126
-4.426833	مستر	0.02298714
-4.179048	مستردیجی	0.05033328
-4.394648	مستضعفان	0.02320363
-4.426833	مستعار	-0.0002127874
-3.960993	مستقل	0.04522078
-3.388488	مستقیم	0.09539611
-3.461595	مستند	0.1051755
-4.285503	مستندات	0.0730909
-3.654285	مسخره	0.05376318
-3.465229	مسدود	0.002117032
-3.31806	مسعود	0.04337018
-4.109412	مسلمون	0.03735738
-4.285503	مسولین	0.03021754
-3.755446	مسیر	0.06090077
-3.917527	مشابه	0.09588861
-4.035626	مشارکت	0.02659782
-3.800413	مشاهده	0.02608021
-3.824773	مشاور	0.0266223
-3.960993	مشاوره	0.03884326
-3.689518	مشت	-0.00213415
-3.984473	مشترک	0.06460905
-4.426833	مشترکین	0.01030989
-3.887563	مشتری	0.08697116
-3.907308	مشتریان	0.04963135
-3.36759	مشخص	0.08065478
-4.499383	مشخصا	0.01742386
-4.198353	مشخصات	0.009856012
-4.093618	مشخصه	0.08662684
-4.394648	مشخصی	0.03636501
-4.009297	مشغول	0.03368832
-4.461595	مشغوله	0.07772176
-4.499383	مشمول	0.008691305
-4.198353	مشهد	0.041042
-4.461595	مشهدی	0.0136295
-3.347651	مشکل	0.1335295
-3.907308	مشکلات	0.0471422
-3.792588	مشکلی	0.04048628
-4.426833	مشکوک	0.04144511
-3.626962	مصاحبه	0.06352015
-4.336656	مصادیق	0.006894257
-4.364685	مصداق	-0.001843924
-4.160565	مصرف	0.03999757
-4.049414	مصطفی	0.01556486
-4.695678	مصلحت	0.008829367
-4.426833	مصنوعی	0.04140726
-3.938716	مصوبه	0.04831164
-4.310327	مطابق	0.005061929
-3.373459	مطالب	0.1120219
-3.714701	مطالبه	0.05774278
-4.364685	مطالبی	0.03802708
-4.310327	مطالعه	0.03248969
-3.714701	مطرح	0.02454466
-3.30778	مطلب	0.1031176
-3.878018	مطلبی	0.05331593
-4.179048	مطلع	0.03687854
-4.336656	مطلق	0.06197657
-3.897323	مطمئن	-0.002784961
-4.364685	مطمئنم	0.02103355
-4.540776	معادل	0.01666763
-4.022262	معارفی	0.1059712
-4.364685	معامله	0.006585317
-3.280705	معاون	0.02496423
-3.949712	معاونت	0.006531065
-3.996708	معتبر	0.04621766
-4.426833	معدن	0.02809471
-3.149841	معرفی	0.05980744
-4.218557	معروف	0.03121277
-4.239746	معلوم	0.006542842
-4.262022	معمولا	0.02720236
-4.426833	معمولی	0.01541713
-3.927992	معنی	0.0428182
-4.540776	معین	0.02042441
-3.887563	مفت	0.05750654
-4.499383	مفسدین	0.04633237
-4.109412	مفهوم	0.01845694
-4.035626	مفید	0.05015226
-4.586534	مقابل	0.01616498
-3.762625	مقابله	0.003020681
-4.461595	مقاله	0.01883424
-3.949712	مقام	-0.003730233
-4.394648	مقاومت	0.0009795581
-4.239746	مقایسه	0.01712989
-4.426833	مقدار	-6.680041e-05
-3.878018	مقدم	0.02474426
-4.093618	مقررات	0.02493299
-4.394648	مقیم	0.009254112
-3.035626	ملت	0.1529404
-4.310327	ملکی	0.0425791
-3.241923	ملی	0.1545492
-4.461595	ممد	0.0261769
-3.148079	مملکت	0.1436114
-4.364685	مملکته	0.0569065
-4.142836	ممنوع	0.04197805
-4.160565	ممنون	0.03796605
-4.035626	ممکن	0.05378853
-3.701927	ممکنه	0.04195959
-2.434925	من	0.1226533
-4.063655	منابع	0.04571232
-4.364685	مناسب	0.03887805
-4.461595	مناسبت	0.007918715
-4.394648	مناسبی	0.006543796
-3.960993	منافع	0.0628856
-3.748384	منبع	0.06289686
-2.838346	منتشر	-0.01883198
-3.527939	منتظر	0.03525899
-4.695678	منتظریم	0.04585073
-4.035626	منتقل	0.02246946
-4.285503	منجر	0.01052373
-4.198353	منطقه	0.05011139
-4.198353	منظور	0.03661798
-4.426833	منفی	0.01933192
-4.499383	منقضی	0.004213955
-3.769924	منم	0.07392287
-3.654285	منو	0.0458587
-4.364685	منکر	0.03549486
-4.109412	مهاجرت	0.05132871
-3.563052	مهدی	0.01099995
-3.984473	مهر	0.08277328
-3.859535	مهران	-0.005357893
-3.824773	مهرداد	0.041186
-4.142836	مهرمنش	0.05665985
-3.135942	مهم	0.1067684
-4.540776	مهمان	0.02285841
-4.637686	مهمتر	0.009710465
-4.336656	مهمترین	-0.0007747066
-3.654285	مهمه	0.111049
-3.938716	مهمی	0.06209137
-3.695678	مهندس	0.05010131
-4.336656	مهندسی	0.01912301
-4.426833	مو	0.04776815
-4.310327	مواجه	0.004421348
-4.364685	مواد	0.008083587
-3.833206	موارد	0.06375204
-4.198353	مواردی	0.03134345
-4.336656	موافق	0.02627434
-3.325932	موبایل	0.1673347
-4.540776	موبایلتون	0.005085803
-4.310327	موبایلی	0.06131387
-4.461595	موتور	0.007738715
-4.310327	موثر	0.05864769
-4.035626	موج	0.03478543
-4.049414	موجود	0.03746341
-3.972574	موجودی	0.06646506
-2.94749	مورد	0.09244311
-3.938716	موردش	0.03066364
-4.239746	موردی	0.04296119
-4.125803	موز	0.01579501
-4.310327	موسس	0.05449698
-4.499383	موسسات	0.002227174
-3.632291	موسسه	0.05273521
-4.022262	موسوی	0.07080965
-4.179048	موسی	0.008363884
-4.540776	موسیقی	0.03560496
-4.394648	موش	0.02712073
-4.461595	موشک	0.009695778
-3.015731	موضوع	0.1191891
-4.336656	موضوعات	0.01968784
-4.336656	موضوعی	0.04020855
-4.461595	موظف	0.01372355
-3.689518	موفق	0.04192188
-3.695678	موفقیت	0.09710011
-4.336656	موفقیتشون	0.01340456
-4.063655	موقت	0.08593086
-4.218557	موقع	0.03798723
-3.476318	مولوی	0.1261256
-4.540776	مومن	0.02571107
-4.285503	مونده	0.04814086
-4.078378	مکالمه	0.04799541
-4.262022	مکان	0.03387457
-4.218557	مکانیزم	0.02378959
-4.364685	مگر	0.02074465
-4.198353	مگه	0.01925057
-2.790268	می	-0.0322777
-3.273604	میاد	0.1296659
-4.262022	میارن	0.08389921
-4.310327	میاره	0.07118412
-3.984473	میان	0.06051561
-4.394648	میباشد	0.0388257
-4.364685	میبرن	0.0567376
-4.022262	میبره	0.06469087
-4.499383	میبنده	0.03574634
-4.394648	میبینم	0.04816217
-4.336656	میبینن	0.05507017
-4.364685	میبینه	0.03792062
-4.262022	میبینی	0.05703674
-3.523743	میبینید	0.1185905
-4.239746	میبینیم	0.08072062
-4.461595	میتواند	0.00620221
-3.927992	میتوانید	0.04949829
-4.310327	میتونم	0.02005042
-3.897323	میتونن	0.05732094
-3.350444	میتونه	0.08457957
-4.035626	میتونی	0.0289202
-3.177164	میتونید	0.07298885
-3.748384	میثم	0.02338671
-4.364685	میخرن	0.05779337
-3.695678	میخواد	0.07064835
-4.109412	میخوام	0.06629432
-4.198353	میخوان	0.03705335
-4.499383	میخواهید	0.02590238
-4.285503	میخوای	0.04973552
-4.035626	میخواید	0.01495681
-4.179048	میخورن	0.0788455
-4.109412	میخوره	0.06685077
-4.109412	میداد	0.08314536
-4.540776	میدادن	0.04994954
-4.310327	میداده	0.0586134
-4.426833	میداف	0.02383159
-3.695678	میدم	0.1131632
-3.47259	میدن	0.125948
-3.041089	میده	0.1417366
-3.938716	میدهد	0.08266443
-4.586534	میدهند	0.05185055
-3.972574	میدونم	0.05256722
-4.142836	میدونن	0.05569254
-3.626962	میدونه	0.09730464
-4.364685	میدونی	0.04995161
-3.996708	میدونید	0.08236127
-4.310327	میدونیم	0.04442879
-4.078378	میدی	0.04717384
-3.984473	میدید	0.06387477
-3.907308	میدیم	0.09143944
-4.426833	میذارم	0.03756459
-4.540776	میذارن	0.02993738
-4.461595	میذاره	0.0398467
-3.938716	میرسه	0.06305704
-4.461595	میرم	0.01746963
-3.927992	میرن	0.02226101
-3.665715	میره	0.1219698
-4.336656	میری	0.02726566
-4.426833	میرید	0.04893121
-4.461595	میریم	0.05679396
-4.394648	میز	0.002725449
-4.364685	میزاره	0.05275663
-3.777348	میزان	0.05065907
-4.198353	میزنم	0.03948468
-3.784901	میزنن	0.09799735
-3.606278	میزنه	0.1175789
-4.364685	میزنی	0.05797951
-4.461595	میزنید	0.05887569
-3.927992	میزنیم	0.08410505
-4.426833	میسازن	0.05154914
-4.540776	میسازه	0.05616143
-3.85058	میشد	0.09466045
-4.586534	میشده	0.03115211
-4.499383	میشم	0.0372108
-3.563052	میشن	0.1149772
-4.426833	میشناسید	0.01115191
-2.738687	میشه	0.1336925
-3.563052	میشود	0.09034403
-4.310327	میشوند	0.0471204
-4.198353	میشی	0.0491585
-4.239746	میشید	0.08401147
-4.394648	میفته	0.05295768
-4.218557	میفرمایند	0.07232063
-4.179048	میفروشن	0.06480592
-3.996708	میفروشه	0.0780113
-4.160565	میل	0.01873223
-3.708267	میلاد	0.04727917
-4.009297	میلی	0.0813079
-3.224806	میلیارد	0.06573276
-4.426833	میلیاردر	0.02117304
-3.927992	میلیاردها	-0.003313362
-3.677453	میلیاردی	0.0899229
-2.862258	میلیون	0.05754762
-3.897323	میلیونها	-0.003627374
-3.8165	میلیونی	0.107355
-4.285503	میمونه	0.05888495
-4.540776	میندازن	0.02858348
-4.499383	میندازه	0.04012997
-4.461595	مینویسم	0.06775731
-4.239746	میپردازیم	0.06699613
-4.426833	میچرخه	0.03789548
-3.734596	میکرد	0.1015904
-4.160565	میکردم	0.07276399
-3.897323	میکردن	0.08378571
-3.808382	میکرده	0.08276867
-4.586534	میکردی	0.01007055
-4.336656	میکردید	0.05080336
-4.540776	میکردیم	0.02925121
-4.364685	میکشه	0.03168758
-3.554004	میکند	0.09018404
-3.135942	میکنم	0.1298378
-2.887563	میکنن	0.1511003
-3.677453	میکنند	0.1101047
-2.72255	میکنه	0.1421196
-3.558505	میکنی	0.09886567
-3.315467	میکنید	0.1344564
-2.996708	میکنیم	0.1373322
-4.160565	میگذره	0.04606073
-4.499383	میگرده	0.02847622
-4.540776	میگرفته	0.03761509
-3.762625	میگم	0.09842926
-3.714701	میگن	0.07664349
-3.433566	میگه	0.1412084
-4.035626	میگی	0.04011451
-4.285503	میگید	0.03775815
-4.499383	میگیرم	0.06449588
-3.665715	میگیرن	0.07341158
-3.416924	میگیره	0.1103616
-4.125803	میگیری	0.06873306
-4.461595	میگیرید	0.01995129
-3.938716	میگیم	0.05772194
-3.784901	ن	0.03376835
-4.035626	نا	-0.003014519
-3.800413	نااگاه	0.1017479
-4.179048	نااگاهی	0.04036855
-4.239746	نابود	0.0224292
-4.461595	نابودی	0.003433431
-4.109412	ناجا	0.08440807
-4.426833	ناجی	0.004608092
-4.310327	ناحیه	0.006869676
-4.499383	ناخواسته	0.03871026
-4.364685	نادان	0.06617413
-4.461595	نادر	-0.0003918459
-4.394648	ناراحت	0.01479325
-4.540776	ناراضی	0.002507378
-4.239746	ناشناس	0.05783656
-3.972574	ناصر	0.0136068
-3.353255	ناظر	0.1122173
-4.218557	ناظمی	0.04872368
-4.285503	ناقابل	0.02010111
-4.394648	ناقص	0.02771375
-3.065105	نام	0.1098592
-4.540776	نامبرده	0.01749546
-4.586534	نامدار	0.03297564
-4.336656	نامشروع	0.07863859
-3.440406	نامه	0.1401092
-4.426833	نایب	-0.00141629
-4.364685	نباش	0.05453335
-3.887563	نباشه	0.07491389
-3.800413	نباشید	0.1162714
-3.708267	نباید	0.06055774
-3.576988	نبود	0.1220225
-4.394648	نبودن	0.02823316
-3.8165	نبوده	0.0731991
-4.336656	نت	0.02264382
-4.009297	نتایج	0.02248854
-4.586534	نتونسته	0.01006788
-4.239746	نتیجش	0.03685781
-3.379408	نتیجه	0.07339963
-4.049414	نجات	0.01214368
-3.949712	نحوه	-0.0006653497
-4.461595	نحوی	0.0184522
-4.142836	نخبه	0.0666345
-4.239746	نخستین	0.05624455
-3.984473	نخواهد	-0.001024547
-4.426833	نخواهند	0.001569941
-4.063655	نخورید	0.06889415
-4.364685	نداد	0.04870129
-4.239746	ندادن	0.0638461
-4.049414	نداده	0.06107118
-3.487698	ندارد	0.1106
-3.708267	ندارم	0.07643064
-3.519587	ندارن	0.1191581
-4.310327	ندارند	0.05436326
-2.910348	نداره	0.1282489
-4.262022	نداری	0.04242944
-3.878018	ندارید	0.07371784
-3.665715	نداریم	0.08434121
-4.049414	نداشت	0.09483176
-4.239746	نداشتن	0.06748005
-3.677453	نداشته	0.08103077
-4.426833	نده	0.02104545
-3.927992	ندید	0.08683616
-4.499383	ندیدم	0.02056862
-4.461595	ندیدن	0.02867455
-4.218557	ندیده	0.03699476
-4.262022	ندیدید	0.0173985
-4.426833	نرسیده	0.04310816
-4.499383	نرفته	0.02233488
-3.897323	نرم	0.03234704
-3.85058	نره	0.07281278
-4.499383	نریمان	-0.0007447615
-4.499383	نریمانی	0.01607471
-3.996708	نزدیک	0.05568034
-4.461595	نزن	0.0291777
-4.262022	نسب	0.07712759
-3.648681	نسبت	0.002496823
-3.336656	نسخه	0.05138439
-4.461595	نسل	0.03795187
-3.581735	نشان	0.04707786
-4.426833	نشانه	0.005191219
-4.540776	نشانی	0.0377459
-3.868678	نشت	0.03825792
-3.495453	نشد	0.1159446
-4.109412	نشدن	0.03982257
-3.212396	نشده	0.1217332
-4.218557	نشر	0.0001061092
-4.310327	نشست	0.02705924
-4.499383	نشستن	0.02869614
-4.310327	نشسته	0.04550264
-3.907308	نشه	0.05971755
-3.447354	نشون	0.01678077
-4.394648	نشید	0.05285519
-3.312889	نصب	0.07683876
-4.218557	نصف	0.005645188
-3.527939	نظارت	0.05668408
-3.762625	نظارتی	0.08477264
-3.621698	نظام	0.0708853
-4.586534	نظامی	0.01768306
-3.018332	نظر	0.06527522
-4.239746	نظرات	0.01990034
-4.179048	نظرتون	0.02227511
-4.142836	نظرسنجی	0.03591312
-4.426833	نظرش	0.009037966
-4.022262	نظرم	0.04409982
-4.239746	نظری	0.02177843
-4.499383	نظریه	0.00369402
-3.149841	نفر	0.131565
-4.426833	نفره	0.02292677
-4.022262	نفری	0.05561716
-4.179048	نفع	0.04768596
-3.808382	نفوذ	0.08244183
-4.063655	نقد	0.07105845
-4.540776	نقدی	0.01310823
-4.364685	نقره	0.0001718325
-3.701927	نقش	0.03386896
-4.310327	نقشه	0.0391918
-4.461595	نقض	0.005345941
-4.022262	نقطه	0.02660276
-4.022262	نقل	0.02476189
-4.093618	نماد	0.03853657
-4.499383	نماید	0.04782603
-3.887563	نمایش	0.0282127
-4.637686	نمایشنامه	0.01448738
-4.426833	نمایشگاه	0.0161565
-4.218557	نمایند	0.07070672
-3.353255	نماینده	0.0473626
-4.364685	نمایندگان	-0.00122875
-4.049414	نمایندگی	0.05525978
-4.540776	نمایید	0.03709677
-4.461595	نمود	0.0654479
-4.364685	نموده	0.02066843
-3.266618	نمونه	0.1163179
-3.714701	نمی	-0.003883955
-3.927992	نمیاد	0.06701735
-4.540776	نمیبینن	0.02999512
-4.394648	نمیبینه	0.04912718
-4.310327	نمیبینید	0.06381229
-4.179048	نمیتونم	0.01781835
-4.394648	نمیتونن	0.01231639
-3.824773	نمیتونه	0.06099145
-4.426833	نمیتونی	0.01923143
-4.109412	نمیخواد	0.04666441
-4.394648	نمیخوام	0.01818238
-4.461595	نمیخوره	0.0377836
-4.179048	نمیدن	0.07313158
-3.878018	نمیده	0.08168147
-4.586534	نمیدهد	0.03603164
-3.51547	نمیدونم	0.1011678
-4.063655	نمیدونن	0.04677041
-3.808382	نمیدونه	0.0703171
-4.426833	نمیدونی	0.01866276
-4.009297	نمیدونید	0.05616053
-4.364685	نمیدونیم	0.03666461
-3.927992	نمیرسه	0.06329745
-4.179048	نمیره	0.03517162
-4.310327	نمیشد	0.05069236
-4.426833	نمیشن	0.06682883
-4.586534	نمیشناسه	0.02301588
-3.342119	نمیشه	0.1366181
-4.336656	نمیشود	0.05456628
-4.394648	نمیکرد	0.02943971
-4.364685	نمیکند	0.03464656
-4.125803	نمیکنم	0.0479073
-3.841806	نمیکنن	0.08270898
-3.491558	نمیکنه	0.1151439
-4.022262	نمیکنید	0.08800333
-4.198353	نمیگه	0.05298045
-4.461595	نمیگیرن	0.04171335
-4.285503	نمیگیره	0.03738447
-4.426833	ننگ	0.0351432
-4.394648	ننگین	0.01533025
-2.794921	نه	0.1423825
-3.621698	نهاد	0.0809038
-4.179048	نهادهای	0.01520106
-3.792588	نهایت	0.07718639
-4.022262	نهایی	0.08731695
-4.310327	نو	0.01098843
-4.179048	نوبت	0.02538205
-4.540776	نوبیتکس	0.02365839
-4.310327	نوتی	0.07526875
-4.364685	نور	0.002240023
-4.239746	نوروزی	0.06646514
-4.461595	نوش	-0.000523111
-4.009297	نوشت	0.07808255
-4.142836	نوشتم	0.0805858
-4.078378	نوشتن	0.1051428
-3.527939	نوشته	0.1348978
-4.285503	نوشتیم	0.06365121
-3.695678	نوع	0.02853492
-3.878018	نون	0.01324145
-4.160565	نویس	0.03519136
-4.426833	نویسنده	0.02825395
-4.426833	نویسی	0.02272414
-3.748384	نوین	0.05558277
-3.762625	نژاد	0.09583753
-4.394648	نکات	-0.00114208
-3.769924	نکته	0.03242442
-4.035626	نکرد	0.06717943
-4.179048	نکردم	0.09575588
-3.960993	نکردن	0.08093157
-3.554004	نکرده	0.1102186
-4.239746	نکردید	0.05758127
-4.109412	نکن	0.08228849
-4.364685	نکنن	0.06078289
-4.540776	نکنند	0.03865677
-3.960993	نکنه	0.07510737
-4.499383	نکنی	0.01131373
-3.33395	نکنید	0.1246557
-4.198353	نکنیم	0.07960483
-4.461595	نگار	0.01709559
-3.8165	نگاه	0.02658194
-4.461595	نگاهی	0.009846963
-3.601257	نگران	0.05882708
-4.179048	نگرانی	0.0414352
-4.364685	نگرفته	0.05670755
-4.394648	نگفت	0.01606493
-4.336656	نگه	0.001203898
-4.262022	نگهداری	0.03653352
-4.262022	نگید	0.04400613
-4.310327	نیا	0.02141006
-4.364685	نیاد	0.05674694
-3.626962	نیاز	0.05722385
-3.878018	نیازی	0.01474616
-4.285503	نیرو	0.029001
-4.540776	نیروهای	0.005698543
-4.022262	نیروی	-0.0003686487
-3.572293	نیز	0.07595598
-2.527939	نیست	0.12084
-3.996708	نیستم	0.07275597
-3.878018	نیستن	0.07970762
-4.336656	نیستند	0.05937357
-4.364685	نیستی	0.03920372
-4.179048	نیستید	0.06409576
-4.218557	نیستیم	0.07017379
-4.218557	نیم	0.02727697
-4.239746	نیما	0.008532332
-4.499383	نیمه	0.01102737
-4.540776	نیوز	0.02996287
-4.499383	نیومده	0.06716933
-4.142836	نیویورک	0.06295711
-4.461595	نیک	0.01703432
-4.426833	نیکی	0.0003368093
-3.388488	ه	0.1245306
-2.238445	ها	0.1092698
-4.049414	هاب	0.05320068
-4.461595	هاتون	0.02661848
-3.800413	هادی	0.007481608
-3.611357	هاست	0.1113623
-3.755446	هاش	0.1201663
-4.336656	هاشمی	0.05999935
-4.499383	هاشو	0.02222526
-4.239746	هاشون	0.04200193
-3.591386	هاوس	0.08120697
-2.009297	های	-0.04990968
-3.129156	هایی	0.04823177
-4.093618	هدایت	0.01501348
-4.364685	هدر	-0.001365206
-3.336656	هدف	0.06947115
-4.426833	هدفش	0.01952403
-4.310327	هدفی	0.06282398
-4.239746	هدیه	0.04843683
-2.653722	هر	-0.02794794
-3.339379	هرمی	0.1354827
-4.063655	هرچند	0.01708705
-4.426833	هرچه	0.008796221
-3.859535	هرچی	0.07366178
-4.461595	هرکی	0.0238985
-3.897323	هرگونه	-0.0009392639
-2.878018	هزار	0.01235899
-3.507352	هزاران	-0.005339397
-4.540776	هزارتا	0.02530728
-3.278325	هزینه	0.07603271
-3.339379	هست	0.118099
-3.755446	هستم	0.09376463
-3.621698	هستن	0.1003209
-3.0017	هستند	0.1529424
-4.109412	هستی	0.04990694
-3.416924	هستید	0.1137451
-3.461595	هستیم	0.1121346
-4.239746	هش	0.06402838
-4.461595	هشت	0.01870704
-4.540776	هشتصد	-0.001087414
-3.450871	هشتگ	0.04872409
-2.974928	هشدار	0.09368349
-4.426833	هفت	-0.0005790947
-3.683444	هفته	0.04233002
-4.310327	هلدینگ	0.02331688
-2.103501	هم	0.0743105
-4.198353	همان	0.0103413
-4.461595	همانطور	0.008912937
-4.426833	هماهنگ	0.004119805
-4.218557	هماهنگی	0.08805114
-3.833206	همایش	0.05499924
-4.160565	همت	0.02404189
-4.426833	همتون	0.03648412
-3.917527	همتی	0.07268276
-4.394648	همدست	0.04281022
-4.540776	همدستی	0.01507331
-3.063655	همراه	0.09166446
-4.540776	همراهی	0.0258789
-3.440406	همزمان	0.1250553
-4.540776	همسرش	0.01888277
-3.808382	همش	0.07534587
-4.109412	همشون	0.05182083
-4.461595	هممون	0.01712824
-2.577933	همه	0.06795237
-4.310327	هموطن	0.002692084
-4.364685	هموطنان	0.01676727
-3.127476	همون	0.04870274
-4.160565	همونطور	0.007543281
-4.499383	همونقدر	0.01810436
-3.259743	همچنان	0.07097275
-3.532176	همچنین	0.06620175
-3.654285	همچون	0.02440243
-3.701927	همچین	0.0177923
-4.426833	همکار	0.03155881
-4.499383	همکاران	0.000886766
-3.465229	همکاری	0.1194168
-3.596293	همکنون	0.08204184
-4.586534	همگی	0.02268185
-4.239746	همیار	-0.001523789
-3.38544	همیشه	0.07833286
-4.310327	همیشگی	0.03250901
-2.764075	همین	0.07636545
-3.996708	همینجا	0.06086687
-4.125803	همینقدر	0.01059259
-4.093618	همینه	0.05445827
-4.198353	هنر	0.08536781
-2.950826	هنوز	0.08553869
-4.461595	هنگام	0.0002969046
-4.022262	هوا	0.04958442
-4.179048	هوش	0.02747266
-3.8165	هوشمند	0.08817571
-4.461595	هولدینگ	0.02094164
-3.305248	هویت	0.1353432
-3.632291	هویتی	0.0944562
-3.192471	هک	0.1052397
-3.430186	هکر	0.1129541
-4.218557	هکرها	0.06306928
-4.336656	هکرهای	-0.0006627755
-4.394648	هی	0.01007804
-4.142836	هیئت	-0.002131735
-3.996708	هیات	-0.003296536
-4.540776	هیج	-0.001061809
-2.749085	هیچ	-0.004428424
-3.748384	هیچی	0.06743693
-1.394338	و	-0.2048276
-4.078378	وابسته	0.02561221
-4.179048	واحد	0.04430671
-3.581735	وارد	0.0274931
-4.364685	واردات	0.02945493
-3.762625	واریز	0.05546577
-4.426833	واریزی	0.02545824
-4.394648	واسط	0.01807208
-3.984473	واسطه	0.04782183
-4.394648	واسه	0.002675627
-4.262022	واضح	0.05064103
-4.426833	واضحه	0.06703119
-4.093618	واقع	0.02306839
-3.450871	واقعا	0.05157757
-3.621698	واقعی	0.125672
-4.009297	واقعیت	0.02529847
-4.063655	وان	0.05306375
-4.035626	واژه	0.02795341
-3.938716	واکنش	0.01645181
-4.426833	واگذار	0.02219625
-4.540776	وایت	0.00209489
-4.586534	وایزلینگ	0.03967675
-2.563052	وب	-0.03028389
-3.708267	وبسایت	0.0623127
-4.394648	وثیقه	0.02733842
-4.499383	وجدان	0.02045566
-4.262022	وجه	0.02672767
-3.127476	وجود	0.02233987
-4.160565	وجودی	0.008092262
-4.394648	وجوه	0.01019964
-4.499383	وجیهی	0.04829151
-3.897323	وحید	0.00240416
-4.461595	ور	0.01686411
-4.461595	ورد	-0.000421713
-4.336656	ورزشی	0.04633775
-4.540776	ورق	-0.001287202
-3.601257	ورود	0.07540648
-4.540776	ورودی	0.03516643
-3.059333	وزارت	0.009723625
-2.983269	وزیر	0.124721
-3.887563	وس	0.06798588
-3.572293	وسط	0.06385564
-4.179048	وصل	0.008550704
-4.540776	وصله	0.02164934
-4.540776	وصول	0.02598995
-3.792588	وضع	0.03167542
-3.586534	وضعیت	0.02902378
-4.310327	وضوح	0.03003655
-4.586534	وطن	0.0006883385
-4.540776	وظایف	0.01751283
-3.748384	وظیفه	0.04723551
-3.734596	وعده	0.05400015
-4.540776	وقاحت	0.03170848
-3.069484	وقت	0.1095775
-4.336656	وقتشه	0.0128725
-3.093618	وقتی	0.1126967
-4.394648	وقوع	0.03794551
-3.996708	ول	0.004218363
-4.540776	ولت	0.0243249
-2.558053	ولی	0.07312352
-4.586534	وهوشی	0.03971281
-4.461595	ووچر	0.00219898
-3.708267	وکیل	0.08448358
-3.972574	وگرنه	0.04118086
-3.457991	وی	0.05976959
-2.946383	ویدیو	0.1325587
-4.586534	ویدیویی	0.02849864
-4.540776	ویرایش	0.02143736
-3.762625	ویروس	0.06554367
-3.762625	ویس	0.06395998
-4.262022	ویسپی	0.06777095
-4.426833	ویندوز	0.01676323
-3.727863	ویژه	0.09705828
-3.637686	٪	0.07851583
-4.285503	٫	0.0200802
-3.792588	پ	-0.006258411
-4.160565	پا	0.007768278
-4.426833	پارس	-0.000928595
-3.859535	پارسا	0.0838104
-4.499383	پارسال	0.03081766
-4.285503	پارسیان	0.03860665
-4.461595	پاره	0.00534678
-4.239746	پاسارگاد	0.072482
-3.454416	پاسخ	0.0552882
-4.009297	پاسخگو	0.01407315
-4.426833	پاسخگویی	0.03213213
-4.336656	پاسپورت	0.04065499
-4.540776	پاش	0.04198316
-4.078378	پامپ	0.02554116
-3.255219	پانزی	0.1315232
-4.394648	پاچه	0.0002881189
-3.769924	پاک	0.02302294
-3.907308	پای	0.03059189
-4.285503	پایا	0.01693613
-3.665715	پایان	0.04965647
-4.179048	پایه	0.01086356
-4.262022	پایگاه	0.01988446
-3.734596	پایین	0.06279317
-3.342119	پخش	0.06683921
-4.364685	پدافند	-0.0007801731
-3.648681	پدر	0.05394674
-4.586534	پدرش	0.01160549
-4.426833	پذیر	0.02421893
-4.310327	پذیرش	0.00295296
-4.035626	پذیرنده	0.06668311
-4.160565	پذیری	0.04302143
-3.487698	پر	0.03296152
-4.364685	پراکسی	0.03501682
-2.759021	پرداخت	0.1532047
-4.394648	پرداختش	0.04038668
-4.239746	پرداخته	0.05336159
-4.426833	پرداختی	0.02848701
-4.160565	پرداز	0.01985481
-4.461595	پردازان	0.007973853
-4.394648	پردازش	0.009096863
-3.727863	پرده	0.0751813
-4.540776	پرزنت	0.02781128
-4.394648	پرسش	0.02950849
-4.218557	پرسید	0.0605906
-4.586534	پرسیده	0.04114047
-4.540776	پرشین	0.01742961
-3.659962	پرهام	0.0818117
-4.336656	پروانه	0.0100011
-3.984473	پروفایل	0.05458271
-3.824773	پروفسور	0.05853674
-4.336656	پرومو	0.04019107
-4.461595	پروموت	0.003525584
-3.036985	پرونده	0.1298953
-3.056476	پروژه	0.08426543
-4.461595	پز	0.02073765
-4.336656	پزشکی	0.04266984
-2.849694	پس	0.04720125
-3.30778	پست	0.1070337
-3.540776	پسر	0.06997502
-4.461595	پسرش	0.05295396
-3.984473	پسورد	0.0374671
-3.373459	پشت	0.06331786
-4.461595	پشتش	0.01908086
-4.364685	پشتوانه	0.04012695
-4.142836	پشتیبانی	0.03307759
-4.540776	پلاک	0.02492602
-3.960993	پلتفرم	0.05912879
-4.461595	پلمب	0.002516996
-4.499383	پلنگی	0.03117173
-2.951944	پلیس	0.06633557
-3.8165	پلیسی	0.03955045
-4.179048	پناهنده	0.03531089
-4.198353	پناهندگی	0.05068579
-4.142836	پنج	0.04446349
-4.461595	پنجم	0.02525823
-4.586534	پندار	0.005252983
-4.262022	پنل	0.02922475
-3.949712	پنهان	0.01498747
-4.142836	پهن	0.00817316
-3.637686	پور	0.08265853
-4.160565	پورن	0.03966726
-4.336656	پوز	0.01793033
-4.336656	پوست	0.02819375
-3.927992	پوشش	0.03734801
-4.499383	پوششی	0.0229362
-4.394648	پوشه	0.0443232
-2.681037	پول	0.1332995
-3.907308	پولای	0.01168906
-4.262022	پولتون	0.04577746
-4.063655	پولدار	0.001861851
-4.586534	پولش	0.03184449
-4.394648	پولشو	0.01540969
-4.218557	پولشون	0.04115857
-3.364685	پولشویی	0.1255736
-4.262022	پوله	0.06498624
-4.426833	پولها	0.004969548
-4.009297	پولهای	0.002710396
-3.576988	پولی	0.07330188
-4.394648	پوچ	0.04307581
-3.949712	پویا	0.09825051
-4.125803	پویان	0.01530448
-4.461595	پویش	-0.001191216
-3.996708	پکیج	0.01364197
-3.391557	پی	0.08365487
-4.461595	پیاده	0.002583482
-3.264314	پیام	0.06244173
-4.336656	پیامرسان	0.04199066
-3.433566	پیامک	0.09621774
-3.960993	پیامکی	0.09802818
-3.532176	پیج	0.08341192
-4.499383	پیجش	0.01745018
-3.222713	پیدا	0.008695355
-4.394648	پیداش	0.002481346
-4.285503	پیرو	0.01750163
-3.011859	پیش	0.1338347
-4.125803	پیشبینی	0.0538761
-4.009297	پیشتر	0.04943792
-4.336656	پیشرفت	0.0292368
-4.239746	پیشفرض	0.04686911
-3.800413	پیشنهاد	0.03690952
-4.426833	پیشنهادی	0.0196119
-4.285503	پیشگیری	0.05106634
-4.336656	پینوکیو	0.02379233
-4.637686	پیپر	0.01009141
-4.285503	پیچیده	0.003677595
-3.927992	پیگیر	0.02677468
-3.433566	پیگیری	0.08124892
-4.540776	چارخونه	0.02067599
-4.239746	چالش	0.03117508
-4.586534	چاپ	0.02196188
-3.949712	چت	0.05004397
-4.336656	چخبر	0.04077759
-3.878018	چخبره	0.0561137
-2.678645	چرا	0.1278045
-4.499383	چرند	0.0002537698
-4.461595	چرندیات	0.03703381
-3.949712	چشم	0.04465564
-3.287923	چطور	0.08748866
-3.689518	چطوری	0.08531904
-3.196384	چقدر	0.06457195
-3.038349	چند	0.01884001
-3.917527	چندین	0.002434879
-4.179048	چنین	0.001435662
-2.735955	چه	0.06495088
-3.907308	چهار	0.01579871
-4.461595	چهارم	0.04522363
-4.239746	چهره	0.03109031
-4.364685	چوب	0.02329795
-3.02358	چون	0.1409052
-4.461595	چپ	0.04508618
-3.917527	چک	0.01373138
-3.741436	چکار	0.001402068
-4.336656	چکاره	0.004446749
-3.824773	چگونه	0.05905765
-4.540776	چگونگی	-0.0003665946
-3.002957	چی	0.1179005
-3.833206	چیز	0.02356008
-4.285503	چیزا	0.01574142
-4.426833	چیزایی	0.02915409
-3.192471	چیزی	0.09088252
-3.572293	چیست	0.07687651
-4.009297	چین	0.0898658
-4.218557	چینی	0.04403845
-3.271263	چیه	0.1215138
-4.461595	ژل	0.01695708
-4.394648	ژن	0.004475339
-4.364685	ک	0.004368828
-4.695678	کاج	0.02829175
-3.972574	کادوس	0.01844947
-2.726528	کار	0.1735661
-4.125803	کارا	0.02715881
-3.984473	کارافرین	0.05329221
-4.239746	کارافرینی	0.05068547
-4.461595	کارای	-1.782504e-05
-3.361799	کاربر	0.1312509
-3.376423	کاربران	0.1240779
-4.461595	کاربرانش	0.02525063
-4.586534	کاربردی	0.01005193
-3.878018	کاربری	0.04586718
-2.951944	کارت	0.1148077
-3.887563	کارتل	0.02350901
-3.808382	کارش	0.042586
-3.677453	کارشناس	0.07437231
-4.109412	کارشناسان	0.028387
-4.239746	کارشناسی	0.03764576
-4.426833	کارشو	0.02651807
-4.049414	کارشون	0.03485685
-4.063655	کارمند	0.06427162
-4.364685	کارمندان	0.04791522
-4.198353	کارنامه	0.009650793
-4.394648	کاره	0.0297855
-4.310327	کارها	0.06194606
-3.85058	کارهای	0.0105128
-4.637686	کارهایی	0.0105593
-4.179048	کارو	0.007904121
-4.394648	کارگروه	0.000658527
-3.271263	کاری	0.1213718
-4.364685	کارینا	0.02614651
-4.586534	کاریه	0.01045006
-4.394648	کازینو	0.03847891
-4.540776	کازینوی	-0.0008538608
-4.540776	کاسب	0.03693537
-4.160565	کاسبی	0.03735923
-3.8165	کاش	0.0432707
-3.984473	کاشانی	0.06837199
-4.239746	کاشف	0.0894934
-4.179048	کاظمی	0.0691772
-4.586534	کاغذ	0.03523368
-3.616497	کافه	-0.009200515
-3.792588	کافی	0.04438601
-3.938716	کافیه	0.06061647
-4.336656	کالا	0.06535006
-4.540776	کالای	-0.0007509685
-4.285503	کالج	0.02626348
-3.51547	کامل	0.1101425
-4.035626	کاملا	0.0173892
-3.927992	کامنت	0.04214628
-4.285503	کامپیوتر	0.04580058
-4.285503	کامیابان	-0.001920197
-3.897323	کانادا	0.09476006
-2.70572	کانال	0.1315938
-4.239746	کانالش	0.04502184
-4.540776	کانالی	0.02127524
-4.285503	کاهش	0.01110201
-4.198353	کاوه	-0.002080024
-4.394648	کت	0.02321672
-3.897323	کتاب	0.06889508
-4.461595	کتک	-0.001255315
-3.734596	کثافت	0.0135013
-3.755446	کثیف	0.08193884
-4.695678	کثیفی	0.009937773
-3.601257	کجا	0.06182511
-3.868678	کجاست	0.06268229
-4.499383	کجان	0.01967213
-4.499383	کجای	0.008333857
-4.540776	کجایی	0.02128547
-3.443866	کد	0.08886272
-4.426833	کدام	0.009291896
-4.125803	کدملی	0.08334252
-4.262022	کدهای	0.007250148
-3.777348	کدوم	0.04700713
-4.285503	کذب	0.04860287
-4.499383	کربلایی	0.03740774
-2.685863	کرد	0.1342219
-3.262022	کردم	0.1314791
-2.638773	کردن	0.1516794
-3.654285	کردند	0.08172064
-2.520415	کرده	0.1313425
-3.643149	کردی	0.1115826
-4.499383	کردیت	0.01059094
-3.487698	کردید	0.1193753
-3.210362	کردیم	0.1366432
-4.109412	کرمی	0.05082403
-4.310327	کره	-0.0003376802
-4.078378	کرونا	0.0538565
-4.035626	کریمی	0.01635899
-4.336656	کریپتو	0.04854373
-4.022262	کریپتولند	0.07195105
-3.567648	کس	0.06462945
-3.741436	کسانی	0.05435552
-3.057903	کسب	0.01986035
-4.262022	کسر	0.002434812
-3.034271	کسی	0.08323638
-4.218557	کش	0.03766374
-4.093618	کشف	0.02855435
-2.537747	کشور	0.1648459
-3.824773	کشوره	0.1036402
-4.285503	کشورهای	0.009348252
-3.611357	کشوری	0.04274547
-4.109412	کشی	0.04373148
-4.540776	کشید	0.0360673
-4.218557	کشیدن	0.06268977
-4.285503	کشیده	0.03361621
-4.142836	کف	0.01697946
-3.436972	کل	0.03409787
-3.734596	کلا	0.07938766
-3.536455	کلاب	-0.005464169
-3.8165	کلاس	0.05819217
-4.394648	کلان	0.0427535
-3.777348	کلاه	0.01386077
-2.640409	کلاهبردار	0.1295626
-4.586534	کلاهبردارا	0.01791939
-3.36759	کلاهبرداران	0.1088754
-3.833206	کلاهبردارن	0.1066664
-4.125803	کلاهبرداره	0.07623181
-3.683444	کلاهبردارها	0.09580103
-4.262022	کلاهبردارهای	0.0169761
-2.524579	کلاهبرداری	0.108717
-4.540776	کلاهبرداریش	0.03269149
-4.078378	کلاهبرداریه	0.05873281
-4.364685	کلفت	0.03326153
-4.499383	کلمه	0.008826636
-4.461595	کلود	0.02026195
-3.960993	کلی	0.02315167
-4.009297	کلید	0.01430326
-4.540776	کلیدی	0.01308638
-4.461595	کلیه	0.001993276
-3.949712	کلیپ	0.0882594
-4.336656	کلیک	0.03386917
-3.483871	کم	0.06331451
-4.426833	کمال	-0.001251215
-4.035626	کمالیان	0.05843077
-4.142836	کمتر	0.01332751
-4.499383	کمپانی	0.004014503
-3.996708	کمپین	0.03856824
-3.273604	کمک	0.08713351
-4.310327	کمکی	0.04858689
-3.917527	کمی	0.03042115
-4.160565	کمیته	-0.002460079
-3.949712	کمیسیون	0.007085517
-3.190528	کن	0.1392936
-4.022262	کنار	0.03760056
-3.859535	کنترل	0.04750637
-3.410442	کند	0.1073433
-3.841806	کنفرانس	0.04493723
-3.252974	کنم	0.1300895
-3.196384	کنن	0.1274039
-3.447354	کنند	0.1174773
-3.413671	کننده	0.1129921
-4.142836	کنندگان	0.03284788
-2.832355	کنه	0.1398884
-4.499383	کنون	0.02180259
-4.364685	کنکور	0.03766121
-3.426833	کنی	0.09982984
-2.382414	کنید	0.08399567
-3.139375	کنیم	0.1296006
-1.630632	که	-0.161548
-3.792588	کوتاه	0.1046688
-4.336656	کوتاهی	0.0352332
-3.683444	کودک	0.04383216
-4.142836	کودکان	0.04388922
-4.499383	کوفت	0.02653174
-4.364685	کوچه	0.03751544
-4.336656	کوچک	0.03802652
-4.540776	کوچیک	0.03814923
-3.24631	کوین	0.1242847
-3.859535	کپی	0.01546816
-4.218557	کک	0.04926655
-3.491558	کی	0.06364818
-4.540776	کیا	0.01512489
-4.142836	کیان	0.01845733
-4.586534	کیس	-0.0002480043
-3.695678	کیست	0.07396998
-3.762625	کیش	0.1183084
-4.022262	کیف	0.001408732
-4.239746	کیفیت	0.03202987
-4.179048	کینگ	-0.00267401
-3.601257	کیه	0.1002936
-4.285503	گاز	0.01401453
-4.364685	گام	0.03185017
-4.499383	گاهی	0.01912313
-3.996708	گذار	0.04947357
-4.179048	گذاران	0.04113417
-3.285504	گذاری	0.1201342
-4.540776	گذاشت	0.01724205
-4.540776	گذاشتم	0.04526744
-3.972574	گذاشتن	0.08231669
-3.8165	گذاشته	0.06597874
-4.109412	گذشت	0.04520469
-3.591386	گذشته	0.09141146
-4.310327	گرامی	0.05946642
-4.499383	گران	0.02539195
-4.125803	گرداب	0.05460707
-3.689518	گرداننده	0.05427336
-3.800413	گردانندگان	0.03937315
-4.336656	گردش	0.01018432
-3.833206	گردن	0.03788244
-4.364685	گردید	0.06485401
-3.495453	گرفت	0.1310775
-4.125803	گرفتم	0.04881527
-3.344876	گرفتن	0.1216011
-4.540776	گرفتند	0.03362798
-3.17342	گرفته	0.1330638
-4.336656	گرفتیم	0.04919972
-3.85058	گرم	0.04686788
-3.098296	گروه	0.1261934
-4.364685	گروهک	0.01788397
-3.972574	گروهی	0.06627887
-4.394648	گرگ	0.01557723
-4.426833	گری	0.04058785
-4.285503	گریه	0.003994464
-2.944179	گزارش	0.1334473
-4.109412	گزارشی	0.02199638
-4.218557	گزاری	0.02622909
-4.262022	گزینه	0.03117075
-4.142836	گستران	0.01773792
