
\data\
ngram 1=3789
ngram 2=118797

\1-grams:
-1.416237	</s>
-1.700919	<NUM>	-0.6674859
-1.962478	<UNK>35023
-3.762622	<URL>	-0.6781605
-4.310325	<USERNAME>	-0.6519823
-99	<s>	-0.2841871
-4.239744	B	-0.6544519
-4.540773	BMW	-0.2821264
-3.938714	BRG	-0.3374638
-4.499381	Blackhat	-1.070447
-4.160563	C	-0.4031964
-4.637683	Coinbase	-0.2765074
-4.26202	DDOS	-0.2572017
-4.540773	Day	-1.032658
-4.364682	DefconDay	-1.195386
-4.499381	E	-0.7694005
-4.285501	FBI	-0.2950997
-4.42683	FVdpmEhKJDVzeSXyTADE	-1.137394
-4.499381	GDPR	-0.3089256
-4.841804	Google
-4.42683	Hj	-1.137394
-4.285501	ICT	-0.4940707
-4.586531	IR	-0.3384674
-4.336654	Jcoin	-0.492763
-4.637683	NIUTM	-0.3131402
-4.42683	NXZ	-1.137394
-4.063653	PSP	-0.455644
-4.364682	SSL	-0.2962673
-5.239744	TeleDR	-0.2808251
-4.078375	USSD	-0.3127515
-4.364682	VAS	-0.2775238
-4.10941	a	-1.053112
-4.540773	address
-4.364682	and	-0.4771
-4.285501	anonymous	-1.278731
-4.364682	b	-0.7691363
-4.02226	c	-0.6023309
-4.285501	co	-1.09696
-3.255216	com	-0.9900142
-4.285501	d	-1.270019
-4.02226	e	-1.522745
-4.218554	f	-1.292296
-4.285501	far	-1.261771
-4.540773	info	-0.7605321
-3.404053	ir	-1.323148
-4.540773	is	-0.4770875
-4.42683	k	-1.137394
-4.310325	net	-0.9602659
-4.461592	of	-0.3010137
-4.394646	org	-0.7360951
-4.239744	people	-1.278731
-4.285501	poll	-1.261771
-4.364682	rdwave	-0.9055362
-4.285501	so	-1.278731
-4.310325	telescam	-0.9775398
-4.42683	the
-4.540773	us	-0.6087663
-4.285501	voted	-1.278731
-4.461592	x	-0.6267668
-4.239744	xbet	-0.2693816
-4.461592	xyz	-0.681455
-4.239744	ا	-0.3752508
-3.878016	اب	-0.3332877
-4.461592	اباد	-0.2716979
-3.938714	ابادی	-0.3497713
-4.160563	ابان	-0.4155169
-4.1258	ابتدا	-0.252345
-4.540773	ابتدای	-0.4241067
-4.42683	ابتدایی	-0.4875734
-4.499381	ابراهیم	-0.5227862
-4.499381	ابراهیمی	-0.2615855
-4.499381	ابرو	-0.3023533
-4.285501	ابروی	-0.3178841
-4.26202	ابزار	-0.3057146
-4.540773	ابزاری	-0.3430453
-4.586531	ابلاغ	-0.3928073
-4.179046	ابوذر	-1.078195
-4.093616	ابی	-0.3425588
-4.02226	اتاق	-0.3301248
-3.96099	اتحادیه	-0.6214426
-3.984471	اتفاق	-0.3854972
-3.996706	اتفاقا	-0.2721345
-4.637683	اتفاقات	-0.2920316
-3.897321	اتفاقی	-0.3216945
-3.938714	اتهام	-0.321891
-4.364682	اتی	-0.3249978
-4.394646	اتیه	-0.6527209
-4.093616	اثبات	-0.2932381
-4.586531	اثری	-0.5014773
-3.72123	اجاره	-0.5678216
-3.611355	اجازه	-0.3726849
-3.784899	اجباری	-0.3005794
-3.65996	اجتماعی	-0.2854303
-3.996706	اجرا	-0.3699419
-3.777346	اجرای	-0.4397112
-3.601254	اجرایی	-0.4736738
-3.859532	احترام	-0.4384515
-4.26202	احتشامی	-0.2659136
-4.1258	احتمال	-0.3692934
-3.665712	احتمالا	-0.3038029
-4.364682	احتمالی	-0.3020806
-4.035624	احراز	-1.048823
-4.499381	احساس	-0.2996462
-4.42683	احسان	-0.3630528
-4.586531	احقاق	-0.6530074
-3.748382	احمد	-0.7334793
-3.777346	احمدی	-0.5241675
-4.26202	احمق	-0.2768607
-4.063653	اخبار	-0.3268304
-4.049412	اختراع	-0.2851948
-4.586531	اختصاص	-0.3942636
-4.198351	اختصاصی	-0.2860185
-4.26202	اختلال	-0.3658228
-3.572291	اختیار	-0.4148081
-4.26202	اخذ	-0.3858944
-3.92799	اخر	-0.281544
-3.792586	اخرین	-0.3952565
-4.26202	اخطار	-0.3427762
-4.239744	اخلاق	-0.314095
-4.218554	اخلاقی	-0.2847043
-4.310325	اخلال	-0.8146805
-3.683441	اخه	-0.3106476
-4.637683	اخوند	-0.2995985
-3.907305	اخیر	-0.3082664
-4.938714	اخیرا	-0.2899485
-3.777346	اداره	-0.4078702
-4.461592	اداری	-0.3082286
-4.336654	ادام	-0.4776878
-3.246307	ادامه	-0.4257173
-4.42683	ادب	-0.3100081
-3.22902	ادرس	-0.4796935
-3.80838	ادعا	-0.3650255
-4.637683	ادعاهای	-0.2987887
-3.554002	ادعای	-0.3352719
-4.285501	ادعایی	-0.3604543
-3.35893	ادم	-0.2680313
-4.26202	ادما	-0.3208202
-4.049412	ادمای	-0.2993529
-4.336654	ادمایی	-0.6097885
-4.1258	ادمین	-0.3555391
-3.984471	ادیب	-1.278679
-4.762622	اذر	-0.4572542
-3.586531	اذری	-1.95406
-4.310325	ار	-0.4964944
-4.637683	ارا	-0.2730715
-3.43697	ارائه	-0.3156622
-4.310325	اراجیف	-0.253303
-4.540773	اراذل	-0.2892052
-3.576986	ارایه	-0.4115247
-3.554002	ارتباط	-0.3624072
-3.476315	ارتباطات	-0.4440641
-4.461592	ارتباطش	-0.6856188
-4.078375	ارتباطی	-0.4781125
-4.035624	ارتزاق	-0.5784434
-4.364682	ارتش	-0.3848755
-4.160563	اردیبهشت	-0.5062454
-3.536452	ارز	-0.4624925
-2.637684	ارزش	-0.8520526
-4.695675	ارزشش	-0.3179229
-4.336654	ارزشی	-0.3289689
-4.461592	ارزهای	-0.8123567
-4.461592	ارزی	-0.259368
-3.082892	ارسال	-0.6012097
-4.336654	ارسالی	-0.2888941
-4.42683	ارش	-0.4121813
-4.198351	ارشاد	-0.3341126
-4.285501	ارشد	-0.3165744
-3.938714	ارشیو	-0.3765334
-4.637683	ارقام	-0.3463182
-4.499381	ارمان	-0.522516
-4.461592	ارمندهی	-0.3014972
-3.701925	ارمین	-0.8329251
-4.637683	ارند	-0.3908885
-4.285501	اره	-0.3548147
-4.142834	ارون	-0.287372
-3.96099	اروپا	-0.3072646
-3.62696	اریا	-0.47155
-1.656545	از	-0.5105498
-3.643147	ازاد	-0.3695034
-4.42683	ازادی	-0.3352877
-4.586531	ازار	-0.3095806
-3.82477	ازاری	-0.3377365
-4.499381	ازای	-0.3997005
-4.42683	ازاین	-0.3363902
-4.586531	ازت	-0.3300156
-4.499381	ازتون	-0.3335596
-3.536452	ازش	-0.3301731
-3.972572	ازشون	-0.3542525
-4.26202	ازمایی	-0.3714057
-4.093616	ازمون	-0.404534
-3.689515	اس	-0.5534139
-3.20033	اساس	-0.3337572
-4.499381	اساسی	-0.2703133
-3.878016	اسامی	-0.3537875
-4.42683	اسان	-0.4777725
-2.144051	است	-0.5033505
-3.689515	استاد	-0.3677125
-4.063653	استارتاپ	-0.3000269
-4.26202	استارتاپی	-0.3592016
-4.461592	استارس	-0.2420916
-3.868676	استان	-0.497197
-4.179046	استانبول	-0.2657186
-4.02226	استخدام	-0.3175461
-4.049412	استخراج	-0.4500168
-4.218554	استراحت	-0.3710244
-4.26202	استرداد	-0.3548074
-4.218554	استریم	-0.3861299
-4.540773	استعداد	-0.3141026
-4.310325	استعفا	-0.4248968
-3.949709	استعلام	-0.3372456
-2.851465	استفاده	-0.6435935
-4.540773	استناد	-0.3154922
-4.695675	استور	-0.2677804
-4.218554	استوری	-0.3019425
-3.328586	استوی	-0.355211
-4.239744	اسرائیل	-0.2810815
-4.142834	اسفند	-0.5244173
-3.984471	اسلام	-0.3367039
-3.307777	اسلامی	-0.3323927
-2.81242	اسم	-0.3563772
-4.42683	اسماعیل	-0.3693196
-4.42683	اسماعیلی	-0.2465747
-3.683441	اسمش	-0.3101977
-4.42683	اسمشو	-0.2883615
-4.394646	اسمشون	-0.3319213
-4.461592	اسمی	-0.426917
-3.701925	اسناد	-0.3226649
-4.540773	اسنادی	-0.3652717
-3.972572	اسپانسر	-0.2987096
-4.26202	اسپانیا	-0.2973527
-4.198351	اسکرین	-1.342395
-4.540773	اسکریپت	-0.2661928
-4.637683	اسکم	-0.2900441
-4.586531	اسیا	-0.2458969
-4.762622	اسیاتک	-0.2655883
-4.42683	اسیایی	-0.843506
-4.02226	اسیب	-0.6662771
-4.179046	اش	-0.3054645
-3.616494	اشاره	-0.7933329
-3.65996	اشتباه	-0.2883675
-4.637683	اشتباهی	-0.3178714
-4.239744	اشتباهید	-0.3140886
-4.035624	اشتراک	-0.3642321
-4.394646	اشتهاردی	-0.3143724
-4.540773	اشخاص	-0.4762714
-4.1258	اشغال	-0.3059391
-3.695676	اشنا	-0.5310267
-4.461592	اشنایانتوت	-1.103658
-4.336654	اشنایی	-0.5507565
-4.142834	اشکار	-0.2862742
-4.42683	اشیانه	-0.2813637
-4.1258	اصفهان	-0.2666803
-3.816498	اصل	-0.3575376
-3.32329	اصلا	-0.2641371
-4.10941	اصلاح	-0.3207135
-3.391554	اصلی	-0.2697708
-4.586531	اصلیش	-0.2546031
-3.72123	اضافه	-0.5276361
-3.107804	اطلاع	-0.737749
-2.573225	اطلاعات	-0.4181068
-4.26202	اطلاعاتتون	-0.7335324
-4.461592	اطلاعاتش	-0.2936991
-4.394646	اطلاعاتشون	-0.3764679
-4.540773	اطلاعاته	-0.2751065
-3.621696	اطلاعاتی	-0.4041044
-4.198351	اطلاعی	-0.4609235
-3.897321	اطلاعیه	-0.3589942
-4.310325	اطمینان	-0.4180216
-4.336654	اظهار	-0.6203352
-3.586531	اعتبار	-0.3761695
-4.499381	اعتبارسنجی	-0.3145631
-4.10941	اعتباری	-0.3680317
-4.198351	اعتراض	-0.3848357
-4.394646	اعتراف	-0.4241222
-3.56305	اعتماد	-0.428466
-4.364682	اعدام	-0.3396814
-4.42683	اعضا	-0.3190236
-3.572291	اعضای	-0.4572405
-4.499381	اعطا	-0.4058053
-4.42683	اعطای	-0.4080324
-3.239743	اعلام	-0.5031991
-4.499381	اعلان	-0.6364431
-4.637683	اعم	-0.9445581
-4.218554	اعمال	-0.3557656
-3.792586	اغاز	-0.5261673
-4.394646	اغفال	-0.3829691
-4.035624	اف	-0.4383286
-4.1258	افتا	-0.3108308
-4.26202	افتاد	-0.2702903
-4.285501	افتادن	-0.2997297
-3.878016	افتاده	-0.3197687
-3.841804	افتخار	-0.2975418
-4.637683	افتخارات	-0.2753032
-4.461592	افتخاری	-0.3433829
-4.499381	افتضاح	-0.2586814
-3.22271	افراد	-0.2870333
-3.373456	افرادی	-0.7487948
-4.394646	افرین	-0.3059454
-3.654283	افزار	-0.3167843
-4.42683	افزاری	-0.248439
-3.755444	افزایش	-0.3884166
-4.540773	افزود	-0.3003501
-2.71147	افزوده	-0.3098809
-4.540773	افسر	-0.3584276
-4.093616	افشا	-0.5243404
-4.461592	افشانی	-0.311995
-4.586531	افشاگری	-0.2927802
-4.063653	افشای	-0.5472349
-4.310325	افغانستان	-0.289124
-4.540773	افکار	-0.7776271
-3.56305	اقا	-0.2813096
-4.499381	اقازاده	-0.3044498
-4.499381	اقامت	-0.4047913
-3.938714	اقامیری	-0.2460584
-2.666292	اقای	-0.7698466
-3.527936	اقایان	-0.2624835
-4.093616	اقایون	-0.284281
-4.02226	اقتصاد	-0.4236706
-3.701925	اقتصادی	-0.3315352
-3.350442	اقدام	-0.6077452
-4.310325	اقدامات	-0.3592231
-4.364682	اقدامی	-0.3429317
-4.42683	اقدمی	-0.2930244
-4.540773	ال	-0.2887901
-4.637683	الاسلام	-0.3519274
-3.1258	الان	-0.2793078
-2.90933	البته	-0.2340074
-4.394646	البرز	-0.2987368
-4.42683	التحصیل	-0.5000489
-4.310325	الدین	-0.6280487
-3.748382	الله	-0.3766989
-3.859532	المال	-0.3608831
-3.833203	المان	-0.2683455
-4.310325	الملل	-0.3433333
-4.093616	المللی	-0.3101089
-4.364682	الناس	-0.2868904
-4.42683	اله	-0.4000939
-3.480076	الوده	-0.533927
-4.637683	الودگی	-0.2667642
-3.708265	الکترونیک	-0.5100111
-3.984471	الکترونیکی	-0.3310876
-4.461592	الگوی	-0.3670944
-3.50735	ام	-0.3459782
-3.43697	اما	-0.3180656
-4.179046	اماده	-0.3067371
-4.394646	امادگی	-0.2995874
-4.1258	امار	-0.2990042
-3.80838	امام	-0.3232952
-4.336654	امامی	-0.2913128
-3.972572	امثال	-0.3178463
-4.586531	امد	-0.2850241
-4.179046	امده	-0.3869236
-2.815679	امروز	-0.2296794
-3.104611	امریکا	-0.2515573
-4.364682	امریکاست	-0.2970537
-3.897321	امریکایی	-0.3067203
-4.42683	امسال	-0.2679747
-3.35893	امشب	-0.5265239
-4.142834	امضا	-0.3562978
-4.540773	امضای	-0.298888
-4.394646	املاک	-0.4675619
-3.841804	امن	-0.3168922
-3.175286	امنیت	-0.4101035
-3.447352	امنیتی	-0.281284
-3.887561	امور	-0.6094247
-2.753313	اموز	-0.3578079
-3.572291	اموزش	-0.279093
-3.897321	اموزشی	-0.3175712
-4.499381	اموزه	-0.2664682
-3.80838	امکان	-0.3627557
-4.10941	امکانات	-0.288448
-4.239744	امیتیس	-0.3069471
-3.586531	امید	-0.3875307
-4.540773	امیدوار	-0.4737663
-3.841804	امیدوارم	-0.3132715
-3.984471	امیدواریم	-0.3685005
-4.198351	امیدی	-0.4751894
-3.397759	امیر	-0.6909413
-4.42683	امیرحسین	-0.3708157
-3.92799	امیرشقاقی	-0.3338116
-4.540773	امیری	-0.3044079
-3.4202	امین	-1.045693
-2.947488	ان	-0.3013524
-4.540773	انالیز	-0.4127103
-3.769922	انتخاب	-0.294123
-4.160563	انتخابات	-0.312075
-3.312887	انتشار	-0.3802608
-4.310325	انتظار	-0.3321067
-4.142834	انتظامی	-0.3331285
-4.364682	انتقاد	-0.4161667
-4.160563	انتقال	-0.3189501
-3.897321	انتها	-0.3202822
-4.499381	انتهای	-0.293261
-4.035624	انتی	-1.17596
-4.42683	انجا	-0.3647226
-3.350442	انجام	-0.4901317
-3.734594	انجمن	-0.389046
-4.499381	انجیدنی	-0.3042237
-4.198351	انحصار	-0.3644492
-4.160563	انحصاری	-0.3403214
-3.443864	اند	-0.3351333
-4.540773	انداخت	-0.2787006
-4.009295	انداختن	-0.3164879
-4.160563	انداخته	-0.3263011
-4.1258	اندازه	-0.4366281
-3.491555	اندازی	-0.435416
-4.364682	اندروید	-0.3003266
-4.009295	انرژی	-0.3069216
-3.984471	انزلی	-0.2940079
-4.218554	انسان	-0.4048306
-3.430184	انشالله	-0.3324915
-4.499381	انصاف	-0.2980429
-4.364682	انصافا	-0.324821
-3.868676	انقلاب	-0.4339511
-3.984471	انقلابی	-0.3229378
-3.49545	انلاین	-0.2371981
-3.388485	انها	-0.3492265
-4.499381	انواع	-0.2993602
-4.160563	انچه	-0.4957766
-3.996706	انکار	-0.3611152
-4.142834	انگار	-0.2990445
-4.586531	انگشت	-0.2923524
-4.02226	انگل	-0.4760493
-4.499381	انگلستان	-0.2894897
-3.777346	انگلیس	-0.3136564
-3.984471	انگلیسی	-0.3122942
-4.461592	انگیز	-0.2578813
-4.540773	اه	-0.3679406
-4.10941	اهداف	-0.2912357
-4.336654	اهمیت	-0.3207378
-4.42683	اهمیتی	-0.4874393
-3.454414	او	-0.3177496
-4.637683	اوائی	-0.3205371
-4.26202	اوج	-0.3011756
-4.26202	اور	-0.4856383
-4.239744	اورد	-0.3055933
-4.218554	اوردن	-0.2857466
-4.049412	اورده	-0.3450605
-4.540773	اوردی	-0.293182
-3.92799	اوری	-0.3781361
-2.990545	اول	-0.2439924
-3.407235	اولین	-0.4655965
-4.310325	اولیه	-0.2863503
-4.049412	اومد	-0.2781979
-4.198351	اومدن	-0.2775635
-3.887561	اومده	-0.3253677
-4.586531	اومدی	-0.3861727
-4.637683	اومدید	-0.3291986
-2.787957	اون	-0.287723
-3.938714	اونا	-0.7481831
-4.394646	اونام	-0.3370245
-4.063653	اونایی	-0.9155194
-3.792586	اونجا	-0.2758572
-4.586531	اونجاست	-0.7126788
-3.907305	اونقدر	-0.2960494
-3.637684	اونم	-0.3467177
-3.784899	اونها	-0.281722
-4.310325	اونو	-0.294553
-4.218554	اونور	-0.2858118
-4.42683	اونی	-0.715599
-4.586531	اویژه	-0.2768447
-3.008019	اپ	-0.3945009
-4.540773	اپا	-0.3338989
-3.80838	اپارات	-0.3381082
-4.540773	اپدیت	-0.2994555
-3.480076	اپراتور	-0.4131363
-3.92799	اپراتورها	-0.30984
-4.336654	اپراتورهای	-0.4105789
-4.695675	اپل	-0.2666261
-3.762622	اپلیکیشن	-0.3661619
-4.336654	اپهای	-0.3753223
-4.499381	اپی	-0.3985832
-4.540773	اکادمی	-0.2771724
-4.637683	اکاذیب	-0.3399664
-3.897321	اکانت	-0.3675008
-3.748382	اکبر	-0.5591791
-4.26202	اکثر	-0.4463612
-3.714699	اکسچنج	-0.3349072
-4.42683	اکنون	-0.2885838
-4.461592	اکوسیستم	-0.5678536
-4.078375	اگاه	-0.2733966
-4.02226	اگاهی	-0.3696493
-2.53005	اگر	-0.3649959
-4.198351	اگریگیتور	-0.3236402
-4.586531	اگریگیتوری	-0.3314033
-4.049412	اگه	-0.336184
-4.035624	اگهی	-0.3829139
-2.575102	ای	-0.3666813
-3.214438	ایا	-0.3054787
-4.42683	ایت	-0.8450043
-4.364682	ایتا	-0.2354786
-3.643147	ایجاد	-0.358768
-4.035624	اید	-0.2847171
-4.1258	ایده	-0.4308668
-4.394646	ایدی	-0.4206145
-3.996706	ایراد	-0.3334168
-4.540773	ایرادی	-0.3827588
-2.489621	ایران	-0.3038607
-3.503347	ایرانسل	-0.3311193
-3.938714	ایرانه	-0.3469348
-3.115892	ایرانی	-0.2864002
-4.218554	ایرانیان	-0.3747702
-4.499381	ایرنیک	-0.2788269
-4.586531	ایستاده	-0.350998
-4.009295	ایشان	-0.3317839
-2.939801	ایشون	-0.2885253
-4.364682	ایشونه	-0.3111499
-4.218554	ایم	-0.3364872
-4.160563	ایمان	-0.3517227
-3.465227	ایمیل	-0.3316968
-1.702996	این	-0.5286555
-3.004215	اینا	-0.2404538
-3.734594	اینارو	-0.2725639
-4.394646	اینام	-0.2766106
-3.917524	اینبار	-0.4104432
-3.13594	اینترنت	-0.3540781
-3.833203	اینترنتی	-0.270317
-2.720572	اینجا	-0.3699112
-3.868676	اینجاست	-0.6184802
-4.586531	اینجاییم	-0.3519567
-3.558502	اینجوری	-0.2523772
-4.499381	اینحد	-0.2880384
-3.558502	اینده	-0.2493436
-4.540773	اینروزا	-0.279094
-4.540773	اینستا	-0.3148864
-3.144574	اینستاگرام	-0.2847987
-4.499381	اینستاگرامش	-0.4521222
-4.499381	اینستاگرامی	-0.3017355
-3.315464	اینقدر	-0.3066618
-3.41044	اینم	-0.3544214
-3.397759	اینماد	-0.2838807
-3.004215	اینه	-0.7480713
-3.601254	اینها	-0.3005414
-3.841804	اینهمه	-0.3847912
-3.407235	اینو	-0.3118807
-4.078375	اینور	-0.4278468
-3.996706	اینکارو	-0.5109251
-2.809185	اینکه	-0.3403377
-4.310325	اینگونه	-0.3260803
-4.540773	ایه	-0.3102445
-3.96099	ایوب	-0.71037
-1.819375	با	-0.5204087
-3.734594	بابا	-0.2767881
-4.461592	باباش	-0.2555746
-4.078375	بابایی	-0.3260816
-3.499381	بابت	-0.3339548
-3.96099	بابک	-0.5016895
-3.50735	بات	-0.5044686
-3.461592	باج	-0.5815704
-3.841804	باخته	-0.430096
-4.540773	باختگان	-0.3025146
-4.336654	باد	-0.3597366
-3.777346	بادران	-0.3345909
-4.364682	بادرود	-0.2363008
-3.32329	بار	-0.2389015
-4.540773	باربد	-0.2912241
-4.586531	بارز	-0.3162063
-3.65996	بارها	-0.4797825
-3.112639	باز	-0.4740292
-3.32593	بازار	-0.2439591
-4.1258	بازاریابی	-0.4920491
-4.499381	بازخواست	-0.3134289
-3.233278	بازداشت	-0.44098
-3.701925	بازدید	-0.3076049
-4.42683	بازرسی	-0.3377831
-4.179046	بازرگانی	-0.3643063
-3.949709	بازم	-0.3134972
-3.850578	بازنشر	-0.4567048
-4.285501	بازه	-0.4227639
-4.394646	بازوی	-0.3765765
-3.984471	بازپرس	-0.4695679
-4.586531	بازگرداندن	-0.3169982
-4.10941	بازگشت	-0.3285304
-3.182839	بازی	-0.3053124
-3.984471	باش	-0.2987636
-3.491555	باشد	-0.3139897
-4.10941	باشم	-0.3209797
-3.558502	باشن	-0.3252749
-4.160563	باشند	-0.3626864
-2.899299	باشه	-0.3515971
-4.063653	باشگاه	-0.5043072
-3.92799	باشی	-0.3027215
-3.1411	باشید	-0.4533443
-3.938714	باشیم	-0.3512369
-4.586531	باطل	-0.3007365
-3.887561	باعث	-0.3527164
-3.996706	باغبانیان	-0.3513542
-4.394646	باقر	-0.2918708
-4.637683	باقی	-0.3407629
-4.461592	بال	-0.5159615
-3.112639	بالا	-0.2791496
-4.310325	بالاتر	-0.2814395
-4.364682	بالاست	-0.2483303
-4.310325	بالای	-0.3852909
-4.499381	بالایی	-0.3565236
-4.540773	بامزه	-0.3512068
-4.239744	باند	-0.3027373
-2.863167	بانک	-0.6711481
-2.834056	بانکی	-0.3585545
-3.708265	باهاش	-0.3603062
-4.26202	باهاشون	-0.4904681
-3.447352	باور	-0.7294402
-4.637683	باورتون	-0.4134591
-4.540773	باورش	-0.5388607
-3.80838	باگ	-0.3433288
-2.62065	باید	-0.3533644
-4.336654	ببخشید	-0.3113117
-4.394646	ببره	-0.3239642
-4.26202	ببرید	-0.4055296
-3.059331	ببنید	-0.4290574
-4.218554	ببنیم	-0.2956111
-3.576986	ببین	-0.3196576
-3.996706	ببینم	-0.3653038
-4.310325	ببینن	-0.2947743
-4.02226	ببینه	-0.2749913
-3.283095	ببینید	-0.4361669
-3.62696	ببینیم	-0.2874725
-3.887561	بت	-0.3054239
-4.1258	بتونه	-0.2722553
-3.972572	بحث	-0.2710953
-4.285501	بحران	-0.4412954
-4.586531	بخاطر	-0.2918184
-4.1258	بخت	-0.6071013
-4.499381	بختیاری	-0.2796591
-4.499381	بخرید	-0.3850732
-3.093616	بخش	-0.3542861
-4.160563	بخشنامه	-0.4862005
-3.268932	بخشی	-1.206577
-4.364682	بخصوص	-0.2906364
-4.586531	بخواد	-0.3083741
-4.364682	بخوانید	-0.4185408
-4.499381	بخوره	-0.2607262
-4.499381	بخون	-0.3749999
-4.586531	بخونه	-0.3213411
-3.220627	بخونید	-0.6325985
-4.540773	بخیر	-0.2809542
-3.616494	بد	-0.4456014
-3.32329	بدافزار	-0.3184433
-4.461592	بدافزارها	-0.2833044
-4.218554	بدافزارهای	-0.425302
-3.816498	بدبخت	-0.3082172
-3.972572	بدبختی	-0.3543183
-4.499381	بدتر	-0.3098767
-4.42683	بدترین	-0.3484447
-4.586531	بدرد	-0.2992057
-4.078375	بدست	-0.497522
-3.72123	بدم	-0.2640127
-3.611355	بدن	-0.309612
-4.239744	بدنه	-0.3986237
-3.120818	بده	-0.3106549
-4.26202	بدهی	-0.3631607
-4.499381	بدهید	-0.4760593
-4.461592	بدو	-0.3492208
-3.10941	بدون	-0.5013393
-4.035624	بدونن	-0.3105649
-4.310325	بدونه	-0.2464432
-3.430184	بدونید	-0.3296898
-4.285501	بدونیم	-0.2790512
-3.769922	بدی	-0.230062
-3.235422	بدید	-0.3368476
-4.093616	بدیم	-0.2387944
-4.42683	بدین	-0.3091652
-4.394646	بدیهی	-0.8717441
-4.394646	بذار	-0.3433141
-4.695675	بذارن	-0.2708002
-4.394646	بذاره	-0.2705266
-3.949709	بذارید	-0.3174475
-3.708265	بذرپاش	-0.3178801
-2.727193	بر	-0.7021739
-4.035624	برا	-0.3896617
-3.423502	برابر	-0.3757325
-4.049412	برات	-0.2746005
-3.714699	براتون	-0.3153447
-3.637684	برادر	-0.4816344
-4.540773	برادران	-0.344039
-4.1258	براساس	-0.33145
-3.632288	براش	-0.2992058
-3.777346	براشون	-0.3213781
-4.02226	برام	-0.3270499
-4.035624	برامون	-0.2770621
-4.336654	براورد	-0.3409715
-2.171372	برای	-0.4528758
-4.198351	برتر	-0.3033763
-4.42683	برخلاف	-0.4767022
-3.026226	برخورد	-0.6147255
-4.499381	برخوردی	-0.5369623
-3.300224	برخی	-0.6003942
-4.142834	برد	-0.3481974
-4.499381	بردار	-0.282281
-4.394646	برداری	-0.2954226
-3.996706	برداشت	-0.3572574
-4.364682	برداشته	-0.2975694
-4.049412	بردن	-0.3255756
-4.285501	برده	-0.283793
-2.648679	بررسی	-0.4602823
-3.816498	برسه	-0.2716363
-4.394646	برسونید	-0.2946907
-4.035624	برطرف	-0.5665255
-4.540773	برعلیه	-0.337149
-4.009295	برق	-0.3327648
-4.26202	برم	-0.3235136
-4.499381	برمیگرده	-0.5154129
-4.1258	برن	-0.2557802
-3.129154	برنامه	-0.3810966
-4.009295	برنده	-0.3439852
-3.654283	بره	-0.2870271
-4.499381	برهان	-0.5704305
-3.868676	برو	-0.2901195
-3.841804	بروز	-0.6104308
-4.218554	بروزرسانی	-0.3131556
-4.42683	برگ	-0.421448
-4.586531	برگرده	-0.2759855
-4.336654	برگردیم	-1.165329
-4.499381	برگرفته	-1.069497
-4.078375	برگزار	-0.502448
-4.160563	برگزاری	-0.4502371
-4.310325	برگشت	-0.425624
-4.198351	بری	-0.2593378
-3.621696	برید	-0.3459216
-4.160563	بریدن	-0.4453673
-4.586531	بریده	-0.2756692
-3.762622	بریم	-0.4193203
-4.239744	بزارید	-0.2633455
-3.50735	بزرگ	-0.2473898
-3.72786	بزرگترین	-0.3859889
-4.009295	بزرگی	-0.3778773
-4.285501	بزن	-0.3017859
-4.364682	بزنم	-0.2949429
-4.218554	بزنن	-0.2967412
-3.734594	بزنه	-0.2741181
-4.239744	بزنی	-0.2668751
-3.591383	بزنید	-0.3412039
-4.198351	بزنیم	-0.2888308
-4.499381	بس	-0.6233652
-4.160563	بساط	-0.3389792
-4.42683	بست	-0.3581111
-3.549547	بستر	-0.3512211
-4.586531	بستری	-0.3427782
-4.078375	بستن	-0.2832905
-3.677451	بسته	-0.3294639
-3.72123	بسیار	-0.3378039
-3.82477	بسیاری	-0.8407196
-4.239744	بسیج	-0.3659708
-3.850578	بشن	-0.2883638
-4.142834	بشنوید	-0.4056801
-3.085929	بشه	-0.3139542
-4.239744	بشی	-0.3501009
-3.734594	بشید	-0.3361841
-4.540773	بشیم	-0.3015831
-4.394646	بصورت	-0.3407541
-3.035624	بعد	-0.408688
-3.887561	بعدا	-0.2969383
-4.540773	بعدش	-0.3754209
-3.868676	بعدی	-0.2277459
-4.586531	بعضا	-0.3161645
-4.364682	بعضی	-0.4807248
-4.218554	بعلاوه	-0.2458004
-4.540773	بغل	-0.341228
-4.540773	بفرست	-0.6229303
-3.972572	بفرستید	-0.331116
-4.364682	بفرمایید	-0.4045158
-4.540773	بقیش	-0.2828492
-3.273602	بقیه	-0.3039743
-3.708265	بلاخره	-0.2814393
-4.198351	بلافاصله	-0.3434788
-4.179046	بلاک	-0.4419265
-3.984471	بلاکچین	-0.3636876
-4.42683	بلد	-0.3946972
-4.586531	بلده	-0.3024449
-3.643147	بله	-0.2263874
-3.404053	بلکه	-0.2636612
-4.336654	بلیط	-0.5216728
-4.762622	بمونه	-0.262786
-4.42683	بمی	-0.2400016
-4.42683	بنا	-0.5376027
-4.063653	بنابراین	-0.2919978
-4.540773	بنام	-0.3002767
-4.336654	بند	-0.3039885
-4.586531	بندازن	-0.2565928
-4.499381	بندازه	-0.2663527
-3.741433	بنده	-0.3562918
-3.015729	بندی	-0.3041383
-4.637683	بندیه	-0.2783239
-4.762622	بنر	-0.2791887
-4.540773	بنویس	-0.3469948
-4.499381	بنویسم	-0.2892728
-4.394646	بنویسید	-0.3692521
-4.42683	بنگاه	-0.4357337
-3.748382	بنیاد	-0.6287336
-4.02226	بنیان	-0.3807738
-1.611252	به	-0.5694216
-3.984471	بهانه	-0.3200037
-4.009295	بهت	-0.2846218
-3.621696	بهتر	-0.376817
-4.02226	بهتره	-0.2765652
-4.461592	بهتری	-0.3128366
-3.897321	بهترین	-0.3945922
-3.868676	بهتون	-0.2932031
-4.160563	بهداشت	-0.298083
-4.336654	بهرام	-0.7683978
-4.198351	بهره	-0.4195209
-4.02226	بهروز	-0.9438505
-3.280702	بهش	-0.3157216
-4.540773	بهشت	-0.3102588
-3.949709	بهشتی	-0.3587582
-3.695676	بهشون	-0.255217
-3.972572	بهم	-0.3544032
-4.310325	بهمن	-0.5071231
-4.586531	بهینه	-0.5001794
-2.644799	بود	-0.3768325
-4.461592	بودجه	-0.3050691
-3.755444	بودم	-0.3724892
-3.198351	بودن	-0.3074454
-4.093616	بودند	-0.2644343
-4.586531	بودنش	-0.2922108
-2.84007	بوده	-0.4395381
-4.218554	بودی	-0.2534227
-4.093616	بودید	-0.2648185
-3.677451	بودیم	-0.3758405
-3.949709	بورس	-0.4121009
-4.586531	بومرنگ	-0.2732475
-3.897321	بومی	-0.2157894
-4.461592	بوک	-0.3084738
-4.461592	بوی	-0.319365
-4.336654	بپرس	-0.3219928
-4.586531	بپرسه	-0.3658549
-4.063653	بپرسید	-0.3654787
-3.264312	بچه	-0.5883352
-4.394646	بکار	-0.4378586
-4.586531	بکش	-0.5027177
-4.586531	بکشن	-0.2893402
-4.42683	بکشه	-0.3402033
-4.310325	بکشید	-0.2660564
-4.336654	بکن	-0.2945272
-4.499381	بکنن	-0.3498806
-3.972572	بکنه	-0.3056548
-4.035624	بکنید	-0.4040548
-3.72786	بگم	-0.304485
-4.198351	بگن	-0.2685885
-3.621696	بگه	-0.2956219
-3.868676	بگو	-0.2767727
-3.96099	بگی	-0.2599118
-3.62696	بگید	-0.2797928
-3.938714	بگیر	-0.3261736
-4.461592	بگیرد	-0.3602281
-4.461592	بگیرم	-0.32125
-3.907305	بگیرن	-0.3411328
-3.581732	بگیره	-0.3171256
-4.142834	بگیری	-0.3455959
-3.671542	بگیرید	-0.380292
-4.198351	بگیریم	-0.2515001
-4.160563	بگیم	-0.302581
-2.979672	بی	-0.6125591
-4.063653	بیا	-0.2574691
-3.769922	بیاد	-0.2863095
-4.499381	بیارن	-0.2982713
-4.364682	بیاره	-0.2921517
-4.364682	بیارید	-0.2613466
-3.92799	بیان	-0.3179022
-3.897321	بیانیه	-0.3506694
-3.621696	بیاید	-0.3783902
-3.601254	بیت	-1.118398
-3.527936	بیتکوین	-0.2851173
-4.637683	بیداد	-0.3140021
-3.850578	بیدار	-0.4170205
-3.850578	بیرون	-0.3173756
-4.10941	بیزنس	-0.3998188
-4.461592	بیستون	-0.2632559
-4.310325	بیسواد	-0.2861501
-4.586531	بیسوادی	-0.3771085
-3.008019	بیش	-1.914417
-3.237577	بیشتر	-0.3188573
-3.777346	بیشتری	-0.4002017
-3.784899	بیشترین	-0.3901967
-4.239744	بیفته	-0.3115373
-4.364682	بیلیون	-0.7752962
-4.218554	بیمسئولیت	-0.3517617
-4.198351	بیمسئولیتی	-0.3834
-3.72123	بیمه	-0.3963234
-3.310325	بین	-0.4154242
-4.10941	بینی	-0.3735127
-4.093616	بیچاره	-0.2695926
-4.364682	بیکار	-0.2795383
-2.485778	تا	-0.2843617
-4.637683	تاثیر	-0.2950932
-4.637683	تاخیر	-0.2906533
-3.361797	تاریخ	-0.370355
-4.540773	تاریخی	-0.2305287
-3.748382	تازه	-0.3655238
-3.769922	تاسف	-0.8485485
-4.009295	تاسیس	-0.3523742
-4.461592	تاشکایا	-0.3020118
-3.677451	تامین	-0.5635715
-4.364682	تان	-0.392873
-4.26202	تاکنون	-0.2830337
-3.800411	تاکید	-0.5343601
-3.220627	تایید	-0.4380677
-4.394646	تبادل	-0.6209234
-3.637684	تبدیل	-0.5308281
-3.850578	تبریک	-0.6573049
-2.878016	تبلیغ	-0.3522437
-3.092067	تبلیغات	-0.3215393
-3.540774	تبلیغاتی	-0.2964697
-4.310325	تتر	-0.3262401
-4.586531	تتلو	-0.2717415
-3.695676	تجارت	-0.5020317
-4.10941	تجاری	-0.2735787
-3.938714	تجربه	-0.2708133
-3.671542	تحت	-0.7006934
-3.92799	تحریم	-0.4573453
-4.364682	تحریک	-0.2960757
-4.093616	تحصیل	-0.5721892
-4.160563	تحصیلی	-0.2892492
-4.10941	تحقیق	-0.3011629
-4.160563	تحقیقات	-0.3708149
-4.035624	تحلیل	-0.3045412
-4.26202	تحمل	-0.3176371
-4.142834	تحویل	-0.3245479
-4.093616	تخریب	-0.3180224
-4.218554	تخصص	-0.2755613
-4.142834	تخصصی	-0.2922298
-4.285501	تخفیف	-0.3109494
-3.777346	تخلف	-0.2831154
-3.949709	تخلفات	-0.2767508
-4.637683	تدبیر	-0.3159761
-4.42683	تذکر	-0.4753811
-3.361797	تر	-0.4225022
-4.336654	ترابیان	-0.2596249
-4.179046	ترافیک	-0.3016718
-4.42683	ترامپ	-0.302563
-3.734594	تراکنش	-0.421366
-4.499381	تربیت	-0.3346067
-4.364682	ترجمه	-0.3190419
-4.364682	ترجیح	-0.3779649
-3.984471	ترفند	-0.3552886
-4.364682	تره	-0.235147
-4.285501	ترو	-0.9775335
-4.540773	تروخدا	-0.2876272
-4.586531	ترور	-0.3790652
-4.586531	ترویج	-0.3406261
-4.540773	ترکی	-0.3601384
-4.461592	ترکیب	-0.2903574
-3.127474	ترکیه	-0.2809231
-4.285501	تری	-0.3574038
-4.049412	تریبون	-0.2427702
-4.42683	ترید	-0.3359362
-3.364682	ترین	-0.3760701
-3.80838	تست	-0.4130434
-4.394646	تسنیم	-0.300734
-4.540773	تسویه	-0.3792214
-3.887561	تشخیص	-0.4593468
-3.96099	تشریف	-0.5521426
-3.632288	تشویق	-0.5218052
-3.266616	تشکر	-0.6451613
-3.917524	تشکیل	-0.3556963
-3.859532	تصاویر	-0.3011287
-3.695676	تصمیم	-0.4356249
-4.637683	تصمیمات	-0.296854
-3.96099	تصور	-0.5768967
-4.160563	تصویب	-0.2694406
-3.450868	تصویر	-0.2265249
-4.198351	تصویری	-0.5106376
-4.42683	تضمین	-0.3143535
-4.336654	تضمینی	-0.2854941
-4.078375	تعاون	-0.7267644
-4.063653	تعجب	-0.3103406
-3.72123	تعداد	-0.328473
-4.198351	تعرفه	-0.5226588
-3.984471	تعریف	-0.3859703
-4.336654	تعطیل	-0.3550622
-4.586531	تعطیلی	-0.3679151
-4.093616	تعقیب	-0.4499209
-4.394646	تعلیق	-0.4018236
-4.218554	تعیین	-0.5023466
-3.461592	تغییر	-0.4381237
-4.394646	تغییرات	-0.3243347
-4.540773	تغییری	-0.4060218
-4.540773	تفکیک	-0.370645
-4.637683	تقاضای	-0.2911026
-4.540773	تقدسی	-0.2670211
-4.239744	تقدیر	-0.3645391
-4.239744	تقدیم	-0.4629454
-3.596291	تقریبا	-0.4802521
-4.499381	تقسیم	-0.3394122
-4.26202	تقلب	-0.3916584
-4.637683	تقلبی	-0.2701092
-3.51139	تلاش	-0.4544863
-4.285501	تلخ	-0.2747649
-3.949709	تلسکم	-0.2974688
-3.972572	تلفن	-0.332166
-4.239744	تلفنی	-0.3093508
-4.310325	تلفیق	-0.9115133
-4.26202	تله	-0.8396401
-4.049412	تلویزیون	-0.2567525
-4.336654	تلویزیونی	-0.2668454
-3.046619	تلگرام	-0.340829
-3.897321	تلگرامی	-0.2957324
-3.2928	تماس	-0.4983671
-3.2928	تمام	-0.3292527
-3.708265	تمامی	-0.3928927
-4.239744	تموم	-0.4689199
-4.285501	تن	-0.4296073
-4.093616	تنظیم	-0.5226246
-3.142833	تنها	-0.3239943
-4.461592	تنهایی	-0.2868684
-4.26202	ته	-0.2981561
-3.683441	تهدید	-0.3750859
-3.35893	تهران	-0.2648523
-3.762622	تهش	-0.2761639
-4.02226	تهمت	-0.3566966
-3.734594	تهیه	-0.5216005
-2.979672	تو	-0.2678643
-4.063653	توان	-0.2875783
-4.179046	تواند	-0.3181659
-4.394646	توانید	-0.2769749
-3.107804	توجه	-0.7052249
-4.198351	توجهی	-0.3412888
-4.049412	توجیه	-0.3237398
-4.364682	توحید	-0.9030387
-2.834056	توسط	-0.4300374
-3.545138	توسعه	-0.5183076
-3.972572	توسکا	-0.3206016
-4.02226	توش	-0.2481124
-4.142834	توصیه	-0.399935
-3.045229	توضیح	-0.4970339
-3.654283	توضیحات	-0.2883867
-4.364682	توضیحاتی	-0.4832435
-4.364682	توضیحی	-0.3057534
-4.142834	توقع	-0.4059938
-4.035624	توقف	-0.3996641
-4.285501	توقیف	-0.3266006
-4.285501	تولد	-0.2694728
-3.483869	تولید	-0.4474319
-4.540773	تولیدی	-0.4356364
-2.997948	تومان	-0.3799181
-3.96099	تومانی	-0.233186
-3.677451	تومن	-0.3299962
-4.586531	تومنی	-0.3364252
-4.540773	تونسته	-0.2874337
-3.816498	توهین	-0.5025027
-3.476315	توکن	-0.3707885
-4.10941	توی	-0.2887836
-4.540773	تویتر	-0.2937994
-3.257472	توییت	-0.3536091
-3.20033	توییتر	-0.3147684
-4.179046	توییتری	-0.2463619
-4.637683	توییتی	-0.302668
-3.949709	تک	-0.3487683
-4.078375	تکذیب	-0.4105313
-4.42683	تکرار	-0.3526631
-4.499381	تکراری	-0.2671757
-4.035624	تکلیف	-0.2962269
-4.1258	تکمیل	-0.3636743
-3.996706	تکمیلی	-0.2873175
-4.142834	تکنولوژی	-0.2867287
-4.26202	تگ	-0.3801601
-3.92799	تی	-0.419156
-4.218554	تیر	-0.4488614
-3.949709	تیز	-0.3081261
-3.816498	تیغ	-0.9282144
-3.32329	تیم	-0.3109738
-4.336654	تیمش	-0.2436754
-4.049412	تیموری	-0.2665111
-4.586531	تیمی	-0.2814011
-4.198351	تیک	-0.8959892
-4.586531	تیکه	-0.2899382
-3.741433	ثابت	-0.2674192
-4.364682	ثامن	-0.2772838
-4.394646	ثانیه	-0.2754152
-2.943078	ثبت	-0.6810561
-4.42683	ثروت	-0.296775
-4.586531	ثنا	-0.3306316
-4.540773	ج	-0.6360187
-3.671542	جا	-0.3057505
-4.239744	جاسمی	-1.322189
-4.461592	جاسوس	-0.2731182
-4.179046	جاسوسی	-0.2629864
-4.586531	جاش	-0.3942308
-3.643147	جالب	-0.5109448
-3.769922	جالبه	-0.5976661
-4.310325	جالبی	-0.3724591
-4.142834	جام	-0.720708
-3.591383	جامعه	-0.2897478
-3.695676	جان	-0.2753271
-3.850578	جاویدنیا	-0.3736239
-3.300224	جای	-0.4427955
-3.72786	جایزه	-0.3492383
-4.26202	جایگاه	-0.278378
-4.586531	جایگزین	-0.2937209
-3.714699	جایی	-0.4054611
-4.285501	جبران	-0.3471169
-4.394646	جبهه	-0.3455925
-3.82477	جدا	-0.3057203
-4.364682	جداگانه	-0.2827202
-4.364682	جدول	-0.3671965
-3.433563	جدی	-0.2779882
-3.22902	جدید	-0.2691999
-4.063653	جدیدی	-0.405964
-4.586531	جذاب	-0.2936217
-3.42683	جذب	-0.4915363
-4.239744	جرائم	-0.5420693
-4.160563	جرات	-0.3265812
-3.344874	جرایم	-0.5657744
-4.637683	جرایمی	-0.4538603
-3.231143	جرجندی	-0.3661015
-3.433563	جرم	-0.2806758
-4.42683	جرمه	-0.3135771
-4.586531	جرمی	-0.3241186
-4.1258	جریان	-0.3150266
-3.996706	جریمه	-0.2432215
-3.480076	جز	-0.2786326
-4.499381	جزئیات	-0.3270617
-4.394646	جزایری	-0.2895027
-4.239744	جزو	-0.3197831
-4.310325	جزیات	-0.3380471
-3.784899	جستجو	-0.604096
-4.198351	جستجوی	-0.4250269
-4.364682	جشن	-0.3021555
-4.009295	جشنواره	-0.4012952
-4.1258	جعبه	-0.9654415
-4.063653	جعفر	-0.5972814
-4.310325	جعفری	-0.2565078
-4.049412	جعل	-0.454926
-2.941983	جعلی	-0.3277618
-4.695675	جعلیه	-0.4869212
-4.336654	جلالی	-0.3118354
-4.310325	جلب	-0.4014884
-3.708265	جلسه	-0.3384338
-4.142834	جلو	-0.2974668
-4.310325	جلوشو	-0.5436515
-4.336654	جلوه	-0.4429609
-4.239744	جلوگیری	-0.5201141
-3.43697	جلوی	-0.3732041
-4.461592	جم	-0.4733301
-4.586531	جماعت	-0.3141044
-3.280702	جمع	-0.5954372
-4.586531	جمعا	-0.5025121
-4.218554	جمعه	-0.3185789
-4.42683	جمعی	-1.069497
-4.035624	جمله	-0.2622811
-4.093616	جمهور	-0.3054575
-3.515468	جمهوری	-0.7924064
-3.447352	جناب	-0.7391158
-4.695675	جنجالی	-0.3372837
-4.364682	جنس	-0.3029835
-4.394646	جنسی	-0.3155734
-4.540773	جنوبی	-0.2790217
-4.142834	جنگ	-0.3508296
-3.938714	جهان	-0.4375626
-4.394646	جهانبخش	-0.3026437
-3.917524	جهانی	-0.2136929
-3.413669	جهت	-0.3888029
-3.376421	جهرمی	-0.2717052
-4.26202	جو	-0.3059125
-3.515468	جواب	-0.3512755
-4.218554	جوابش	-0.368123
-4.637683	جوابی	-0.2800411
-4.540773	جوابیه	-0.3877183
-3.519584	جواد	-0.8323827
-3.72786	جوان	-0.2562342
-4.239744	جوانان	-0.4011517
-4.695675	جوانی	-0.2971601
-4.310325	جوایز	-0.3718151
-4.42683	جور	-0.3112321
-4.42683	جوری	-0.4342128
-4.063653	جون	-0.4187439
-3.82477	جوون	-0.359045
-3.769922	جی	-0.6020908
-3.233278	جیب	-0.6103954
-4.499381	جیبش	-0.2754744
-3.897321	حاتمی	-0.3306412
-4.461592	حاج	-0.4331752
-4.42683	حاجی	-0.4327681
-4.26202	حادثه	-0.3019674
-3.972572	حاشیه	-0.4065645
-4.035624	حاصل	-0.386161
-4.035624	حاضر	-0.2992085
-3.984471	حافظی	-0.8925349
-3.049412	حال	-0.3310656
-2.901287	حالا	-0.4020789
-3.92799	حالت	-0.29119
-3.677451	حالی	-0.6470061
-4.239744	حامد	-0.5846375
-4.02226	حامی	-0.35424
-4.310325	حامیان	-0.3180133
-4.160563	حاوی	-0.3193474
-4.239744	حاکمیت	-0.2688741
-4.499381	حاکمیتی	-0.4039688
-4.179046	حبس	-0.4377929
-3.166025	حتما	-0.3078976
-2.814862	حتی	-0.3705945
-4.586531	حجاب	-0.3259099
-4.049412	حجت	-0.5861723
-3.572291	حجم	-0.4198541
-3.82477	حد	-0.4352294
-3.382411	حداقل	-0.3226605
-4.26202	حداکثر	-0.406828
-4.142834	حدس	-0.6986198
-4.239744	حدود	-0.7099376
-4.461592	حدی	-0.5590357
-3.120818	حذف	-0.5605564
-4.461592	حذفیات	-0.6807111
-4.499381	حراست	-0.3362848
-4.1258	حرام	-0.3795666
-3.42683	حرف	-0.5104671
-4.540773	حرفاش	-0.2850094
-4.310325	حرفای	-0.344271
-4.009295	حرفه	-1.253683
-4.461592	حرفی	-0.3552006
-4.499381	حروم	-0.3005934
-4.093616	حرکت	-0.2948522
-4.142834	حریم	-0.8290048
-4.310325	حس	-0.3491839
-3.0579	حساب	-0.4663505
-4.586531	حسابتون	-0.5754768
-4.218554	حسابی	-0.2933061
-4.461592	حساس	-0.3157727
-4.02226	حسام	-0.6748322
-3.748382	حسن	-0.3721348
-4.394646	حسنعلی	-1.176047
-4.179046	حسنی	-0.2985666
-3.611355	حسین	-0.3071728
-4.02226	حسینی	-0.4272568
-4.179046	حصین	-0.3429461
-4.336654	حضرت	-0.3877272
-3.616494	حضور	-0.4059636
-4.42683	حضوری	-0.2606891
-4.078375	حفاظت	-0.5608918
-4.218554	حفظ	-0.4427434
-3.601254	حق	-0.4226269
-3.654283	حقوق	-0.393697
-4.10941	حقوقی	-0.3126067
-4.499381	حقیقت	-0.2870283
-4.540773	حقیقی	-0.3524453
-3.878016	حل	-0.4085357
-4.198351	حلال	-0.3302035
-4.695675	حلاله	-0.2853395
-4.540773	حلقه	-0.3328364
-4.394646	حلقوم	-0.4252201
-3.202317	حمایت	-0.516645
-3.833203	حملات	-0.3652233
-3.576986	حمله	-0.3811941
-3.917524	حمید	-0.4743592
-4.394646	حمیدرضا	-0.301
-4.540773	حمیده	-1.04137
-4.394646	حوادث	-0.4246977
-4.637683	حواشی	-0.2640852
-3.632288	حوزه	-0.3686766
-4.637683	حوصله	-0.366391
-4.009295	حکم	-0.2893846
-4.540773	حکومت	-0.264341
-4.310325	حکومتی	-0.2403252
-4.461592	حیثیت	-0.3219406
-4.160563	حیف	-0.5388542
-3.179046	خارج	-0.7258161
-4.285501	خارجه	-0.2515215
-3.708265	خارجی	-0.2920224
-3.96099	خاص	-0.2680343
-4.218554	خاصی	-0.2999328
-4.310325	خاطر	-0.3298794
-4.461592	خاطره	-0.2943729
-4.499381	خالص	-0.3557939
-3.841804	خالی	-0.4137895
-4.336654	خام	-0.2681871
-4.540773	خاموش	-0.3865993
-3.540774	خانم	-0.3068229
-4.078375	خانه	-0.3659143
-3.741433	خانواده	-0.2700886
-4.310325	خانوادگی	-0.2731879
-4.540773	خاورمیانه	-0.2843579
-4.26202	خاک	-0.4963594
-4.394646	خاکستری	-0.2793674
-3.252972	خب	-0.2908338
-2.96099	خبر	-0.3921975
-4.499381	خبرفوری	-0.2796748
-3.762622	خبرنگار	-0.3006704
-4.1258	خبرنگاران	-0.5598983
-4.310325	خبرنگاری	-0.3890358
-4.540773	خبرها	-0.3099937
-4.049412	خبرهای	-0.3271951
-3.4202	خبرگزاری	-0.5775982
-3.567646	خبری	-0.2733782
-4.461592	خجالت	-0.2994769
-3.397759	خدا	-0.2484038
-3.665712	خداروشکر	-0.3318021
-4.336654	خدایی	-0.7776671
-3.22902	خدمات	-0.4455739
-4.42683	خدماتی	-0.2934811
-3.800411	خدمت	-0.3562782
-4.540773	خدمتتون	-0.3225018
-4.364682	خراب	-0.3273754
-3.92799	خرج	-0.3065589
-4.364682	خرداد	-0.4586079
-4.10941	خرم	-0.9997111
-3.850578	خروج	-0.5012281
-3.887561	خروجی	-0.3146133
-4.394646	خروجیش	-0.3542142
-3.310325	خرید	-0.3947096
-4.239744	خریدار	-0.2949215
-4.035624	خریداری	-0.6514127
-4.586531	خریدن	-0.2833642
-4.049412	خریده	-0.3491691
-4.239744	خزایی	-0.3790253
-4.10941	خسارت	-0.3058555
-3.907305	خسته	-0.4805062
-4.310325	خشونت	-0.3727143
-3.784899	خصوص	-0.2831775
-3.665712	خصوصی	-0.2442967
-3.897321	خط	-0.3341653
-3.784899	خطر	-0.4150999
-4.364682	خطره	-0.7343745
-4.637683	خطری	-0.2849925
-4.42683	خلا	-0.55128
-3.887561	خلاصه	-0.2991727
-3.949709	خلاف	-0.4304154
-4.42683	خم	-0.3925226
-4.695675	خمینی	-0.2758469
-4.26202	خنده	-0.5580595
-3.938714	خواب	-0.5315344
-3.683441	خواجه	-1.37694
-4.364682	خوار	-0.330568
-4.42683	خواست	-0.4147276
-4.160563	خواستم	-0.4533825
-4.42683	خواسته	-0.4040845
-4.394646	خوان	-0.3243835
-4.394646	خواهان	-0.2951594
-3.231143	خواهد	-1.149991
-4.461592	خواهر	-0.389221
-4.218554	خواهش	-0.554647
-4.218554	خواهم	-0.5086293
-3.816498	خواهند	-0.6935906
-3.850578	خواهی	-0.3426741
-4.336654	خواهید	-0.5132005
-3.833203	خواهیم	-0.7245342
-3.370512	خوب	-0.3239529
-3.72123	خوبه	-0.3112066
-3.50735	خوبی	-0.4119372
-2.827283	خود	-0.346121
-4.02226	خودت	-0.2950584
-4.637683	خودتو	-0.2831791
-3.567646	خودتون	-0.2764754
-4.499381	خودجوش	-0.2394069
-4.218554	خودداری	-0.5898393
-3.938714	خودرو	-0.3003558
-3.134233	خودش	-0.2937073
-3.92799	خودشو	-0.3425498
-3.654283	خودشون	-0.3111094
-3.769922	خودم	-0.2673717
-3.984471	خودمون	-0.2913275
-4.42683	خودکار	-0.3557333
-4.42683	خودکشی	-0.3058001
-4.198351	خور	-0.2601326
-3.769922	خورد	-0.4348545
-4.218554	خوردبین	-0.3778049
-4.1258	خوردن	-0.3310956
-4.02226	خورده	-0.2566479
-4.586531	خورشید	-0.2906508
-4.394646	خوری	-0.2773691
-4.049412	خوش	-0.3467203
-4.499381	خوشبختانه	-0.309457
-4.239744	خوشحال	-0.3261231
-4.637683	خوشحالم	-0.4665077
-4.540773	خوشحالی	-0.41316
-3.917524	خون	-0.4501774
-4.461592	خوندن	-0.4059943
-3.62696	خونه	-0.2320392
-3.683441	خوک	-0.6885383
-4.586531	خوکها	-0.3341222
-3.984471	خیانت	-0.2933654
-4.461592	خیانتی	-0.5792314
-3.616494	خیر	-0.300734
-2.917524	خیلی	-0.3984618
-4.586531	دات	-0.6989512
-3.72786	داخل	-0.659642
-3.708265	داخلی	-0.268807
-3.095169	داد	-0.4680015
-4.394646	داداش	-0.2780288
-3.450868	داداشی	-0.3333227
-3.554002	دادستان	-0.389782
-3.407235	دادستانی	-0.3878811
-4.364682	دادسرا	-0.280652
-3.917524	دادسرای	-0.6563601
-3.92799	دادم	-0.3449901
-3.208335	دادن	-0.3444054
-4.586531	دادند	-0.2823405
-3.002954	داده	-0.4258969
-3.549547	دادگاه	-0.300167
-4.218554	دادگاهی	-0.4019083
-4.009295	دادگستری	-0.3451173
-4.364682	دادی	-0.2706165
-4.310325	دادید	-0.2353738
-3.632288	دادیم	-0.4514199
-3.887561	دار	-0.2803082
-4.336654	دارابی	-0.2626806
-4.02226	دارای	-0.4765719
-4.009295	دارایی	-0.4175764
-3.239743	دارد	-0.3897665
-3.450868	دارم	-0.3194232
-2.936548	دارن	-0.3062168
-3.907305	دارند	-0.3036813
-4.42683	دارنده	-0.6283164
-2.519584	داره	-0.3233113
-4.239744	دارو	-0.4562321
-3.499381	داری	-0.2454927
-3.257472	دارید	-0.3692473
-3.246307	داریم	-0.3769742
-4.499381	داس	-0.2937171
-3.833203	داستان	-0.257565
-3.356082	داشت	-0.3573662
-4.035624	داشتم	-0.2948704
-3.519584	داشتن	-0.3133481
-4.364682	داشتند	-0.247354
-3.062207	داشته	-0.5250639
-4.394646	داشتی	-0.2531508
-4.198351	داشتید	-0.2927727
-4.499381	داشتیم	-0.281087
-4.461592	داعش	-0.3932543
-4.218554	داغ	-0.401593
-4.142834	دام	-0.2828158
-4.499381	دامن	-0.3414164
-3.297735	دامنه	-0.4255235
-4.10941	دامپ	-0.2943567
-4.364682	دان	-0.3395047
-3.701925	دانش	-0.4784892
-4.364682	دانشجو	-0.3447224
-4.540773	دانشجوی	-0.2994618
-4.239744	دانشجویان	-0.3357527
-4.540773	دانشجویی	-0.342067
-4.461592	دانشمند	-0.3947274
-3.198351	دانشگاه	-0.4171008
-4.10941	دانشگاهی	-0.3051643
-4.198351	دانلود	-0.3242474
-4.540773	داود	-0.5438104
-4.394646	داوود	-0.6017197
-4.26202	دبی	-0.3245071
-4.394646	دبیر	-0.3795715
-4.02226	دختر	-0.319012
-4.586531	دختران	-0.3440024
-1.680675	در	-0.8030561
-4.394646	دراختیار	-0.3190193
-3.2928	درامد	-0.3263197
-4.02226	درباره	-0.3027797
-4.42683	درج	-0.4310239
-4.364682	درجه	-0.2946575
-3.476315	درحال	-0.4362247
-3.96099	درحالی	-0.6864322
-3.56305	درخواست	-0.3053415
-3.654283	درد	-0.3583011
-4.499381	دردناک	-0.2711976
-4.499381	دردناکه	-0.2915375
-4.586531	درده	-0.5460165
-4.461592	درز	-0.5984643
-4.160563	درس	-0.3006369
-3.407235	درست	-0.422264
-4.540773	درستش	-0.3209732
-4.049412	درسته	-0.2932863
-4.310325	درستی	-0.3381304
-3.572291	درصد	-0.3749454
-4.540773	درصدی	-0.3393191
-4.499381	درصورت	-0.3235798
-4.310325	درصورتی	-1.244987
-4.42683	درضمن	-0.3071541
-4.218554	درمان	-0.3255317
-4.499381	درمورد	-0.3138504
-4.499381	درنمیاد	-0.5477576
-3.748382	دروغ	-0.3104795
-4.285501	درون	-0.3612878
-3.907305	درک	-0.3520293
-2.912385	درگاه	-0.589826
-3.949709	درگیر	-0.3074468
-3.367587	دریافت	-0.4367254
-4.198351	دریافتی	-0.3570202
-3.257472	دزد	-0.3202262
-3.404053	دزدان	-0.3207065
-4.695675	دزدش	-0.2804988
-4.218554	دزده	-0.2820875
-2.970231	دزدی	-0.3926122
-4.461592	دزدیدن	-0.3629226
-4.26202	دزدیده	-0.6049549
-4.42683	دزدیه	-0.321258
-3.917524	دزفولی	-0.3626055
-2.837482	دست	-0.3902457
-4.310325	دستت	-0.2800844
-4.461592	دستتون	-0.2992449
-3.465227	دسترس	-0.6394499
-4.336654	دسترسه	-0.3207581
-3.480076	دسترسی	-0.3972169
-3.917524	دستش	-0.261157
-4.239744	دستشون	-0.2739485
-3.887561	دسته	-0.3943589
-3.665712	دستور	-0.4836812
-4.637683	دستوری	-0.3839452
-4.336654	دستکاری	-0.4635715
-2.938714	دستگاه	-0.8596628
-4.093616	دستگیر	-0.542017
-4.179046	دستگیری	-0.3953687
-4.179046	دستی	-0.2685472
-4.637683	دعا	-0.3382533
-4.218554	دعوا	-0.3544805
-4.461592	دعوای	-0.3444142
-3.621696	دعوت	-0.5839911
-4.364682	دغدغه	-0.3345672
-4.499381	دفاتر	-0.4016089
-3.96099	دفاع	-0.3675481
-3.621696	دفتر	-0.2706169
-4.394646	دفعه	-0.5039518
-4.198351	دقایقی	-0.5686341
-3.907305	دقت	-0.4441873
-3.80838	دقیق	-0.2871639
-3.606275	دقیقا	-0.3538978
-3.468892	دقیقه	-0.3890985
-4.009295	دل	-0.3020171
-3.22902	دلار	-0.3220812
-3.72123	دلاری	-0.255594
-4.035624	دلایل	-0.3146269
-4.336654	دلایلی	-0.307515
-4.364682	دلسوز	-0.4031944
-4.364682	دلقک	-0.4867956
-4.310325	دلم	-0.3496442
-3.078376	دلیل	-0.293561
-3.82477	دلیلش	-0.4149728
-4.02226	دلیلی	-0.3613438
-3.859532	دم	-0.3551666
-4.637683	دمت	-0.9541825
-4.499381	دمتون	-0.7949725
-3.035624	دنبال	-0.4360122
-3.280702	دنیا	-0.2505338
-4.42683	دنیاست	-0.2886127
-4.1258	دنیای	-0.3330151
-4.160563	ده	-0.388847
-3.96099	دهد	-0.3094228
-4.239744	دهند	-0.3157511
-3.755444	دهنده	-0.3213004
-4.499381	دهندگان	-0.2842731
-4.540773	دهه	-0.4644438
-4.179046	دهی	-0.3317454
-4.285501	دهید	-0.3346077
-2.923773	دو	-0.3974338
-3.450868	دوباره	-0.299734
-3.527936	دور	-0.5137359
-4.394646	دوربین	-0.2938437
-3.581732	دوره	-0.4335866
-4.695675	دورهم	-0.4371869
-4.160563	دورهمی	-0.3047495
-4.26202	دوری	-0.518593
-4.540773	دوزار	-0.4353705
-4.218554	دوزاری	-0.2950365
-3.996706	دوس	-0.5798901
-3.367587	دوست	-0.5324178
-3.065102	دوستان	-0.31713
-4.586531	دوستانش	-0.2664353
-3.887561	دوستانی	-0.8858652
-4.586531	دوستش	-0.2790151
-4.26202	دوستمون	-0.2682594
-3.82477	دوستی	-0.3870288
-4.586531	دوش	-0.2824711
-4.637683	دوشنبه	-0.2531243
-3.268932	دولت	-0.2624207
-3.708265	دولتی	-0.3246606
-3.49545	دوم	-0.2979282
-4.364682	دونه	-0.3856808
-4.637683	دونیت	-0.3419782
-4.394646	دچار	-0.3886466
-2.854137	دکتر	-0.413191
-4.586531	دکترا	-0.2564926
-4.078375	دکترای	-0.331447
-3.632288	دکتری	-0.3280462
-3.714699	دکون	-0.3612482
-4.540773	دکونی	-0.2851364
-4.26202	دکی	-0.3420109
-3.515468	دی	-0.4590095
-4.078375	دیتا	-0.3266696
-3.878016	دیتابیس	-0.2786734
-4.218554	دیتاسنتر	-0.3345097
-4.540773	دیتای	-0.2996136
-4.285501	دیتایی	-0.4880909
-4.540773	دیجی	-0.5258991
-3.859532	دیجیتال	-0.2804501
-3.734594	دید	-0.367884
-4.093616	دیدم	-0.252914
-3.792586	دیدن	-0.3596091
-3.454414	دیده	-0.440493
-4.310325	دیدی	-0.2520594
-3.859532	دیدید	-0.3065549
-4.285501	دیدیم	-0.299849
-4.336654	دیر	-0.3268456
-3.72123	دیروز	-0.2819282
-4.239744	دیشب	-0.3838831
-4.142834	دین	-0.3924472
-4.160563	دیوار	-0.2736152
-4.540773	دیوان	-0.60198
-4.637683	دیواندری	-0.2963791
-4.461592	دیوونه	-0.3384625
-3.188591	دیگر	-0.2610417
-4.26202	دیگران	-0.2620527
-3.549547	دیگری	-0.4435879
-2.82477	دیگه	-0.2310451
-3.96099	ذخیره	-0.3879225
-4.239744	ذره	-0.6082054
-4.499381	ذوق	-0.32073
-4.009295	ذکر	-0.4866456
-4.310325	ذی	-0.8128734
-4.499381	ر	-0.2763407
-3.356082	رئیس	-0.6627097
-4.078375	رئیسی	-0.2825554
-2.531323	را	-0.4564812
-2.790265	رابطه	-1.219101
-3.632288	راحت	-0.2823527
-4.499381	راحته	-0.2933231
-3.413669	راحتی	-0.306575
-3.82477	راد	-0.3084733
-4.142834	رادیو	-0.4979185
-4.364682	رادیویی	-0.3332714
-4.02226	راز	-0.4164463
-4.540773	راس	-0.5078475
-3.850578	راست	-0.3904663
-4.10941	راستای	-0.3006848
-4.063653	راستی	-0.3181153
-4.035624	راضی	-0.3659399
-3.683441	رانت	-0.4298278
-4.160563	رانتی	-0.2687535
-2.901287	راه	-0.6001101
-4.26202	راهبردی	-0.5139459
-4.499381	راهنمایی	-0.3354352
-4.160563	راهکار	-0.3669345
-4.218554	راهکارهای	-0.3942876
-3.777346	راهی	-0.5530139
-4.049412	رای	-0.4121477
-4.078375	رایانه	-0.7275321
-4.461592	رایتل	-0.3098597
-3.476315	رایگان	-0.2867334
-3.878016	ربات	-0.3724918
-4.540773	ربط	-0.3587783
-3.984471	ربطی	-0.9873033
-3.938714	رتبه	-0.5338655
-4.42683	رحم	-0.3963931
-3.878016	رخ	-0.6665757
-3.897321	رد	-0.4068681
-4.394646	رده	-0.447139
-4.02226	رزومه	-0.2624074
-3.671542	رسان	-0.5059131
-3.214438	رسانه	-0.5558091
-3.397759	رسانی	-0.3701695
-4.586531	رسم	-0.4446125
-4.10941	رسما	-0.3020253
-3.297735	رسمی	-0.3212304
-4.239744	رسول	-0.4452918
-4.540773	رسولی	-0.4998749
-3.82477	رسید	-0.4201572
-4.049412	رسیدن	-0.4855205
-3.769922	رسیده	-0.4350218
-3.972572	رسیدگی	-0.3853301
-3.695676	رشته	-0.6291378
-3.82477	رشد	-0.2761735
-4.461592	رشوه	-0.333961
-4.063653	رشیدپور	-0.2827108
-3.407235	رصد	-0.478708
-3.400894	رضا	-0.6430567
-4.078375	رضایت	-0.2790959
-3.984471	رضایی	-0.3263442
-4.499381	رضوی	-0.3940842
-4.093616	رعایت	-0.3158083
-4.499381	رفاه	-0.4307087
-3.637684	رفت	-0.3091793
-4.078375	رفتار	-0.3000728
-4.499381	رفتم	-0.2732559
-3.72786	رفتن	-0.2987464
-3.440403	رفته	-0.2984424
-4.637683	رفتی	-0.2882483
-4.695675	رفتیم	-0.3362152
-4.239744	رفسنجان	-0.3328042
-4.063653	رفع	-0.4152398
-4.285501	رفیق	-0.3074892
-4.499381	رقابت	-0.4019463
-3.632288	رقم	-0.3353981
-3.41044	رمز	-0.7167168
-3.50735	رمزارز	-0.2929822
-4.26202	رمزارزها	-0.2600667
-4.160563	رمضانعلی	-0.844903
-4.179046	رنگ	-0.3192254
-4.10941	رها	-0.4172705
-4.142834	رهبری	-0.2786358
-4.049412	رهنما	-0.5141183
-1.858177	رو	-0.4376254
-4.160563	روابط	-0.6899397
-4.179046	روال	-0.265837
-4.42683	روایت	-0.3729618
-3.96099	روبیکا	-0.3208874
-4.26202	روح	-0.6412591
-4.364682	روحانی	-0.2738638
-2.908316	روز	-0.3621716
-4.239744	روزا	-0.2707735
-3.878016	روزانه	-0.3204111
-3.769922	روزنامه	-0.504366
-4.093616	روزه	-0.2863445
-4.093616	روزها	-0.2965056
-3.96099	روزهای	-0.639427
-3.333948	روزی	-0.4599443
-4.310325	روستایی	-0.2956954
-4.26202	روسی	-0.4316061
-4.142834	روسیه	-0.2642822
-3.295261	روش	-0.3390142
-4.009295	روشن	-0.2899807
-4.160563	روشی	-0.3125654
-3.897321	روند	-0.303865
-4.762622	رونق	-0.2788139
-4.239744	رونمایی	-0.4756062
-2.977293	روی	-0.4261284
-4.218554	رویکرد	-0.2901904
-4.586531	رپورتاژ	-0.5115757
-4.586531	رژیم	-0.2733475
-4.239744	رکورد	-0.3384075
-4.364682	رگ	-0.3360156
-3.833203	ریاست	-0.6573278
-4.26202	ریال	-0.2955113
-4.310325	ریالی	-0.377256
-4.10941	ریتوییت	-0.398174
-4.336654	ریخته	-0.3402271
-4.310325	ریز	-0.3039221
-4.285501	ریزی	-0.2895793
-3.887561	ریس	-0.4714151
-4.310325	ریسک	-0.266014
-4.499381	ریش	-0.5079497
-4.499381	ریشه	-0.3326124
-4.586531	رینگ	-0.2698191
-4.1258	ریپورت	-0.2888646
-3.792586	رییس	-0.5594916
-3.336653	زاده	-0.3048399
-4.310325	زار	-0.3734968
-4.310325	زارع	-0.5422328
-3.487695	زالو	-0.6584943
-4.049412	زالوهای	-1.039716
-4.461592	زایی	-0.274861
-3.755444	زبان	-0.4095137
-4.42683	زحمات	-0.2985189
-4.310325	زحمت	-0.2996464
-3.833203	زد	-0.3620319
-4.336654	زدم	-0.2470174
-3.450868	زدن	-0.3405395
-3.443864	زده	-0.2817637
-4.394646	زدی	-0.281096
-4.160563	زدیم	-0.359959
-4.285501	زرابادی	-0.413013
-4.364682	زرد	-0.2905349
-4.586531	زرنگ	-0.2895109
-4.160563	زرگانی	-0.2718462
-4.336654	زرین	-0.4764344
-4.239744	زشت	-0.4687032
-4.142834	زشته	-0.3614566
-4.695675	زم	-0.3772304
-3.273602	زمان	-0.226598
-3.476315	زمانی	-0.5323479
-4.364682	زمین	-0.2660492
-4.10941	زمینه	-0.2662127
-4.035624	زن	-0.335791
-3.72786	زندان	-0.3592239
-3.800411	زنده	-0.3183542
-3.416922	زندگی	-0.3422998
-4.461592	زندگیش	-0.2873893
-4.540773	زندگیشون	-0.3377551
-4.009295	زنگ	-0.4068483
-4.637683	زهی	-0.3332592
-4.586531	زود	-0.3286915
-4.586531	زودتر	-0.2684979
-3.312887	زودی	-0.3049975
-4.093616	زور	-0.295352
-4.336654	زورش	-0.525325
-3.62696	زیاد	-0.2597228
-4.461592	زیاده	-0.2811631
-3.601254	زیادی	-0.3937805
-4.586531	زیبا	-0.4384085
-3.092067	زیر	-0.462874
-4.540773	زیرا	-0.3294053
-4.10941	زیرساخت	-0.3846953
-4.10941	زیرمجموعه	-0.4072885
-4.239744	زینب	-0.6631323
-3.545138	سابق	-0.3483467
-3.841804	سابقه	-0.2597464
-4.461592	ساترا	-0.2814159
-3.689515	ساخت	-0.3581593
-4.310325	ساختار	-0.3085128
-4.364682	ساختمان	-0.324181
-4.461592	ساختمون	-0.3045434
-4.499381	ساختن	-0.2673428
-3.859532	ساخته	-0.3702106
-4.499381	ساختیم	-0.3390672
-3.307777	ساده	-0.4173421
-3.581732	ساز	-0.3248381
-3.192469	سازمان	-0.5571447
-4.10941	سازمانی	-0.3008161
-4.364682	سازنده	-0.3088908
-3.248518	سازی	-0.298221
-4.461592	ساسپند	-0.5276348
-4.394646	ساشا	-0.6352234
-3.182839	ساعت	-0.6192787
-4.179046	ساعته	-0.4371329
-2.718606	سال	-0.5338191
-3.82477	سالم	-0.264076
-4.695675	سالن	-0.3243659
-3.264312	ساله	-0.3220993
-3.868676	سالها	-0.2459945
-3.868676	سالهاست	-0.3943723
-4.461592	سالهای	-0.3401676
-4.394646	سالگی	-0.3014816
-4.285501	سالی	-0.4510853
-3.816498	سامان	-0.4638697
-4.285501	ساماندهی	-0.3244802
-3.353253	سامانه	-0.3773953
-3.949709	ساکن	-0.5159531
-4.540773	سایبر	-0.311202
-3.169706	سایبری	-0.281772
-2.291086	سایت	-0.5127188
-3.868676	سایتش	-0.3011625
-4.461592	سایتهای	-0.331595
-4.035624	سایتی	-0.4365292
-4.461592	سایر	-0.2965661
-3.972572	سایه	-0.3681603
-4.310325	سبحانی	-0.2834782
-4.198351	سبز	-0.3480095
-4.499381	سبک	-0.3277428
-3.611355	ستاد	-0.7158169
-3.665712	ستاره	-0.7472587
-3.554002	سجاد	-1.231884
-4.695675	سحر	-0.4769937
-3.762622	سخت	-0.4661212
-3.984471	سخته	-0.3337207
-4.063653	سختی	-0.3722941
-4.42683	سخنان	-0.2826707
-4.586531	سخنرانی	-0.3155072
-4.540773	سخنگوی	-0.4374519
-3.160562	سر	-0.3976157
-4.42683	سراب	-0.370897
-4.695675	سراسر	-0.5201105
-4.586531	سراسری	-0.2719767
-4.1258	سراغ	-0.3428631
-4.310325	سران	-0.523088
-4.586531	سرباز	-0.2792596
-4.540773	سربازان	-0.2855695
-4.063653	سرت	-0.3979023
-4.540773	سرتون	-0.2971318
-3.741433	سردار	-0.4547979
-4.285501	سرشاخه	-0.4748075
-4.586531	سرشماره	-0.337696
-4.586531	سرشون	-0.2890009
-3.996706	سرعت	-0.2838988
-4.009295	سرقت	-0.4514264
-2.916492	سرمایه	-0.6978845
-4.499381	سرنوشت	-0.356952
-3.972572	سرهنگ	-0.4175041
-3.480076	سرور	-0.3366056
-4.336654	سرورهای	-0.4340227
-4.695675	سروری	-0.2952688
-3.907305	سروش	-0.2875484
-2.831504	سرویس	-0.473803
-3.96099	سرویسی	-0.3076446
-4.540773	سرپرست	-0.4765269
-3.887561	سرچ	-0.6113885
-4.364682	سرکار	-0.652756
-4.586531	سرکردگی	-0.281788
-3.400894	سری	-0.3251401
-4.461592	سریال	-0.3306987
-3.972572	سریع	-0.2751179
-4.310325	سریعتر	-0.2768133
-3.52374	سطح	-0.3859479
-4.461592	سعد	-0.6986498
-3.907305	سعی	-0.4743254
-3.769922	سعید	-0.5731372
-4.42683	سفارت	-0.3792302
-4.364682	سفره	-0.3649834
-4.078375	سفید	-0.3438138
-4.637683	سفیر	-0.4154205
-4.310325	سقف	-0.3862982
-4.586531	سل	-0.2809659
-3.850578	سلام	-0.4216971
-4.285501	سلامت	-0.2979286
-4.26202	سلبریتی	-0.4532903
-4.394646	سلطان	-0.3310388
-4.540773	سلطانی	-0.2998687
-4.461592	سلیمانی	-0.3140493
-4.586531	سلیمه
-3.996706	سلیمی	-0.3758113
-4.239744	سم	-0.3702112
-3.606275	سمت	-0.2659714
-4.499381	سمنان	-0.2786374
-4.310325	سن	-0.3694966
-4.540773	سنت	-0.2566878
-4.063653	سنجی	-0.249272
-3.342116	سند	-0.2931139
-4.218554	سندی	-0.3332609
-4.637683	سنگ	-0.2918682
-4.394646	سنگین	-0.2915211
-3.394645	سه	-0.5198464
-4.285501	سهام	-0.279287
-4.364682	سهم	-0.3210966
-4.160563	سهیل	-0.7570602
-3.503347	سو	-1.43185
-4.310325	سوئد	-0.3100347
-4.310325	سوابق	-0.359784
-3.92799	سواد	-0.3329356
-4.049412	سوار	-0.4791228
-4.26202	سواستفاده	-0.3768065
-3.171558	سوال	-0.4094919
-3.996706	سوالات	-0.3983573
-4.586531	سواله	-0.3291323
-4.142834	سوالی	-0.4949682
-4.42683	سوخت	-0.3268848
-3.073906	سود	-0.3540872
-4.26202	سودجو	-0.2782083
-4.364682	سودجویان	-0.3100172
-4.540773	سودجویی	-0.3029734
-4.336654	سودهای	-0.3827022
-4.239744	سودی	-0.3732313
-4.586531	سورس	-0.3881226
-3.850578	سوم	-0.3183612
-4.499381	سوهانیان	-0.3698131
-4.42683	سوژه	-0.3163377
-4.1258	سوی	-0.3523901
-3.708265	سپاه	-0.3159933
-4.364682	سپرده	-0.4657468
-4.540773	سپری	-0.299614
-4.179046	سپس	-0.3464831
-4.586531	سپهر	-0.7403389
-4.1258	سکه	-0.611315
-3.72123	سکوت	-0.4750671
-3.897321	سی	-0.4732728
-4.1258	سیاست	-0.46292
-3.65996	سیاسی	-0.2782329
-3.665712	سیاه	-0.3435099
-4.586531	سیب	-0.3576307
-3.397759	سید	-0.6082553
-4.394646	سیده	-0.7269074
-3.56305	سیستم	-0.3436002
-4.637683	سیسکو	-0.2564801
-4.42683	سیم	-0.6505705
-3.907305	سیما	-0.237373
-3.266616	سینا	-1.202035
-4.586531	سینما	-0.3651032
-4.310325	سیگنال	-0.244446
-4.586531	ش	-0.2953226
-4.198351	شات	-0.2999216
-4.499381	شاتل	-0.2624235
-4.637683	شاخ	-0.312178
-4.540773	شاد	-0.3287183
-4.461592	شادن	-1.096065
-3.80838	شارژ	-0.3469397
-3.92799	شامل	-0.372835
-4.461592	شان	-0.2966427
-4.540773	شانس	-0.2978765
-3.897321	شاهد	-0.3090467
-4.285501	شاهین	-0.6987699
-3.268932	شاپرک	-0.2828837
-4.078375	شاکی	-0.3670187
-4.499381	شایان	-1.079164
-3.344874	شاید	-0.3160297
-4.42683	شایعه	-0.3286638
-3.536452	شب	-0.3089234
-3.917524	شبانه	-0.8643631
-4.179046	شبه	-0.337658
-2.495059	شبکه	-0.5769644
-4.179046	شبگرد	-0.3966185
-3.887561	شبیه	-0.7626479
-4.063653	شت	-1.476876
-4.160563	شتاب	-0.3170783
-3.972572	شخص	-0.2821504
-4.42683	شخصا	-0.3258572
-4.160563	شخصه	-0.2980475
-3.784899	شخصی	-0.3420813
-2.527515	شد	-0.3725507
-4.26202	شدت	-0.2861316
-3.868676	شدم	-0.2786503
-2.914433	شدن	-0.3070752
-3.859532	شدند	-0.2759531
-4.540773	شدنی	-0.5222845
-2.309559	شده	-0.4320646
-4.310325	شدی	-0.251992
-3.859532	شدید	-0.2341908
-4.10941	شدیم	-0.312185
-4.394646	شر	-0.2534286
-4.179046	شرافت	-0.3029996
-4.637683	شراکت	-0.3211528
-3.689515	شرایط	-0.3583913
-4.586531	شرایطی	-0.6824757
-4.540773	شرح	-0.3378257
-3.055052	شرط	-1.57482
-3.701925	شرطبندی	-0.354571
-4.461592	شرعی	-0.3051805
-4.093616	شرم	-0.5334192
-3.350442	شروع	-0.5012324
-2.219589	شرکت	-0.4323654
-4.841804	شرکتش	-0.3254451
-4.499381	شرکته	-0.2660287
-4.461592	شرکتها	-0.2528003
-4.239744	شرکتهای	-0.3149651
-3.591383	شرکتی	-0.5000208
-3.833203	شریف	-0.2860577
-4.394646	شریک	-0.3192014
-4.394646	شش	-0.4754176
-3.82477	شطرنج	-0.3616493
-4.285501	شعار	-0.2875634
-4.035624	شعبه	-0.4461436
-3.984471	شعور	-0.3210169
-4.218554	شغل	-0.3034319
-4.540773	شغلی	-0.2683227
-3.734594	شفاف	-0.506162
-4.142834	شفافیت	-0.3254567
-4.218554	شقاقی	-0.2990675
-4.394646	شلیله	-0.2546343
-2.313144	شما	-0.260492
-3.081381	شماره	-0.623344
-4.239744	شمارو	-0.3186853
-3.601254	شماست	-0.3343938
-4.364682	شمایید	-0.449039
-4.461592	شمخانی	-0.2727542
-4.310325	شن	-0.3412769
-4.499381	شناخت	-0.3477465
-4.078375	شناخته	-0.6080237
-3.581732	شناسایی	-0.4746942
-4.009295	شنبه	-0.5213422
-4.42683	شنود	-0.3238179
-4.364682	شنیده	-0.3404836
-4.461592	شنیدید	-0.2995051
-3.96099	شه	-0.2535103
-3.96099	شهر	-0.3613792
-4.078375	شهرام	-0.6754113
-4.461592	شهرداری	-0.407281
-4.285501	شهرستان	-0.3407704
-4.179046	شهره	-1.322179
-4.336654	شهروند	-0.3279826
-4.310325	شهروندان	-0.3571662
-4.394646	شهرک	-0.5974027
-4.394646	شهریورنیا	-0.2920339
-4.049412	شهید	-0.4273592
-4.394646	شهیدی	-0.2583077
-3.878016	شو	-0.2471208
-4.310325	شواهد	-0.2981807
-4.499381	شواهدی	-0.4339757
-4.009295	شوخی	-0.3116029
-4.310325	شوخیه	-0.2776372
-3.297735	شود	-0.378831
-3.907305	شورای	-0.7080474
-3.938714	شوند	-0.2772178
-4.499381	شونه	-0.311219
-4.26202	شوید	-0.298239
-4.364682	شویی	-0.341482
-4.336654	شک	-0.3304897
-3.248518	شکایت	-0.4360663
-3.769922	شکری	-1.763314
-3.92799	شکل	-0.4319366
-4.540773	شکن	-0.3156798
-4.637683	شکنجه	-0.4760622
-4.009295	شکوری	-0.4817614
-3.671542	شیاد	-0.2909901
-4.218554	شیادی	-0.2828029
-4.42683	شیخ	-0.4208703
-4.142834	شید	-0.3726404
-4.499381	شیر	-0.3022975
-4.499381	شیرین	-0.3118081
-4.540773	شیم	-0.2717615
-4.336654	شیوه	-0.2923786
-4.198351	صابر	-0.6002018
-4.285501	صاحاب	-0.3067516
-4.078375	صاحب	-0.3410813
-4.540773	صاحبان	-0.2904753
-4.063653	صادر	-0.4959844
-4.336654	صادرات	-0.2627182
-4.049412	صادق	-0.7905511
-4.42683	صادقی	-0.271715
-4.586531	صبا	-0.4947289
-4.009295	صباسل	-0.3034699
-3.833203	صبح	-0.3033831
-4.009295	صبر	-0.4204518
-3.755444	صحبت	-0.6069258
-4.093616	صحت	-0.4416564
-4.42683	صحتی	-0.3393548
-3.938714	صحنه	-0.4854901
-4.078375	صحیح	-0.3178568
-4.364682	صد	-0.3616952
-3.65996	صدا	-0.5986065
-4.310325	صداسیما	-0.2889977
-4.364682	صداش	-0.3938555
-3.278322	صداوسیما	-0.3411905
-4.02226	صداوسیمای	-0.8006497
-3.683441	صدای	-0.3764867
-4.586531	صدر	-0.4058115
-4.218554	صدها	-0.3463318
-4.160563	صدور	-0.400172
-3.353253	صرافی	-0.3668075
-4.461592	صرف	-0.3243176
-3.859532	صرفا	-0.3545002
-4.310325	صریح	-0.2726309
-3.671542	صفحات	-0.475719
-3.450868	صفحه	-0.3654584
-4.336654	صفر	-0.2727621
-4.499381	صلاحیت	-0.3317582
-4.285501	صمت	-0.2784376
-4.394646	صنایع	-0.5282398
-4.364682	صندوق	-0.4935269
-3.72786	صنعت	-0.326497
-4.063653	صنعتی	-0.6340464
-4.26202	صنفی	-0.3956525
-4.394646	صوتی	-0.2876299
-3.062207	صورت	-0.4198894
-4.179046	صیانت	-0.5446892
-4.461592	صیغه	-0.2956709
-4.586531	ضایع	-0.5086254
-3.972572	ضبط	-0.5649515
-4.160563	ضد	-0.3487773
-4.42683	ضربه	-0.3499387
-4.364682	ضرر	-0.3094918
-4.1258	ضعف	-0.3754352
-4.336654	ضعیف	-0.3068591
-4.078375	ضمن	-0.3820359
-4.540773	ضیا	-0.2758627
-4.310325	طاهری	-0.3849252
-3.683441	طبق	-0.3928835
-4.637683	طبقه	-0.3703158
-4.42683	طراح	-0.3213383
-4.586531	طراحان	-0.7232913
-3.741433	طراحی	-0.5468338
-3.283095	طرح	-0.4156704
-3.376421	طرف	-0.2061572
-3.252972	طریق	-0.366088
-4.218554	طلا	-0.3846169
-4.009295	طلایی	-0.2707169
-4.336654	طلب	-0.3135375
-4.540773	طماع	-0.2574792
-3.984471	طمع	-0.4088537
-4.239744	طنز	-0.5340473
-4.179046	طور	-0.355602
-3.897321	طول	-0.4357516
-4.499381	طولانی	-0.3203159
-3.56305	طی	-0.4907921
-4.499381	ظاهر	-0.3201419
-4.586531	ظرفیت	-0.2934079
-4.310325	عادت	-0.3815645
-4.394646	عادل	-0.2812898
-4.1258	عادی	-0.3667425
-4.540773	عادیه	-0.2680003
-4.42683	عاقبت	-0.2981424
-3.949709	عالی	-0.3440006
-3.447352	عامل	-0.3337069
-4.586531	عاملین	-0.300064
-4.394646	عبادتی	-0.2989302
-3.816498	عباس	-0.3135652
-4.42683	عباسی	-0.4835687
-4.142834	عبور	-0.4198315
-4.540773	عجایب	-0.3395761
-4.586531	عجله	-0.3205784
-3.878016	عجیب	-0.3917191
-4.26202	عجیبه	-0.3553666
-4.586531	عجیبی	-0.3454283
-4.336654	عدالت	-0.2627476
-4.009295	عدد	-0.2793385
-3.643147	عدم	-0.4444153
-4.336654	عده	-0.5293274
-4.1258	عذر	-1.146034
-4.218554	عذرخواهی	-0.3685396
-4.499381	عراق	-0.2782661
-3.784899	عرض	-0.6037915
-4.364682	عرضه	-0.2769267
-4.310325	عرفان	-0.4140998
-4.394646	عزتی	-0.3687848
-3.379405	عزیز	-0.2496837
-3.394645	عزیزان	-0.2358247
-3.907305	عزیزانی	-1.052916
-4.239744	عزیزی	-0.4560059
-4.364682	عسگری	-0.3597598
-4.394646	عصر	-0.3644618
-3.297735	عضو	-0.4949506
-3.689515	عضویت	-0.4162292
-4.1258	علاقه	-0.5318384
-4.637683	علاوه	-0.698
-3.859532	علت	-0.342696
-4.336654	علم	-0.4572136
-3.701925	علمی	-0.3384144
-4.499381	علنی	-0.3310832
-3.671542	علوم	-0.4206006
-4.42683	علوی	-0.4422328
-3.111021	علی	-0.6300731
-3.677451	علیجانی	-0.3826612
-3.748382	علیرضا	-0.4617735
-3.769922	علیه	-0.406447
-3.897321	عمده	-0.4511265
-4.499381	عمر	-0.2880357
-3.907305	عمل	-0.3607666
-4.160563	عملا	-0.2887604
-3.996706	عمله	-0.3440273
-3.833203	عملکرد	-0.3790527
-4.364682	عملیات	-0.3588482
-4.499381	عملیاتی	-0.3572777
-4.364682	عمو	-0.3684473
-3.4202	عمومی	-0.2820401
-3.82477	عناوین	-0.4265254
-4.540773	عنایت	-0.435775
-2.976108	عنوان	-0.2789593
-3.907305	عهده	-0.389651
-4.540773	عواقب	-0.3117654
-3.708265	عوامل	-0.3594243
-4.364682	عواملش	-0.2913345
-4.239744	عوض	-0.3656338
-3.400894	عکس	-0.3604968
-4.499381	عید	-0.3128907
-4.198351	عیدی	-0.4470723
-4.499381	عینا	-0.3621009
-4.394646	غر	-0.3245782
-4.586531	غرفه	-0.2928942
-4.586531	غریب	-0.3252361
-4.42683	غصه	-0.2989973
-4.42683	غفاری	-0.3023561
-4.540773	غفلت	-0.3601243
-4.049412	غلط	-0.3135515
-3.50735	غیر	-0.637023
-4.499381	غیرفعال	-0.3663894
-3.65996	غیرقانونی	-0.3286535
-4.310325	غیرمجاز	-0.364367
-4.198351	فاجعه	-0.2932497
-4.035624	فارس	-0.3861496
-3.654283	فارسی	-0.3540027
-4.009295	فارغ	-1.207783
-3.972572	فارم	-0.4556341
-4.364682	فاز	-0.3827398
-3.576986	فاسد	-0.3017519
-4.336654	فاش	-0.6180002
-4.394646	فاصله	-0.2888055
-4.540773	فاضلاب	-0.3194874
-4.499381	فال	-0.3966219
-4.336654	فالو	-0.3659485
-4.239744	فالور	-0.3717713
-4.394646	فالوور	-0.328947
-4.239744	فامیل	-0.3295835
-4.461592	فاوا	-0.3614807
-4.540773	فایروال	-0.3142292
-3.816498	فایل	-0.3660627
-4.179046	فاینانس	-0.2991023
-3.175286	فتا	-0.3033515
-4.093616	فتای	-0.5862362
-4.540773	فتوشاپ	-0.3098705
-4.42683	فحش	-0.3160559
-4.461592	فدا	-0.476771
-4.42683	فدای	-0.5043628
-4.42683	فدراسیون	-0.5737348
-4.160563	فر	-0.2473801
-4.499381	فراتر	-0.8031625
-4.160563	فراخوان	-0.5782816
-3.92799	فرار	-0.4167399
-4.461592	فراری	-0.2832175
-3.897321	فراموش	-0.3888198
-3.878016	فراهم	-0.4528264
-4.160563	فرایند	-0.2651132
-3.045229	فرد	-0.3053623
-3.671542	فردا	-0.2836861
-3.391554	فردی	-0.6541943
-3.554002	فردین	-0.3975739
-4.160563	فرزاد	-0.4465682
-4.540773	فرزند	-0.2814455
-4.198351	فرزین	-0.8448867
-4.42683	فرستاد	-0.3187614
-4.499381	فرستاده	-0.3334677
-3.841804	فرشید	-0.8802561
-4.02226	فرصت	-0.313741
-4.285501	فرض	-0.4410768
-4.218554	فرق	-0.3511021
-4.285501	فرقی	-0.6321659
-4.394646	فرم	-0.2934131
-3.92799	فرمان	-1.012213
-4.26202	فرمانده	-0.4584044
-4.42683	فرمودند	-0.4619444
-4.586531	فرمول	-0.4757613
-3.476315	فرهاد	-0.9283048
-4.049412	فرهنگ	-0.3609233
-4.078375	فرهنگی	-0.355076
-4.586531	فرهودی	-0.2872046
-4.336654	فرو	-0.3438808
-4.285501	فروارد	-0.4995071
-4.239744	فروخته	-0.3264765
-4.179046	فروردین	-0.6738535
-3.129154	فروش	-0.3205802
-4.009295	فروشنده	-0.380661
-3.938714	فروشگاه	-0.4758545
-4.1258	فروشی	-0.2980104
-4.461592	فروغی	-0.3095737
-3.677451	فریب	-0.4394996
-4.364682	فریدون	-0.929085
-3.20033	فساد	-0.3504623
-4.499381	فسادی	-0.3450824
-3.938714	فشار	-0.3299037
-4.336654	فشل	-0.3948162
-3.96099	فضا	-0.3680369
-3.190526	فضای	-0.7713044
-3.404053	فعال	-0.4457776
-3.095169	فعالیت	-0.4455079
-4.364682	فعالیتش	-0.37757
-4.394646	فعالین	-0.2912318
-3.755444	فعلا	-0.287947
-3.586531	فعلی	-0.2737418
-2.65768	فقط	-0.3367679
-4.1258	فلان	-0.2904921
-4.586531	فلانی	-0.2718577
-4.42683	فن	-0.3262253
-3.491555	فناوری	-0.8394418
-4.394646	فناپ	-0.2975537
-3.648679	فنی	-0.2728114
-4.540773	فهمید	-0.3253199
-4.586531	فهمیده	-0.3168897
-4.461592	فوت	-0.5986621
-3.996706	فوتبال	-0.3025172
-3.949709	فوری	-0.2581061
-4.10941	فوق	-0.4103737
-4.093616	فوچرز	-0.2704412
-3.098294	فکر	-0.7042714
-4.637683	فکری	-0.2973141
-4.26202	فیسبوک	-0.3002589
-4.42683	فیشر	-0.3372934
-3.295261	فیشینگ	-0.3780386
-4.540773	فیشینگه	-0.257276
-3.20632	فیلتر	-0.4657987
-4.499381	فیلترشکن	-0.26498
-4.499381	فیلتره	-0.304662
-4.035624	فیلترینگ	-0.2492513
-3.784899	فیلم	-0.3754108
-4.142834	فیک	-0.3008042
-4.586531	ق	-0.365785
-3.450868	قابل	-0.5460891
-3.938714	قابلیت	-0.3294576
-3.457988	قادری	-0.3851162
-4.637683	قاسم	-0.458908
-3.654283	قاضی	-0.3709819
-4.586531	قاطی	-0.3949931
-4.42683	قاعدتا	-0.2991703
-3.984471	قالب	-0.333644
-4.310325	قانع	-0.4549224
-3.302727	قانون	-0.2808883
-4.586531	قانونمند	-0.2610731
-3.24192	قانونی	-0.2541108
-4.179046	قاچاق	-0.4064418
-4.10941	قاچاقچی	-0.3777858
-3.454414	قبل	-0.5637536
-3.166025	قبلا	-0.452597
-4.394646	قبلش	-0.4246294
-3.800411	قبلی	-0.2827397
-3.800411	قبول	-0.3997815
-4.364682	قتل	-0.3233287
-4.310325	قد	-0.3512451
-4.336654	قدر	-0.3208983
-3.708265	قدرت	-0.358185
-4.035624	قدم	-0.3601126
-4.160563	قدیر	-1.397896
-3.841804	قدیمی	-0.3129591
-2.978481	قرار	-0.8104265
-3.859532	قرارداد	-0.3589875
-4.035624	قراره	-0.2998489
-4.540773	قرارگاه	-0.3944741
-4.42683	قران	-0.3226998
-3.104611	قربانی	-0.304472
-3.41044	قربانیان	-0.3763594
-4.364682	قربون	-0.8128771
-4.461592	قرعه	-1.113911
-4.1258	قرمز	-0.2677711
-4.336654	قرون	-0.4010231
-3.850578	قسمت	-0.4760098
-4.461592	قشم	-0.4052041
-4.364682	قشنگ	-0.3314553
-4.394646	قصد	-0.3319404
-3.917524	قصه	-0.2993332
-4.035624	قضا	-0.26398
-4.461592	قضائی	-0.3398066
-4.239744	قضاوت	-0.363457
-3.085929	قضایی	-0.3064604
-3.373456	قضاییه	-0.3355306
-4.364682	قضیه	-0.2941187
-3.833203	قطع	-0.3438126
-3.637684	قطعا	-0.2613476
-4.239744	قطعی	-0.3043761
-4.42683	قفل	-0.3930244
-3.841804	قلابی	-0.3684228
-4.218554	قلب	-0.3599729
-4.142834	قلم	-0.3311104
-4.035624	قلمبر	-1.505098
-4.540773	قم	-0.353741
-2.616494	قمار	-0.4284333
-4.461592	قمارباز	-0.2728188
-4.586531	قماربازان	-0.3658584
-4.499381	قماربازی	-0.379152
-4.310325	قمارخانه	-0.3421128
-3.833203	قمارخونه	-0.4737613
-4.310325	قماره	-0.3127265
-4.364682	قمه	-0.6419809
-4.586531	قندون	-0.3522128
-4.093616	قهرمان	-0.4101309
-4.285501	قوا	-0.33016
-3.581732	قوانین	-0.3662254
-4.637683	قوانینی	-0.3962317
-4.035624	قول	-0.4914556
-3.318057	قوه	-1.337195
-4.499381	قوی	-0.3017996
-3.56305	قیمت	-0.2845183
-4.499381	لابد	-0.3093138
-3.586531	لازم	-0.5665792
-4.285501	لازمه	-0.3305244
-4.310325	لاکچری	-0.3033575
-4.394646	لای	-0.3444299
-4.26202	لایه	-0.3463083
-3.450868	لایو	-0.4543882
-3.56305	لایواستریم	-0.5739383
-4.239744	لایک	-0.4028713
-4.42683	لباس	-0.3632109
-4.310325	لجن	-0.2933037
-4.035624	لحظه	-0.3124066
-3.591383	لذا	-0.3272347
-4.218554	لزوم	-0.4225089
-3.65996	لطف	-0.3504288
-3.078376	لطفا	-0.4625748
-4.461592	لعنت	-0.3544019
-4.009295	لغو	-0.4391965
-4.063653	لندن	-0.2840509
-4.218554	لندینگ	-0.368262
-4.336654	لو	-0.457016
-4.695675	لیام	-0.2601318
-4.394646	لیسانس	-0.3734826
-3.216491	لیست	-0.3226084
-4.540773	لیستی	-0.5167771
-3.457988	لینک	-0.4058829
-4.540773	لینکدین	-0.3070518
-2.413345	ما	-0.3140401
-4.10941	ماجرا	-0.2521989
-4.142834	مادر	-0.3409239
-4.02226	ماده	-0.7053738
-3.596291	مارو	-0.3387596
-4.02226	مارکت	-0.266567
-4.586531	مارکلایی	-0.3269741
-3.850578	ماست	-0.3510102
-3.996706	ماشین	-0.3673683
-4.540773	مافیا	-0.2595496
-3.972572	مافیای	-0.396811
-4.461592	مافیایی	-0.2889829
-3.503347	مال	-0.6282672
-4.02226	مالباخته	-0.3486084
-4.285501	مالباختگان	-0.267239
-4.179046	مالزی	-0.2834284
-4.218554	ماله	-0.4796356
-3.917524	مالک	-0.3748401
-4.499381	مالکیت	-0.2619181
-4.160563	مالکین	-0.4628795
-3.41044	مالی	-0.2908154
-4.239744	مالیات	-0.3297165
-4.586531	مالیاتی	-0.2679612
-4.42683	ماند	-0.3510728
-4.26202	مانده	-0.4655461
-4.499381	ماندگار	-0.4070248
-4.364682	مانع	-0.3770986
-3.82477	مانند	-0.2913601
-4.078375	مانی	-0.2851773
-3.156958	ماه	-0.406859
-4.10941	ماهان	-0.5911752
-4.42683	ماهانه	-0.5878867
-3.373456	ماهر	-0.3161992
-3.972572	ماهه	-0.3381076
-4.26202	ماهواره	-0.5457415
-3.777346	ماهی	-0.6832008
-4.078375	ماهیانه	-0.2966063
-4.009295	ماکان	-1.543965
-4.336654	مایل	-0.4262151
-4.26202	مایلید	-0.7284595
-4.26202	ماین	-0.4335973
-3.748382	ماینر	-0.3015169
-3.92799	ماینینگ	-0.2916668
-4.540773	مایه	-0.5037509
-4.499381	مبارز	-0.3157042
-3.268932	مبارزه	-0.6564288
-4.218554	مبارک	-0.5076985
-4.285501	مبارکه	-0.2734028
-4.499381	مبالغ	-0.2715353
-3.777346	مبلغ	-0.3478766
-3.897321	مبنا	-0.8579877
-4.009295	مبنی	-1.254345
-3.859532	مبین	-0.6564311
-2.978481	متاسفانه	-0.2511792
-4.285501	متاسفم	-0.3932257
-4.586531	متحده	-0.3773407
-3.96099	متخصص	-0.378458
-4.499381	متخصصین	-0.3108407
-3.80838	متخلف	-0.3255025
-4.394646	متخلفین	-0.3234488
-4.336654	متصل	-0.4617437
-4.394646	متضرر	-0.4059152
-3.683441	متعلق	-1.548324
-4.499381	متفاوت	-0.2744388
-3.606275	متن	-0.3416644
-4.586531	متنی	-0.3390184
-3.96099	متهم	-0.3269691
-4.078375	متواری	-0.4505116
-4.049412	متوجه	-0.3894914
-3.734594	متوقف	-0.449979
-4.586531	متولد	-0.4682837
-4.198351	مثال	-0.3415089
-3.149838	مثل	-0.3512659
-3.35893	مثلا	-0.283349
-4.336654	مجاز	-0.2961471
-3.938714	مجازات	-0.3858479
-3.169706	مجازی	-0.3342798
-4.1258	مجبور	-0.4166095
-4.26202	مجتبی	-0.2831399
-4.093616	مجدد	-0.2645431
-3.606275	مجرم	-0.2685378
-4.02226	مجرمانه	-0.3155363
-3.72786	مجرمین	-0.279904
-3.792586	مجری	-0.3358864
-3.237577	مجلس	-0.3400708
-4.499381	مجله	-0.3350851
-3.361797	مجموعه	-0.2931145
-3.376421	مجوز	-0.3542593
-4.310325	مجوزی	-0.378918
-3.816498	مجید	-0.3535095
-4.364682	مجیدی	-0.2786329
-4.586531	محاسبات	-0.3246316
-4.310325	محاسبه	-0.2947965
-3.878016	محاکمه	-0.4352527
-3.112639	محترم	-0.3059827
-4.637683	محتوا	-0.2728795
-4.218554	محتوای	-0.3546649
-3.734594	محتوی	-0.3839539
-4.179046	محدود	-0.3378956
-4.160563	محدودیت	-0.3125483
-4.063653	محرمانه	-0.3426791
-4.049412	محرمیان	-0.5448955
-3.297735	محسن	-0.7627462
-4.063653	محصول	-0.3033448
-4.009295	محصولات	-0.2673351
-4.336654	محض	-0.3836729
-4.695675	محقق	-0.323976
-3.665712	محل	-0.3614606
-4.499381	محله	-0.3332894
-3.020946	محمد	-0.8197418
-4.42683	محمدجواد	-0.5075671
-3.996706	محمدرضا	-0.504642
-4.695675	محمدزاده	-0.2922996
-4.179046	محمدعلی	-0.4011833
-4.310325	محمدی	-0.2868874
-3.96099	محمود	-0.6680086
-3.887561	محکوم	-0.4743209
-4.142834	مخابرات	-0.4312087
-4.1258	مخابراتی	-0.3859724
-4.160563	مخاطب	-0.2848143
-4.394646	مخالف	-0.2706646
-4.239744	مختاری	-0.3328287
-4.093616	مخترع	-0.3068679
-3.800411	مختلف	-0.224839
-4.461592	مختلفی	-0.4017725
-4.499381	مخزن	-0.6364256
-4.285501	مخصوص	-0.2930101
-4.26202	مخصوصا	-0.3217307
-4.049412	مخفی	-0.3759043
-3.483869	مدارک	-0.533199
-4.461592	مدال	-0.2851664
-3.777346	مدت	-0.3999294
-4.586531	مدتها	-0.2844201
-3.949709	مدتهاست	-0.4420478
-3.792586	مدتی	-0.5193606
-4.336654	مدرس	-0.3600745
-4.461592	مدرن	-1.113906
-3.248518	مدرک	-0.432695
-3.816498	مدعی	-0.6309218
-3.949709	مدل	-0.3149842
-4.336654	مدیا	-0.305999
-2.939801	مدیر	-0.4761944
-3.302727	مدیران	-0.3784908
-4.540773	مدیرش	-0.2709863
-3.333948	مدیرعامل	-0.4584282
-3.850578	مدیره	-0.4602474
-4.336654	مدیرکل	-0.3403372
-4.10941	مدیری	-0.3659398
-3.300224	مدیریت	-0.3183816
-4.035624	مذهبی	-0.289569
-4.160563	مذکور	-0.3466215
-4.078375	مراتب	-0.3384397
-3.850578	مراجع	-0.4283651
-3.907305	مراجعه	-0.5692111
-4.42683	مراحل	-0.3260073
-4.239744	مراد	-1.041123
-4.586531	مرادزاده	-0.5632901
-4.160563	مرادی	-0.3086261
-4.540773	مراسم	-0.298458
-3.476315	مراقب	-0.4793643
-4.1258	مراکز	-0.4400663
-3.755444	مربع	-0.3682762
-3.581732	مربوط	-1.051515
-4.218554	مربوطه	-0.2997513
-3.777346	مرتبط	-0.6070597
-4.26202	مرتضوی	-0.2627004
-3.654283	مرتضی	-0.7066227
-4.499381	مرتکب	-0.3558849
-4.285501	مرجع	-0.3663957
-3.800411	مرحله	-0.4572289
-4.142834	مرد	-0.2981208
-4.540773	مرداد	-0.6273703
-2.376123	مردم	-0.3621068
-3.996706	مردمه	-0.3005315
-3.621696	مردمی	-0.4207355
-4.364682	مرده	-0.3438596
-4.42683	مردک	-0.2843708
-4.239744	مرز	-0.3546709
-4.285501	مرزهای	-0.6954751
-4.063653	مرور	-0.4071364
-4.586531	مرورگر	-0.3235625
-3.075391	مرکز	-0.5571947
-3.179046	مرکزی	-0.2829919
-4.179046	مرگ	-0.3579432
-4.499381	مریض	-0.3546757
-4.499381	مریم	-0.3009912
-3.320665	مسئول	-0.3142374
-4.637683	مسئوله	-0.2313544
-4.179046	مسئولی	-0.4691024
-3.515468	مسئولیت	-0.309354
-4.42683	مسئولیتش	-0.5227019
-4.078375	مسئولیتی	-0.2556802
-3.10941	مسئولین	-0.3407377
-4.637683	مسئولینی	-0.6882424
-4.540773	مسائل	-0.3508753
-3.917524	مسابقات	-0.3551825
-3.80838	مسابقه	-0.3497078
-4.461592	مستر	-0.3113225
-4.198351	مستردیجی	-0.3504754
-4.42683	مستضعفان	-0.5310438
-4.461592	مستعار	-0.3001025
-3.972572	مستقل	-0.3209697
-3.391554	مستقیم	-0.4028184
-3.465227	مستند	-0.3017391
-4.310325	مستندات	-0.2544841
-3.65996	مسخره	-0.6056989
-3.468892	مسدود	-0.7479708
-3.320665	مسعود	-0.7743592
-4.1258	مسلمون	-0.2961781
-4.310325	مسولین	-0.2804149
-3.762622	مسیر	-0.2857206
-3.92799	مشابه	-0.2649157
-4.049412	مشارکت	-0.446077
-3.80838	مشاهده	-0.506716
-3.833203	مشاور	-0.3831683
-3.972572	مشاوره	-0.3245636
-3.695676	مشت	-0.4456697
-3.996706	مشترک	-0.252364
-4.461592	مشترکین	-0.3095149
-3.897321	مشتری	-0.2686866
-3.917524	مشتریان	-0.3474228
-3.370512	مشخص	-0.5595224
-4.540773	مشخصا	-0.2815541
-4.218554	مشخصات	-0.3640272
-4.10941	مشخصه	-0.2349237
-4.42683	مشخصی	-0.3493062
-4.02226	مشغول	-0.4116338
-4.499381	مشغوله	-0.2957759
-4.540773	مشمول	-0.3414382
-4.218554	مشهد	-0.2976192
-4.499381	مشهدی	-0.3117909
-3.350442	مشکل	-0.2488785
-3.917524	مشکلات	-0.3089027
-3.800411	مشکلی	-0.4836188
-4.461592	مشکوک	-0.2984695
-3.632288	مصاحبه	-0.4043321
-4.364682	مصادیق	-0.4678305
-4.394646	مصداق	-0.5560911
-4.179046	مصرف	-0.33611
-4.063653	مصطفی	-0.458818
-4.762622	مصلحت	-0.4672642
-4.461592	مصنوعی	-0.2784183
-3.949709	مصوبه	-0.2850891
-4.336654	مطابق	-0.5089429
-3.376421	مطالب	-0.4357445
-3.72123	مطالبه	-0.3686827
-4.394646	مطالبی	-0.4604069
-4.336654	مطالعه	-0.4235243
-3.72123	مطرح	-0.5840676
-3.310325	مطلب	-0.3588627
-3.887561	مطلبی	-0.4993876
-4.198351	مطلع	-0.29908
-4.364682	مطلق	-0.2509888
-3.907305	مطمئن	-0.4263844
-4.394646	مطمئنم	-0.3445483
-4.586531	معادل	-0.4937314
-4.035624	معارفی	-0.2505425
-4.394646	معامله	-0.3471109
-3.283095	معاون	-0.6188475
-3.96099	معاونت	-0.4030555
-4.009295	معتبر	-0.291808
-4.461592	معدن	-0.3800263
-3.151608	معرفی	-0.5124059
-4.239744	معروف	-0.4010946
-4.26202	معلوم	-0.4438146
-4.285501	معمولا	-0.3325551
-4.461592	معمولی	-0.2831047
-3.938714	معنی	-0.3690593
-4.586531	معین	-0.3307315
-3.897321	مفت	-0.3889811
-4.540773	مفسدین	-0.253102
-4.1258	مفهوم	-0.4923474
-4.049412	مفید	-0.346866
-4.637683	مقابل	-0.2832689
-3.769922	مقابله	-0.7740391
-4.499381	مقاله	-0.3773944
-3.96099	مقام	-0.5743984
-4.42683	مقاومت	-0.3562172
-4.26202	مقایسه	-0.4569111
-4.461592	مقدار	-0.3254869
-3.887561	مقدم	-0.6031225
-4.10941	مقررات	-0.5995775
-4.42683	مقیم	-0.4658127
-3.036983	ملت	-0.2683477
-4.336654	ملکی	-0.287444
-3.244108	ملی	-0.31549
-4.499381	ممد	-0.31833
-3.149838	مملکت	-0.3099126
-4.394646	مملکته	-0.417819
-4.160563	ممنوع	-0.4774788
-4.179046	ممنون	-0.3976039
-4.049412	ممکن	-0.5894688
-3.708265	ممکنه	-0.323827
-2.435263	من	-0.2605253
-4.078375	منابع	-0.2876365
-4.394646	مناسب	-0.3010365
-4.499381	مناسبت	-0.3655775
-4.42683	مناسبی	-0.4471058
-3.972572	منافع	-0.2668807
-3.755444	منبع	-0.3797311
-2.839206	منتشر	-0.9760187
-3.532173	منتظر	-0.358552
-4.762622	منتظریم	-0.2953176
-4.049412	منتقل	-0.554599
-4.310325	منجر	-0.8111
-4.218554	منطقه	-0.372209
-4.218554	منظور	-0.294729
-4.461592	منفی	-0.3030128
-4.540773	منقضی	-0.7725655
-3.777346	منم	-0.2836968
-3.65996	منو	-0.3147348
-4.394646	منکر	-0.3501764
-4.1258	مهاجرت	-0.3263337
-3.567646	مهدی	-0.4788087
-3.996706	مهر	-0.3262778
-3.868676	مهران	-1.204009
-3.833203	مهرداد	-0.662087
-4.160563	مهرمنش	-0.3367216
-3.137653	مهم	-0.4921317
-4.586531	مهمان	-0.3064243
-4.695675	مهمتر	-0.4283666
-4.364682	مهمترین	-0.318487
-3.65996	مهمه	-0.3737868
-3.949709	مهمی	-0.3798224
-3.701925	مهندس	-0.3167308
-4.364682	مهندسی	-0.3253837
-4.461592	مو	-0.3257289
-4.336654	مواجه	-0.3231511
-4.394646	مواد	-0.3590946
-3.841804	موارد	-0.2467718
-4.218554	مواردی	-0.4564825
-4.364682	موافق	-0.3228297
-3.328586	موبایل	-0.2631899
-4.586531	موبایلتون	-0.5956033
-4.336654	موبایلی	-0.2838356
-4.499381	موتور	-0.2919231
-4.336654	موثر	-0.3061375
-4.049412	موج	-0.3187661
-4.063653	موجود	-0.3830353
-3.984471	موجودی	-0.3174561
-2.948597	مورد	-0.3031103
-3.949709	موردش	-0.4176877
-4.26202	موردی	-0.2929976
-4.142834	موز	-0.6651421
-4.336654	موسس	-0.3575117
-4.540773	موسسات	-0.3549696
-3.637684	موسسه	-0.3380354
-4.035624	موسوی	-0.3170512
-4.198351	موسی	-0.3704783
-4.586531	موسیقی	-0.2638292
-4.42683	موش	-0.3970223
-4.499381	موشک	-0.4406617
-3.017027	موضوع	-0.3095617
-4.364682	موضوعات	-0.3202262
-4.364682	موضوعی	-0.3830229
-4.499381	موظف	-0.6536836
-3.695676	موفق	-0.3946114
-3.701925	موفقیت	-0.2690255
-4.364682	موفقیتشون	-0.9140711
-4.078375	موقت	-0.3020599
-4.239744	موقع	-0.3037126
-3.480076	مولوی	-0.3117447
-4.586531	مومن	-0.5749781
-4.310325	مونده	-0.3009638
-4.093616	مکالمه	-0.2990591
-4.285501	مکان	-0.2989535
-4.239744	مکانیزم	-0.3037835
-4.394646	مگر	-0.3448372
-4.218554	مگه	-0.472747
-2.791037	می	-0.978292
-3.275956	میاد	-0.2859355
-4.285501	میارن	-0.2132582
-4.336654	میاره	-0.2739657
-3.996706	میان	-0.2903353
-4.42683	میباشد	-0.2835194
-4.394646	میبرن	-0.2760912
-4.035624	میبره	-0.3232987
-4.540773	میبنده	-0.2865987
-4.42683	میبینم	-0.3174203
-4.364682	میبینن	-0.2810129
-4.394646	میبینه	-0.3065865
-4.285501	میبینی	-0.2920682
-3.527936	میبینید	-0.319076
-4.26202	میبینیم	-0.3515882
-4.499381	میتواند	-0.367294
-3.938714	میتوانید	-0.4694361
-4.336654	میتونم	-0.2782437
-3.907305	میتونن	-0.359334
-3.353253	میتونه	-0.3268403
-4.049412	میتونی	-0.2926261
-3.179046	میتونید	-0.5104118
-3.755444	میثم	-0.85886
-4.394646	میخرن	-0.3736949
-3.701925	میخواد	-0.3159161
-4.1258	میخوام	-0.3330675
-4.218554	میخوان	-0.284697
-4.540773	میخواهید	-0.449849
-4.310325	میخوای	-0.2646077
-4.049412	میخواید	-0.5931522
-4.198351	میخورن	-0.26616
-4.1258	میخوره	-0.3325111
-4.1258	میداد	-0.3000225
-4.586531	میدادن	-0.2754715
-4.336654	میداده	-0.286536
-4.461592	میداف	-0.2959935
-3.701925	میدم	-0.348807
-3.476315	میدن	-0.2971925
-3.042463	میده	-0.3119154
-3.949709	میدهد	-0.4286983
-4.637683	میدهند	-0.3145297
-3.984471	میدونم	-0.3090298
-4.160563	میدونن	-0.3268074
-3.632288	میدونه	-0.2890795
-4.394646	میدونی	-0.2643916
-4.009295	میدونید	-0.3889513
-4.336654	میدونیم	-0.2685359
-4.093616	میدی	-0.2786914
-3.996706	میدید	-0.3312195
-3.917524	میدیم	-0.3583072
-4.461592	میذارم	-0.3125655
-4.586531	میذارن	-0.2993455
-4.499381	میذاره	-0.2586758
-3.949709	میرسه	-0.3208612
-4.499381	میرم	-0.2815083
-3.938714	میرن	-0.3688426
-3.671542	میره	-0.2555078
-4.364682	میری	-0.3055622
-4.461592	میرید	-0.3166513
-4.499381	میریم	-0.2419569
-4.42683	میز	-0.2957961
-4.394646	میزاره	-0.3063492
-3.784899	میزان	-0.290765
-4.218554	میزنم	-0.2918625
-3.792586	میزنن	-0.3032385
-3.611355	میزنه	-0.3418967
-4.394646	میزنی	-0.2400879
-4.499381	میزنید	-0.2396474
-3.938714	میزنیم	-0.3861854
-4.461592	میسازن	-0.2883657
-4.586531	میسازه	-0.3010362
-3.859532	میشد	-0.3037521
-4.637683	میشده	-0.2981308
-4.540773	میشم	-0.2617676
-3.567646	میشن	-0.304692
-4.461592	میشناسید	-0.3287619
-2.73937	میشه	-0.3540624
-3.567646	میشود	-0.3920068
-4.336654	میشوند	-0.4088939
-4.218554	میشی	-0.2868006
-4.26202	میشید	-0.2675025
-4.42683	میفته	-0.2647562
-4.239744	میفرمایند	-0.2552544
-4.198351	میفروشن	-0.3113027
-4.009295	میفروشه	-0.2930442
-4.179046	میل	-0.3140953
-3.714699	میلاد	-0.7247226
-4.02226	میلی	-0.2670451
-3.226906	میلیارد	-0.6693923
-4.461592	میلیاردر	-0.3523235
-3.938714	میلیاردها	-0.6790841
-3.683441	میلیاردی	-0.3330562
-2.863167	میلیون	-0.6841493
-3.907305	میلیونها	-0.7053867
-3.82477	میلیونی	-0.2707146
-4.310325	میمونه	-0.2686895
-4.586531	میندازن	-0.3286137
-4.540773	میندازه	-0.343282
-4.499381	مینویسم	-0.2823733
-4.26202	میپردازیم	-0.3920952
-4.461592	میچرخه	-0.3276867
-3.741433	میکرد	-0.3191648
-4.179046	میکردم	-0.2834082
-3.907305	میکردن	-0.3659604
-3.816498	میکرده	-0.3268039
-4.637683	میکردی	-0.2893632
-4.364682	میکردید	-0.2792201
-4.586531	میکردیم	-0.3495911
-4.394646	میکشه	-0.282655
-3.558502	میکند	-0.3709438
-3.137653	میکنم	-0.3302236
-2.888527	میکنن	-0.3364488
-3.683441	میکنند	-0.3806472
-2.723208	میکنه	-0.3383423
-3.56305	میکنی	-0.3116608
-3.318057	میکنید	-0.2585127
-2.997948	میکنیم	-0.4319925
-4.179046	میگذره	-0.4148356
-4.540773	میگرده	-0.328721
-4.586531	میگرفته	-0.328765
-3.769922	میگم	-0.255702
-3.72123	میگن	-0.25451
-3.43697	میگه	-0.2303705
-4.049412	میگی	-0.302075
-4.310325	میگید	-0.3270264
-4.540773	میگیرم	-0.2609255
-3.671542	میگیرن	-0.4043696
-3.4202	میگیره	-0.3932902
-4.142834	میگیری	-0.2686768
-4.499381	میگیرید	-0.3245555
-3.949709	میگیم	-0.3135644
-3.792586	ن	-0.3084888
-4.049412	نا	-0.6457407
-3.80838	نااگاه	-0.2923718
-4.198351	نااگاهی	-0.4333313
-4.26202	نابود	-0.3290822
-4.499381	نابودی	-0.2950881
-4.1258	ناجا	-0.3195846
-4.461592	ناجی	-0.3152166
-4.336654	ناحیه	-0.7925918
-4.540773	ناخواسته	-0.385433
-4.394646	نادان	-0.2497359
-4.499381	نادر	-0.3977612
-4.42683	ناراحت	-0.3507885
-4.586531	ناراضی	-0.3937211
-4.26202	ناشناس	-0.2639148
-3.984471	ناصر	-0.7889214
-3.356082	ناظر	-0.4461047
-4.239744	ناظمی	-0.3457961
-4.310325	ناقابل	-0.3446829
-4.42683	ناقص	-0.2899994
-3.066557	نام	-0.3003727
-4.586531	نامبرده	-0.3168141
-4.637683	نامدار	-0.3013341
-4.364682	نامشروع	-0.2343275
-3.443864	نامه	-0.2503389
-4.461592	نایب	-0.6986723
-4.394646	نباش	-0.2991642
-3.897321	نباشه	-0.2911395
-3.80838	نباشید	-0.3573993
-3.714699	نباید	-0.2962649
-3.581732	نبود	-0.294018
-4.42683	نبودن	-0.2702891
-3.82477	نبوده	-0.3476213
-4.364682	نت	-0.3364612
-4.02226	نتایج	-0.3833694
-4.637683	نتونسته	-0.3192147
-4.26202	نتیجش	-0.4222327
-3.382411	نتیجه	-0.3643454
-4.063653	نجات	-0.362596
-3.96099	نحوه	-0.4150609
-4.499381	نحوی	-0.4319054
-4.160563	نخبه	-0.2814458
-4.26202	نخستین	-0.2991302
-3.996706	نخواهد	-0.6077145
-4.461592	نخواهند	-0.3940883
-4.078375	نخورید	-0.3390963
-4.394646	نداد	-0.3561611
-4.26202	ندادن	-0.2637286
-4.063653	نداده	-0.3923253
-3.491555	ندارد	-0.3729996
-3.714699	ندارم	-0.311908
-3.52374	ندارن	-0.332522
-4.336654	ندارند	-0.290786
-2.911364	نداره	-0.3793094
-4.285501	نداری	-0.2682035
-3.887561	ندارید	-0.2613243
-3.671542	نداریم	-0.3378515
-4.063653	نداشت	-0.2762249
-4.26202	نداشتن	-0.2878952
-3.683441	نداشته	-0.3567978
-4.461592	نده	-0.2779326
-3.938714	ندید	-0.2731715
-4.540773	ندیدم	-0.3017761
-4.499381	ندیدن	-0.2700756
-4.239744	ندیده	-0.3316292
-4.285501	ندیدید	-0.4566425
-4.461592	نرسیده	-0.3224742
-4.540773	نرفته	-0.3277949
-3.907305	نرم	-0.661494
-3.859532	نره	-0.3291657
-4.540773	نریمان	-0.6529286
-4.540773	نریمانی	-0.4596766
-4.009295	نزدیک	-0.353369
-4.499381	نزن	-0.2931672
-4.285501	نسب	-0.2680225
-3.654283	نسبت	-0.967998
-3.339376	نسخه	-0.4263066
-4.499381	نسل	-0.3355449
-3.586531	نشان	-0.4834855
-4.461592	نشانه	-0.3449382
-4.586531	نشانی	-0.3194514
-3.878016	نشت	-0.639385
-3.499381	نشد	-0.3639335
-4.1258	نشدن	-0.3233673
-3.214438	نشده	-0.4562392
-4.239744	نشر	-0.4896148
-4.336654	نشست	-0.4137865
-4.540773	نشستن	-0.328501
-4.336654	نشسته	-0.303602
-3.917524	نشه	-0.3144295
-3.450868	نشون	-0.6680064
-4.42683	نشید	-0.3127274
-3.315464	نصب	-0.4285883
-4.239744	نصف	-0.3629776
-3.532173	نظارت	-0.4014592
-3.769922	نظارتی	-0.3151639
-3.62696	نظام	-0.470599
-4.637683	نظامی	-0.2819789
-3.019635	نظر	-0.4956313
-4.26202	نظرات	-0.3252477
-4.198351	نظرتون	-0.6278557
-4.160563	نظرسنجی	-0.346586
-4.461592	نظرش	-0.5205
-4.035624	نظرم	-0.290307
-4.26202	نظری	-0.3379789
-4.540773	نظریه	-0.3186503
-3.151608	نفر	-0.3329195
-4.461592	نفره	-0.299418
-4.035624	نفری	-0.552493
-4.198351	نفع	-0.3236466
-3.816498	نفوذ	-0.3201831
-4.078375	نقد	-0.2913364
-4.586531	نقدی	-0.3831203
-4.394646	نقره	-0.7249987
-3.708265	نقش	-0.3820847
-4.336654	نقشه	-0.3564671
-4.499381	نقض	-0.4187969
-4.035624	نقطه	-0.4054159
-4.035624	نقل	-0.9132528
-4.10941	نماد	-0.4128357
-4.540773	نماید	-0.3310165
-3.897321	نمایش	-0.3714136
-4.695675	نمایشنامه	-0.3198222
-4.461592	نمایشگاه	-0.3973334
-4.239744	نمایند	-0.3469926
-3.356082	نماینده	-0.5839116
-4.394646	نمایندگان	-0.6523854
-4.063653	نمایندگی	-0.3157943
-4.586531	نمایید	-0.3763933
-4.499381	نمود	-0.3849103
-4.394646	نموده	-0.5569458
-3.268932	نمونه	-0.3007994
-3.72123	نمی	-0.5083646
-3.938714	نمیاد	-0.2978525
-4.586531	نمیبینن	-0.3488472
-4.42683	نمیبینه	-0.3099785
-4.336654	نمیبینید	-0.2813373
-4.198351	نمیتونم	-0.3508048
-4.42683	نمیتونن	-0.2859775
-3.833203	نمیتونه	-0.2752829
-4.461592	نمیتونی	-0.2795185
-4.1258	نمیخواد	-0.2826934
-4.42683	نمیخوام	-0.2798836
-4.499381	نمیخوره	-0.2914994
-4.198351	نمیدن	-0.2830406
-3.887561	نمیده	-0.3501383
-4.637683	نمیدهد	-0.2932513
-3.519584	نمیدونم	-0.3677246
-4.078375	نمیدونن	-0.2761143
-3.816498	نمیدونه	-0.3129231
-4.461592	نمیدونی	-0.3011622
-4.02226	نمیدونید	-0.3083535
-4.394646	نمیدونیم	-0.2994179
-3.938714	نمیرسه	-0.3309286
-4.198351	نمیره	-0.3007869
-4.336654	نمیشد	-0.3140926
-4.461592	نمیشن	-0.3288307
-4.637683	نمیشناسه	-0.3062669
-3.344874	نمیشه	-0.2449935
-4.364682	نمیشود	-0.3686655
-4.42683	نمیکرد	-0.2864691
-4.394646	نمیکند	-0.3428279
-4.142834	نمیکنم	-0.2895013
-3.850578	نمیکنن	-0.3326217
-3.49545	نمیکنه	-0.2837388
-4.035624	نمیکنید	-0.2685089
-4.218554	نمیگه	-0.2985322
-4.499381	نمیگیرن	-0.4086446
-4.310325	نمیگیره	-0.4766209
-4.461592	ننگ	-0.2825701
-4.42683	ننگین	-0.7098404
-2.795699	نه	-0.2604653
-3.62696	نهاد	-0.4778645
-4.198351	نهادهای	-0.3908685
-3.800411	نهایت	-0.2890795
-4.035624	نهایی	-0.2587159
-4.336654	نو	-0.3381151
-4.198351	نوبت	-0.4479758
-4.586531	نوبیتکس	-0.3017622
-4.336654	نوتی	-0.2738369
-4.394646	نور	-0.2974218
-4.26202	نوروزی	-0.2983204
-4.499381	نوش	-0.3973219
-4.02226	نوشت	-0.3364387
-4.160563	نوشتم	-0.3694558
-4.093616	نوشتن	-0.2545455
-3.532173	نوشته	-0.3229851
-4.310325	نوشتیم	-0.3162599
-3.701925	نوع	-0.3344092
-3.887561	نون	-0.4275357
-4.179046	نویس	-0.2849886
-4.461592	نویسنده	-0.3116603
-4.461592	نویسی	-0.2996206
-3.755444	نوین	-0.4999309
-3.769922	نژاد	-0.3315277
-4.42683	نکات	-0.3667235
-3.777346	نکته	-0.4622383
-4.049412	نکرد	-0.3533208
-4.198351	نکردم	-0.2604175
-3.972572	نکردن	-0.2754137
-3.558502	نکرده	-0.3420413
-4.26202	نکردید	-0.2783782
-4.1258	نکن	-0.2809037
-4.394646	نکنن	-0.3348764
-4.586531	نکنند	-0.4069036
-3.972572	نکنه	-0.2766263
-4.540773	نکنی	-0.3388158
-3.336653	نکنید	-0.3436494
-4.218554	نکنیم	-0.3018717
-4.499381	نگار	-0.2825664
-3.82477	نگاه	-0.3927815
-4.499381	نگاهی	-0.8923278
-3.606275	نگران	-0.3732511
-4.198351	نگرانی	-0.3400398
-4.394646	نگرفته	-0.3023984
-4.42683	نگفت	-0.4154227
-4.364682	نگه	-0.3722923
-4.285501	نگهداری	-0.3579859
-4.285501	نگید	-0.2946552
-4.336654	نیا	-0.2764282
-4.394646	نیاد	-0.3481157
-3.632288	نیاز	-0.5862812
-3.887561	نیازی	-0.670104
-4.310325	نیرو	-0.4453821
-4.586531	نیروهای	-0.3354695
-4.035624	نیروی	-0.5078046
-3.576986	نیز	-0.3109031
-2.528358	نیست	-0.3994681
-4.009295	نیستم	-0.4178961
-3.887561	نیستن	-0.3010701
-4.364682	نیستند	-0.2897315
-4.394646	نیستی	-0.2600026
-4.198351	نیستید	-0.2672527
-4.239744	نیستیم	-0.3384731
-4.239744	نیم	-0.4867282
-4.26202	نیما	-0.2911295
-4.540773	نیمه	-0.3113171
-4.586531	نیوز	-0.3272343
-4.540773	نیومده	-0.2315819
-4.160563	نیویورک	-0.275705
-4.499381	نیک	-0.3241338
-4.461592	نیکی	-0.8110904
-3.391554	ه	-0.3257377
-2.238659	ها	-0.3236129
-4.063653	هاب	-0.5135168
-4.499381	هاتون	-0.3567933
-3.80838	هادی	-0.7483555
-3.616494	هاست	-0.344904
-3.762622	هاش	-0.2740722
-4.364682	هاشمی	-0.238296
-4.540773	هاشو	-0.3001195
-4.26202	هاشون	-0.3266222
-3.596291	هاوس	-0.3713901
-2.009422	های	-0.4711223
-3.130841	هایی	-0.7052485
-4.10941	هدایت	-0.383104
-4.394646	هدر	-0.4760898
-3.339376	هدف	-0.3324837
-4.461592	هدفش	-0.278998
-4.336654	هدفی	-0.2647506
-4.26202	هدیه	-0.2750473
-2.654283	هر	-0.6113436
-3.342116	هرمی	-0.3299839
-4.078375	هرچند	-0.6198986
-4.461592	هرچه	-0.4662706
-3.868676	هرچی	-0.2586674
-4.499381	هرکی	-0.3015221
-3.907305	هرگونه	-0.3847683
-2.878961	هزار	-0.6686512
-3.51139	هزاران	-0.5702283
-4.586531	هزارتا	-0.2738988
-3.280702	هزینه	-0.3601907
-3.342116	هست	-0.3145412
-3.762622	هستم	-0.2909101
-3.62696	هستن	-0.3287311
-3.002954	هستند	-0.3333769
-4.1258	هستی	-0.2853898
-3.4202	هستید	-0.3887783
-3.465227	هستیم	-0.4043722
-4.26202	هش	-0.2776725
-4.499381	هشت	-0.3894139
-4.586531	هشتصد	-0.7401926
-3.454414	هشتگ	-0.8871542
-2.976108	هشدار	-0.4878965
-4.461592	هفت	-0.3348885
-3.689515	هفته	-0.4463947
-4.336654	هلدینگ	-0.3600948
-2.103657	هم	-0.1713348
-4.218554	همان	-0.3150688
-4.499381	همانطور	-1.068896
-4.461592	هماهنگ	-0.3614617
-4.239744	هماهنگی	-0.2600302
-3.841804	همایش	-0.3686498
-4.179046	همت	-0.3181858
-4.461592	همتون	-0.2833413
-3.92799	همتی	-0.3989702
-4.42683	همدست	-0.2749033
-4.586531	همدستی	-0.3637689
-3.065102	همراه	-0.4686775
-4.586531	همراهی	-0.3034039
-3.443864	همزمان	-0.291149
-4.586531	همسرش	-0.2810071
-3.816498	همش	-0.3496609
-4.1258	همشون	-0.2868409
-4.499381	هممون	-0.3796706
-2.578404	همه	-0.3995418
-4.336654	هموطن	-0.3248802
-4.394646	هموطنان	-0.3009456
-3.129154	همون	-0.3376883
-4.179046	همونطور	-1.369925
-4.540773	همونقدر	-0.4274558
-3.26202	همچنان	-0.3220504
-3.536452	همچنین	-0.2975838
-3.65996	همچون	-0.2980639
-3.708265	همچین	-0.3803431
-4.461592	همکار	-0.2671914
-4.540773	همکاران	-0.3654929
-3.468892	همکاری	-0.2561527
-3.601254	همکنون	-0.331917
-4.637683	همگی	-0.2767521
-4.26202	همیار	-1.146051
-3.388485	همیشه	-0.2634172
-4.336654	همیشگی	-0.2975138
-2.764799	همین	-0.3774039
-4.009295	همینجا	-0.3536533
-4.142834	همینقدر	-0.3037493
-4.10941	همینه	-0.3669516
-4.218554	هنر	-0.259638
-2.951942	هنوز	-0.3600945
-4.499381	هنگام	-0.3785452
-4.035624	هوا	-0.3384043
-4.198351	هوش	-0.4189609
-3.82477	هوشمند	-0.3215915
-4.499381	هولدینگ	-0.3014031
-3.307777	هویت	-0.2883294
-3.637684	هویتی	-0.3700584
-3.194421	هک	-0.4692521
-3.433563	هکر	-0.3476042
-4.239744	هکرها	-0.2923058
-4.364682	هکرهای	-0.4543123
-4.42683	هی	-0.2886717
-4.160563	هیئت	-0.8649198
-4.009295	هیات	-0.8319259
-4.586531	هیج	-0.3582585
-2.749785	هیچ	-0.5350431
-3.755444	هیچی	-0.2490786
-1.394366	و	-0.03018967
-4.093616	وابسته	-0.9850896
-4.198351	واحد	-0.2663263
-3.586531	وارد	-0.3973079
-4.394646	واردات	-0.3754071
-3.769922	واریز	-0.3709594
-4.461592	واریزی	-0.3480383
-4.42683	واسط	-0.4355777
-3.996706	واسطه	-0.2820452
-4.42683	واسه	-0.296302
-4.285501	واضح	-0.2945081
-4.461592	واضحه	-0.3286283
-4.10941	واقع	-0.3874587
-3.454414	واقعا	-0.3701434
-3.62696	واقعی	-0.2626958
-4.02226	واقعیت	-0.3951997
-4.078375	وان	-0.4758654
-4.049412	واژه	-0.3863883
-3.949709	واکنش	-0.3979448
-4.461592	واگذار	-0.4811271
-4.586531	وایت	-0.5985942
-4.637683	وایزلینگ	-0.3267034
-2.563507	وب	-1.502494
-3.714699	وبسایت	-0.4230084
-4.42683	وثیقه	-0.4263115
-4.540773	وجدان	-0.3296741
-4.285501	وجه	-0.3330297
-3.129154	وجود	-0.5743984
-4.179046	وجودی	-1.085962
-4.42683	وجوه	-0.4648672
-4.540773	وجیهی	-0.2771295
-3.907305	وحید	-0.6719193
-4.499381	ور	-0.3495157
-4.499381	ورد	-0.6988199
-4.364682	ورزشی	-0.3073595
-4.586531	ورق	-0.3584839
-3.606275	ورود	-0.4138612
-4.586531	ورودی	-0.3220308
-3.060767	وزارت	-0.9040201
-2.984471	وزیر	-0.4649465
-3.897321	وس	-0.3316437
-3.576986	وسط	-0.3889796
-4.198351	وصل	-0.297796
-4.586531	وصله	-0.3571929
-4.586531	وصول	-0.3702388
-3.800411	وضع	-0.3762264
-3.591383	وضعیت	-0.3444869
-4.336654	وضوح	-0.3556345
-4.637683	وطن	-0.2996575
-4.586531	وظایف	-0.3959771
-3.755444	وظیفه	-0.3861159
-3.741433	وعده	-0.3447128
-4.586531	وقاحت	-0.3254887
-3.070951	وقت	-0.295927
-4.364682	وقتشه	-0.4431411
-3.095169	وقتی	-0.2673474
-4.42683	وقوع	-0.3787885
-4.009295	ول	-0.406308
-4.586531	ولت	-0.342055
-2.558502	ولی	-0.3854207
-4.637683	وهوشی	-0.2945971
-4.499381	ووچر	-0.3270835
-3.714699	وکیل	-0.2873337
-3.984471	وگرنه	-0.2842744
-3.461592	وی	-0.429994
-2.947488	ویدیو	-0.3871973
-4.637683	ویدیویی	-0.3849914
-4.586531	ویرایش	-0.3039832
-3.769922	ویروس	-0.4613777
-3.769922	ویس	-0.3885424
-4.285501	ویسپی	-0.2739301
-4.461592	ویندوز	-0.3333665
-3.734594	ویژه	-0.3121991
-3.643147	٪	-0.2948467
-4.310325	٫	-0.2928836
-3.800411	پ	-1.454616
-4.179046	پا	-0.3157141
-4.461592	پارس	-0.432416
-3.868676	پارسا	-0.3146011
-4.540773	پارسال	-0.294603
-4.310325	پارسیان	-0.3104977
-4.499381	پاره	-0.3780646
-4.26202	پاسارگاد	-0.3150776
-3.457988	پاسخ	-0.4052588
-4.02226	پاسخگو	-0.4324123
-4.461592	پاسخگویی	-0.3635266
-4.364682	پاسپورت	-0.3130421
-4.586531	پاش	-0.324397
-4.093616	پامپ	-0.64411
-3.257472	پانزی	-0.3908801
-4.42683	پاچه	-0.378554
-3.777346	پاک	-0.4835222
-3.917524	پای	-0.3259163
-4.310325	پایا	-0.5828403
-3.671542	پایان	-0.3482343
-4.198351	پایه	-0.4355696
-4.285501	پایگاه	-0.4785493
-3.741433	پایین	-0.3176905
-3.344874	پخش	-0.4056266
-4.394646	پدافند	-0.9029549
-3.654283	پدر	-0.398378
-4.637683	پدرش	-0.2878283
-4.461592	پذیر	-0.3591928
-4.336654	پذیرش	-0.3147595
-4.049412	پذیرنده	-0.4352738
-4.179046	پذیری	-0.2666088
-3.491555	پر	-0.5092131
-4.394646	پراکسی	-0.3048976
-2.759737	پرداخت	-0.3351007
-4.42683	پرداختش	-0.4132634
-4.26202	پرداخته	-0.2825977
-4.461592	پرداختی	-0.337095
-4.179046	پرداز	-0.3589875
-4.499381	پردازان	-0.3592043
-4.42683	پردازش	-0.4445528
-3.734594	پرده	-0.3596301
-4.586531	پرزنت	-0.2713948
-4.42683	پرسش	-0.5969389
-4.239744	پرسید	-0.3480559
-4.637683	پرسیده	-0.2881426
-4.586531	پرشین	-0.2817763
-3.665712	پرهام	-0.4196745
-4.364682	پروانه	-0.3228262
-3.996706	پروفایل	-0.3376606
-3.833203	پروفسور	-0.4361719
-4.364682	پرومو	-0.4345342
-4.499381	پروموت	-0.3162991
-3.038347	پرونده	-0.3376645
-3.0579	پروژه	-0.4677026
-4.499381	پز	-0.3237691
-4.364682	پزشکی	-0.2972448
-2.850578	پس	-0.641423
-3.310325	پست	-0.4200467
-3.545138	پسر	-0.3292002
-4.499381	پسرش	-0.2668719
-3.996706	پسورد	-0.2879879
-3.376421	پشت	-0.5399967
-4.499381	پشتش	-0.2801251
-4.394646	پشتوانه	-0.2927013
-4.160563	پشتیبانی	-0.2843547
-4.586531	پلاک	-0.6729009
-3.972572	پلتفرم	-0.3580796
-4.499381	پلمب	-0.3638627
-4.540773	پلنگی	-0.3929714
-2.953063	پلیس	-0.7306325
-3.82477	پلیسی	-0.5248755
-4.198351	پناهنده	-0.4247972
-4.218554	پناهندگی	-0.2457862
-4.160563	پنج	-0.4285533
-4.499381	پنجم	-0.3248716
-4.637683	پندار	-0.4704983
-4.285501	پنل	-0.2884884
-3.96099	پنهان	-0.4479765
-4.160563	پهن	-0.4300806
-3.643147	پور	-0.3624001
-4.179046	پورن	-0.2878705
-4.364682	پوز	-0.2964118
-4.364682	پوست	-0.3885401
-3.938714	پوشش	-0.3793056
-4.540773	پوششی	-0.3024843
-4.42683	پوشه	-0.2917595
-2.681635	پول	-0.3702911
-3.917524	پولای	-0.5926054
-4.285501	پولتون	-0.515983
-4.078375	پولدار	-0.4021271
-4.637683	پولش	-0.2974384
-4.42683	پولشو	-0.3023031
-4.239744	پولشون	-0.432883
-3.367587	پولشویی	-0.3656862
-4.285501	پوله	-0.2625884
-4.461592	پولها	-0.595263
-4.02226	پولهای	-0.5640058
-3.581732	پولی	-0.5344602
-4.42683	پوچ	-0.3425956
-3.96099	پویا	-0.2436003
-4.142834	پویان	-0.8666748
-4.499381	پویش	-0.7402964
-4.009295	پکیج	-0.4303208
-3.394645	پی	-0.4105347
-4.499381	پیاده	-0.5398857
-3.266616	پیام	-0.5626385
-4.364682	پیامرسان	-0.335484
-3.43697	پیامک	-0.3805014
-3.972572	پیامکی	-0.2559411
-3.536452	پیج	-0.4475905
-4.540773	پیجش	-0.4066928
-3.224803	پیدا	-0.6891165
-4.42683	پیداش	-0.3831892
-4.310325	پیرو	-0.2954621
-3.013144	پیش	-0.3124337
-4.142834	پیشبینی	-0.3059888
-4.02226	پیشتر	-0.4310552
-4.364682	پیشرفت	-0.3564343
-4.26202	پیشفرض	-0.2648683
-3.80838	پیشنهاد	-0.3612278
-4.461592	پیشنهادی	-0.3248948
-4.310325	پیشگیری	-0.4409318
-4.364682	پینوکیو	-0.3618786
-4.695675	پیپر	-0.2897984
-4.310325	پیچیده	-0.4331449
-3.938714	پیگیر	-0.3128507
-3.43697	پیگیری	-0.3195573
-4.586531	چارخونه	-0.3755527
-4.26202	چالش	-0.4428662
-4.637683	چاپ	-0.3123478
-3.96099	چت	-0.3983085
-4.364682	چخبر	-0.3824539
-3.887561	چخبره	-0.3830756
-2.679239	چرا	-0.315881
-4.540773	چرند	-0.2984957
-4.499381	چرندیات	-0.2621724
-3.96099	چشم	-0.3177376
-3.290354	چطور	-0.3358128
-3.695676	چطوری	-0.2826084
-3.198351	چقدر	-0.3564938
-3.039714	چند	-0.5765767
-3.92799	چندین	-0.3782246
-4.198351	چنین	-0.3239742
-2.736634	چه	-0.3891634
-3.917524	چهار	-0.4857498
-4.499381	چهارم	-0.2537549
-4.26202	چهره	-0.5012842
-4.394646	چوب	-0.3934358
-3.0249	چون	-0.2191724
-4.499381	چپ	-0.305044
-3.92799	چک	-0.487817
-3.748382	چکار	-0.6020575
-4.364682	چکاره	-0.5372241
-3.833203	چگونه	-0.3350576
-4.586531	چگونگی	-0.2995722
-3.004215	چی	-0.3891089
-3.841804	چیز	-0.3442205
-4.310325	چیزا	-0.3793471
-4.461592	چیزایی	-0.2906711
-3.194421	چیزی	-0.5197473
-3.576986	چیست	-0.449553
-4.02226	چین	-0.2896769
-4.239744	چینی	-0.3435201
-3.273602	چیه	-0.3255525
-4.499381	ژل	-0.7221481
-4.42683	ژن	-0.5172613
-4.394646	ک	-0.2936967
-4.762622	کاج	-0.2715983
-3.984471	کادوس	-0.8580299
-2.727193	کار	-0.2364536
-4.142834	کارا	-0.4228809
-3.996706	کارافرین	-0.3418013
-4.26202	کارافرینی	-0.2879762
-4.499381	کارای	-0.325438
-3.364682	کاربر	-0.2656929
-3.379405	کاربران	-0.3253685
-4.499381	کاربرانش	-0.3581611
-4.637683	کاربردی	-0.2891538
-3.887561	کاربری	-0.3501481
-2.953063	کارت	-0.5322157
-3.897321	کارتل	-0.6073891
-3.816498	کارش	-0.2993473
-3.683441	کارشناس	-0.3156294
-4.1258	کارشناسان	-0.3161347
-4.26202	کارشناسی	-0.3499126
-4.461592	کارشو	-0.3133961
-4.063653	کارشون	-0.3439048
-4.078375	کارمند	-0.3379726
-4.394646	کارمندان	-0.2919995
-4.218554	کارنامه	-0.371823
-4.42683	کاره	-0.4238645
-4.336654	کارها	-0.2510194
-3.859532	کارهای	-0.3673725
-4.695675	کارهایی	-0.5111773
-4.198351	کارو	-0.3519588
-4.42683	کارگروه	-0.497775
-3.273602	کاری	-0.3238012
-4.394646	کارینا	-0.3275502
-4.637683	کاریه	-0.3238595
-4.42683	کازینو	-0.3271033
-4.586531	کازینوی	-0.5112528
-4.586531	کاسب	-0.2622709
-4.179046	کاسبی	-0.2800733
-3.82477	کاش	-0.3788835
-3.996706	کاشانی	-0.3310152
-4.26202	کاشف	-0.2491699
-4.198351	کاظمی	-0.2823362
-4.637683	کاغذ	-0.3311464
-3.621696	کافه	-1.617833
-3.800411	کافی	-0.4128045
-3.949709	کافیه	-0.3198258
-4.364682	کالا	-0.2937561
-4.586531	کالای	-0.5440193
-4.310325	کالج	-0.6146774
-3.519584	کامل	-0.2842098
-4.049412	کاملا	-0.3084742
-3.938714	کامنت	-0.463813
-4.310325	کامپیوتر	-0.303304
-4.310325	کامیابان	-1.230425
-3.907305	کانادا	-0.2570543
-2.706353	کانال	-0.3991969
-4.26202	کانالش	-0.2966783
-4.586531	کانالی	-0.3359218
-4.310325	کاهش	-0.3018615
-4.218554	کاوه	-0.7591211
-4.42683	کت	-0.6441904
-3.907305	کتاب	-0.2894579
-4.499381	کتک	-0.5735734
-3.741433	کثافت	-0.8112733
-3.762622	کثیف	-0.3150811
-4.762622	کثیفی	-0.3868611
-3.606275	کجا	-0.2951394
-3.878016	کجاست	-0.3236811
-4.540773	کجان	-0.3375249
-4.540773	کجای	-0.405156
-4.586531	کجایی	-0.3079973
-3.447352	کد	-0.4211788
-4.461592	کدام	-0.2899138
-4.142834	کدملی	-0.2798497
-4.285501	کدهای	-0.4094833
-3.784899	کدوم	-0.3523226
-4.310325	کذب	-0.3634057
-4.540773	کربلایی	-0.3197896
-2.686467	کرد	-0.3817477
-3.264312	کردم	-0.3054112
-2.639315	کردن	-0.3023883
-3.65996	کردند	-0.41835
-2.520827	کرده	-0.4506242
-3.648679	کردی	-0.2831075
-4.540773	کردیت	-0.4651603
-3.491555	کردید	-0.2850614
-3.212394	کردیم	-0.3940134
-4.1258	کرمی	-0.325284
-4.336654	کره	-0.3006835
-4.093616	کرونا	-0.3194394
-4.049412	کریمی	-0.30382
-4.364682	کریپتو	-0.26917
-4.035624	کریپتولند	-0.3159099
-3.572291	کس	-0.3782806
-3.748382	کسانی	-0.5332588
-3.059331	کسب	-0.9057918
-4.285501	کسر	-0.4258488
-3.035624	کسی	-0.4699394
-4.239744	کش	-0.3074849
-4.10941	کشف	-0.4007689
-2.538176	کشور	-0.243765
-3.833203	کشوره	-0.3378432
-4.310325	کشورهای	-0.3681256
-3.616494	کشوری	-0.6048024
-4.1258	کشی	-0.3127542
-4.586531	کشید	-0.32113
-4.239744	کشیدن	-0.2574916
-4.310325	کشیده	-0.3614728
-4.160563	کف	-0.4421106
-3.440403	کل	-0.480934
-3.741433	کلا	-0.2464712
-3.540774	کلاب	-1.383531
-3.82477	کلاس	-0.4649201
-4.42683	کلان	-0.3739806
-3.784899	کلاه	-0.4082913
-2.640953	کلاهبردار	-0.3635707
-4.637683	کلاهبردارا	-0.3232487
-3.370512	کلاهبرداران	-0.3507552
-3.841804	کلاهبردارن	-0.27149
-4.142834	کلاهبرداره	-0.2659987
-3.689515	کلاهبردارها	-0.2874715
-4.285501	کلاهبردارهای	-0.3950317
-2.524995	کلاهبرداری	-0.4809111
-4.586531	کلاهبرداریش	-0.3016183
-4.093616	کلاهبرداریه	-0.4248247
-4.394646	کلفت	-0.3442129
-4.540773	کلمه	-0.2901511
-4.499381	کلود	-0.4551471
-3.972572	کلی	-0.2938178
-4.02226	کلید	-0.3838142
-4.586531	کلیدی	-0.2863474
-4.499381	کلیه	-0.2972123
-3.96099	کلیپ	-0.2725443
-4.364682	کلیک	-0.4221449
-3.487695	کم	-0.3569681
-4.461592	کمال	-0.3974796
-4.049412	کمالیان	-0.3109007
-4.160563	کمتر	-0.472881
-4.540773	کمپانی	-0.3933548
-4.009295	کمپین	-0.3858792
-3.275956	کمک	-0.4452454
-4.336654	کمکی	-0.3922593
-3.92799	کمی	-0.3007994
-4.179046	کمیته	-0.416118
-3.96099	کمیسیون	-0.436877
-3.192469	کن	-0.2782034
-4.035624	کنار	-0.3045888
-3.868676	کنترل	-0.3081473
-3.413669	کند	-0.3437261
-3.850578	کنفرانس	-0.405845
-3.255216	کنم	-0.2840238
-3.198351	کنن	-0.3281457
-3.450868	کنند	-0.3423192
-3.416922	کننده	-0.2817473
-4.160563	کنندگان	-0.3233223
-2.833203	کنه	-0.3453228
-4.540773	کنون	-0.3445773
-4.394646	کنکور	-0.3022533
-3.430184	کنی	-0.315806
-2.382713	کنید	-0.5093576
-3.1411	کنیم	-0.3343582
-1.630683	که	-0.2901528
-3.800411	کوتاه	-0.2511738
-4.364682	کوتاهی	-0.2806758
-3.689515	کودک	-0.8034274
-4.160563	کودکان	-0.4609584
-4.540773	کوفت	-0.3976113
-4.394646	کوچه	-0.2848296
-4.364682	کوچک	-0.2796869
-4.586531	کوچیک	-0.261513
-3.248518	کوین	-0.3811185
-3.868676	کپی	-0.4768407
-4.239744	کک	-0.3022459
-3.49545	کی	-0.3511738
-4.586531	کیا	-0.284537
-4.160563	کیان	-0.6316735
-4.637683	کیس	-0.5435163
-3.701925	کیست	-0.4689729
-3.769922	کیش	-0.2693968
-4.035624	کیف	-0.7289427
-4.26202	کیفیت	-0.3170743
-4.198351	کینگ	-0.9206374
-3.606275	کیه	-0.3157429
-4.310325	گاز	-0.2977216
-4.394646	گام	-0.3538209
-4.540773	گاهی	-0.3642885
-4.009295	گذار	-0.3228953
-4.198351	گذاران	-0.2776135
-3.28792	گذاری	-0.3497607
-4.586531	گذاشت	-0.4208351
-4.586531	گذاشتم	-0.2801535
-3.984471	گذاشتن	-0.2558566
-3.82477	گذاشته	-0.354841
-4.1258	گذشت	-0.4695459
-3.596291	گذشته	-0.3034221
-4.336654	گرامی	-0.285683
-4.540773	گران	-0.340988
-4.142834	گرداب	-0.3747172
-3.695676	گرداننده	-0.4932003
-3.80838	گردانندگان	-0.5368911
-4.364682	گردش	-0.7412009
-3.841804	گردن	-0.387329
-4.394646	گردید	-0.2549722
-3.499381	گرفت	-0.320093
-4.142834	گرفتم	-0.3551757
-3.347649	گرفتن	-0.3113894
-4.586531	گرفتند	-0.3235693
-3.175286	گرفته	-0.3865805
-4.364682	گرفتیم	-0.3556628
-3.859532	گرم	-0.4098508
-3.099864	گروه	-0.306407
-4.394646	گروهک	-0.3149436
-3.984471	گروهی	-0.360885
-4.42683	گرگ	-0.3925436
-4.461592	گری	-0.2771256
-4.310325	گریه	-0.45377
-2.945277	گزارش	-0.3711279
-4.1258	گزارشی	-0.5627387
-4.239744	گزاری	-0.5146444
-4.285501	گزینه	-0.3336136
-4.160563	گستران	-0.6323928
-3.307777	گسترده	-0.3173478
-4.394646	گستردگی	-0.483749
-3.984471	گسترش	-0.4656625
-3.503347	گفت	-0.2822487
-3.887561	گفتم	-0.27823
-3.938714	گفتن	-0.3607971
-3.483869	گفته	-0.3395188
-3.897321	گفتگو	-0.5116175
-4.198351	گفتگوی	-0.4510117
-4.10941	گفتیم	-0.2385574
-3.833203	گل	-0.3181391
-4.586531	گند	-0.2824528
-4.364682	گنده	-0.321779
-4.218554	گو	-0.3569621
-4.499381	گواهینامه	-0.3592407
-3.554002	گوش	-0.5108815
-4.394646	گوشه	-0.4751224
-4.239744	گوشی	-0.3224021
-4.394646	گول	-0.349726
-3.972572	گونه	-0.3552028
-3.643147	گوگل	-0.279333
-3.367587	گویا	-0.2475102
-4.42683	گوید	-0.2794042
-4.26202	گویی	-0.2953541
-3.897321	گپ	-0.3374557
-3.938714	گیر	-0.3000737
-4.461592	گیرد	-0.2872845
-3.734594	گیری	-0.2830375
-4.218554	گیگ	-0.4244949
-3.65996	ی	-0.275977
-2.611355	یا	-0.3041663
-4.637683	یاب	-0.3253538
-3.833203	یاد	-0.3195716
-3.96099	یاداوری	-0.5074114
-3.868676	یادتون	-0.8357573
-3.769922	یادتونه	-0.419564
-4.695675	یادشون	-0.3793715
-4.218554	یادم	-0.4752392
-4.142834	یادمون	-0.6585515
-4.586531	یادی	-0.7397822
-4.499381	یارانه	-0.3153728
-4.364682	یارو	-0.3306919
-4.586531	یاشار	-0.522745
-4.586531	یافت	-0.2811171
-4.063653	یافته	-0.3753763
-3.266616	یعنی	-0.337009
